players 0.33407 0.45319 0.76096 -0.74709 -0.96536 0.62084 0.34041 -0.11387 -1.0666 -0.66287 0.26991 -0.58044 0.25623 -0.35602 -0.036906 -0.21191 0.071417 0.71812 -0.4685 0.45349 -0.27221 0.4151 -0.23862 -0.16065 0.33403 -0.81583 0.33155 -0.71411 0.72621 0.21546 -0.30366 0.84397 -0.94548 -0.39242 0.75772 -0.2143 -0.66267 0.64008 -0.85669 -0.33888 -0.041352 -0.1716 0.86228 -0.26436 0.25418 0.20388 0.049084 -0.25608 0.31805 -0.93223 -0.11407 -0.17997 -0.88334 0.58143 0.43525 -1.809 -0.44053 -0.25994 1.1919 1.2099 -0.68136 0.89092 -0.527 0.38978 0.16404 -0.28348 0.64913 0.74323 0.01703 -0.27727 0.20105 -0.32079 0.07644 -0.65547 0.024626 0.11819 0.010816 0.22886 0.02073 -0.05256 1.2633 -0.38531 -0.69707 -0.66206 -1.6707 -0.33882 -0.50475 0.11589 -0.18555 0.0051588 -1.0001 0.40142 -0.75777 -0.32533 -0.39544 0.093625 -0.90781 0.41564 0.9508 0.23349
initially 0.073108 -0.20731 -0.56163 0.31496 0.28996 -0.036428 0.13359 0.19939 0.28812 0.010019 0.38978 0.035879 0.44498 -0.26821 0.26481 -0.7064 0.13265 -0.017685 -0.16338 -0.021732 0.40138 -0.226 0.25235 -0.21306 -0.27787 -0.46686 -0.1029 -0.12144 0.1069 0.45198 0.13875 0.89092 -0.57194 0.15186 0.35245 0.29044 0.27906 -0.042529 0.095145 0.067574 -0.60604 -0.08576 0.26037 0.074688 0.46178 -0.31866 0.25938 -0.13984 0.79886 -0.55538 0.25899 -0.1191 0.5188 0.94009 -0.10278 -1.946 -0.75428 -0.58232 0.73453 0.69896 0.44988 0.31089 -0.19337 0.33594 0.62408 -0.5175 -0.34025 0.44698 0.029464 0.38581 0.10683 -0.17622 -0.30427 0.094299 -0.33547 0.25858 0.14608 0.44368 -0.89408 -0.1451 0.039376 -0.17905 -0.71418 -0.23982 -1.4003 -0.59496 0.26262 -0.2403 -0.30256 0.16795 -0.25738 -0.61088 -0.2493 0.0020093 -0.14111 0.43349 -0.58052 0.033861 0.32951 -0.36222
provoked -0.037105 0.018768 -0.073676 -0.11802 -0.075367 0.90994 -0.22334 -0.31727 0.57356 -0.13065 -0.74621 0.11532 0.10722 -0.51846 0.066175 0.5631 -1.5588 -0.065146 -1.0282 -0.067884 0.64514 -0.49798 0.054897 -0.0811 0.33952 -0.14271 -0.47205 0.61199 0.38389 0.262 0.30899 0.29341 -0.10187 0.072853 -0.33863 -0.046393 0.65322 -0.37281 -0.68448 0.065811 -0.66787 0.077987 -0.10664 -0.40167 0.54517 -0.3149 0.93163 0.40939 0.40718 -0.2039 0.39895 -0.075605 -0.17824 0.45087 -0.063789 -0.86086 0.29845 -0.2267 0.12258 -0.02452 0.3515 0.8074 0.38504 -0.24358 0.66917 -0.25149 -0.034567 -0.22426 0.28032 -0.10168 0.21205 -0.071609 -0.30263 0.066568 -0.27304 0.59338 0.44076 0.021394 -1.4356 0.50075 0.72349 -0.54743 -0.064314 0.094618 -0.67965 -0.77937 -0.17963 0.38475 0.037894 -0.91391 0.027711 -0.17836 -0.85851 0.10626 0.45387 0.34289 0.09778 0.24963 -0.26155 0.19204
curiosity 0.01356 0.22485 0.50753 0.034644 -0.55068 0.66978 -0.26207 -0.41645 0.74125 -0.01632 -0.18715 0.19683 0.10736 -1.2115 0.29451 0.055455 -0.63613 1.1531 -0.34131 0.42739 0.21213 0.11648 -0.43269 -0.94168 0.67002 0.46692 0.3341 0.25931 -0.11709 -0.69896 -0.75393 0.16894 -0.45322 0.12885 -0.51053 0.57823 -0.12692 0.27616 -0.039462 -0.65007 -0.211 -0.22389 -0.19293 -0.57311 0.18216 -0.092851 0.40643 0.38873 0.50662 -0.13116 0.31351 -0.41797 -0.53431 0.57152 0.1582 -0.49715 -0.34168 -0.35285 0.10505 -0.54243 0.63991 0.76785 0.25153 0.19499 0.45685 0.045504 0.65453 -0.93798 0.37382 -0.006226 0.33442 0.42689 0.25668 -0.23154 -0.81661 0.96309 0.72055 -0.80993 -1.1772 -0.13621 -0.26126 0.82593 0.37245 -0.14195 -0.39515 -0.12625 0.076828 0.61744 -0.27161 -0.81463 -0.43648 0.28014 0.42934 0.08602 -0.23039 0.022261 -0.56361 -1.011 0.023504 0.66162
due -0.38091 -0.39921 0.36298 0.38955 -0.47161 -0.62401 -0.46884 0.44453 -0.0021434 -0.071924 -0.27513 0.1762 0.85769 -0.34676 0.45441 -0.64129 -0.23765 -0.01052 0.14712 -0.014953 -0.27536 -0.59454 0.3202 0.81088 0.27804 -0.11713 0.14079 -0.4155 0.569 0.45849 -0.13614 -0.073998 -0.50414 -0.17176 -0.45525 0.45894 0.44087 0.19897 -0.67165 0.14302 -0.5003 -0.11499 0.23487 0.022082 0.75274 -0.08659 0.38118 -0.19116 0.30632 -0.95484 0.46265 -0.16322 0.31705 0.95647 0.33894 -2.5745 -0.3983 -0.6503 1.9305 0.25376 -0.37126 0.53269 -0.55988 0.17556 0.84373 -0.19399 -0.043265 -0.64074 0.49327 -0.56457 -0.77037 -0.19492 -0.050215 0.025869 0.12057 -0.0044831 -0.32944 0.31881 -0.95664 0.27967 0.57054 -0.26358 -0.30308 0.16365 -1.2611 -0.39923 -0.13475 0.089142 -0.55023 -0.16943 -0.58903 -0.070594 -0.57754 0.80346 -0.27138 0.34169 -0.046246 -0.066712 0.78722 -0.954
race 0.48011 0.1466 0.79589 -0.56121 -0.22908 -0.25053 0.66255 0.70692 -0.46116 0.0073653 -0.11954 0.76603 -0.10467 -1.1498 -0.32625 -0.39295 0.13432 -0.045041 0.12199 -0.095479 0.61747 -0.039253 0.76069 -0.20782 0.31916 -0.47725 -0.57024 -0.37403 0.65947 -0.55622 -0.79306 -0.22381 0.20455 -0.013708 0.70174 0.32619 -0.41954 0.58027 -0.27881 1.3936 -0.89668 -0.93316 0.32214 -0.67299 -1.0904 -0.2456 0.67967 -0.48667 -0.31844 -1.0565 -0.15687 -0.23978 0.36421 1.1512 0.50046 -2.4204 -0.45923 1.3647 1.3469 0.31066 -0.56502 0.42756 0.46303 0.072919 1.5159 0.36483 -0.18 0.10672 0.18038 0.31623 -0.80432 0.27737 -0.66505 0.43227 -0.046316 0.45836 0.046247 -0.43933 -0.64804 -0.34554 -0.45256 -0.29653 -0.51528 0.63849 -0.59312 -0.01153 -1.0005 0.26151 0.37791 -0.44966 -1.0121 -0.016119 0.35708 0.79252 0.14351 0.15761 -0.17018 0.33367 1.015 0.088703
press -0.81873 -0.74881 -0.022037 -0.41631 -0.20336 0.45832 -0.049757 0.1777 0.1313 0.31787 0.025621 -0.21384 0.15744 -0.26173 -0.90298 0.55429 0.2071 -0.62957 -0.78768 -0.61491 -0.084646 0.43343 -0.17154 0.18438 0.10377 0.4816 0.55347 -0.41268 0.61509 0.49723 0.020336 0.24386 -0.64981 0.38044 -0.19646 0.62065 -0.16545 0.55536 -0.62804 0.30065 -1.1061 -0.25619 -0.41298 0.05286 -0.15202 -1.2422 -0.43235 -0.45739 0.2614 -0.3507 0.55381 0.30836 0.29286 0.99861 -0.025738 -2.3563 -0.56697 0.30285 1.1877 0.077863 -0.69603 0.28269 -0.67023 -0.35027 0.61303 -0.58144 0.56085 1.0716 0.74791 0.46873 -0.30659 -0.047314 0.09366 -1.0084 0.40975 0.46296 0.14638 0.26789 -1.5755 0.27449 0.091283 -0.51304 0.46477 -0.36009 -0.64157 -0.60512 0.14532 -0.11085 0.17086 -0.30415 1.0876 -0.35618 -0.11177 -0.030262 -0.50324 0.31834 0.52226 -0.22629 0.92353 0.083342
subsequently 0.22045 -0.6889 -0.59699 0.21361 0.76449 0.11997 0.26221 0.24554 0.35759 0.10452 0.49507 0.068141 0.64903 0.4551 0.11513 -0.6489 0.56859 0.032471 -0.54257 -0.12545 0.094277 -0.57052 0.42134 0.01404 -0.14324 -0.40691 -0.058455 -0.21679 0.49607 0.42732 0.2047 1.0552 -0.77191 0.23926 -0.018628 -0.094835 -0.10591 -0.21116 -0.83621 -0.09898 -0.6889 -0.35814 0.16391 -0.27907 0.86323 0.21909 0.13595 -0.11813 0.82269 -0.4471 -0.044174 0.033678 0.4193 0.60654 -0.083433 -1.5522 -0.55189 -0.29395 0.51348 0.71718 0.22576 0.28013 -0.33973 0.37474 0.95422 -0.70989 -0.38883 0.37097 0.23542 0.52522 -0.034486 0.32429 0.16077 0.19304 -0.50677 -0.10433 -0.092723 0.25454 -0.7651 0.028337 -0.16356 -0.053952 -0.2651 0.1102 -1.2112 -0.49549 0.29382 -0.81758 -0.12021 0.028046 -0.48847 -1.0195 -0.07308 0.55907 -0.12331 0.24194 -0.22978 0.37599 0.017588 -0.4879
expressed -0.37679 0.018673 -0.12534 0.46809 0.16258 -0.079036 -0.82518 -0.23649 -0.13669 -0.34419 -1.1894 0.092811 0.41929 -0.50994 -0.32564 -0.12599 -0.64787 0.26286 -0.73398 -0.45175 0.011801 0.29411 -0.56698 -0.091074 -0.48501 0.049879 0.77184 0.59007 0.75805 0.34992 0.28983 0.79008 -0.61781 0.70913 0.3387 0.40404 1.1775 0.5522 -0.31635 0.098341 -0.98011 -0.33314 0.91284 -0.057504 0.47508 -0.26134 0.20248 0.037941 0.11621 -0.88475 0.62012 -0.38498 0.63359 0.77708 -0.19733 -1.5765 0.15939 -0.39554 0.59274 0.38719 0.015987 0.075854 0.098724 -0.61621 0.24282 0.15949 -0.022001 0.83063 -0.064283 -0.16467 0.35978 0.077853 -0.4172 -0.95436 0.29397 1.0118 0.0982 0.10359 -1.5977 0.14492 0.068019 0.0017432 -0.13816 -0.24039 -1.3472 -0.3388 -0.19906 0.033139 -0.51958 -0.77338 -0.36058 -0.088408 -0.78335 0.39367 -0.32066 0.53006 -0.702 -0.88291 0.33007 0.10555
surprise 0.017953 -0.11313 0.61083 -0.3665 -0.3284 -0.21014 0.15641 0.036739 -0.066731 -0.42208 -0.35314 0.039426 -0.54507 -0.091684 0.19083 0.72637 -0.755 0.30696 -0.20795 0.60432 0.5053 -0.05301 -0.95646 0.17126 -0.22376 0.28623 0.038725 0.63742 0.79724 -0.99371 -0.5251 -0.15622 -0.18272 -0.16128 0.38372 0.18732 -0.13422 0.071208 -0.22077 -0.41236 -0.25773 -0.032057 0.55489 -0.18853 0.76066 0.043339 0.51025 0.10899 0.047352 -0.96501 0.39308 -0.40284 0.49938 0.55178 -0.023412 -2.4212 -0.069709 -0.059894 0.89457 -0.15871 -0.50402 0.35366 -0.04965 0.088761 0.49417 -0.50315 0.05424 0.25174 -0.17456 0.070699 -0.12677 0.09731 -0.47467 -0.5335 -0.21254 0.86953 0.11785 -0.30231 -0.443 0.17064 0.46991 -0.31522 -0.23372 -0.001483 -1.1064 -1.2866 0.35475 0.38627 -0.14897 -0.89993 0.055112 0.11311 -0.1394 0.36619 -0.6102 -0.072334 0.20031 0.075217 0.061281 0.32956
side -0.48104 0.025006 0.36128 -0.11911 -0.44548 0.53596 -0.51612 0.16642 -0.17159 -0.077397 0.30423 -0.35624 0.32388 0.3439 0.29066 0.14921 -0.0494 -0.32801 -0.025701 -0.42475 0.59617 0.020544 -0.009549 -0.35667 -0.25602 0.10293 -0.19253 -0.51961 -0.085575 -0.7255 -0.1714 0.95143 0.049814 -0.10873 0.67942 0.22462 -0.27074 0.58503 -0.24464 -0.10284 -0.083153 -0.63089 0.30708 -0.46455 0.7462 0.45496 0.47821 0.033115 0.035973 0.24494 0.32547 0.12229 -0.27305 1.4902 0.071321 -2.9396 -0.57162 -0.43063 0.89461 0.81439 0.10929 0.61253 -0.29248 0.34899 0.60027 0.061794 0.20903 0.71686 -0.71368 -0.74729 -0.057648 -0.084387 0.63506 -0.99988 0.46703 -0.22936 0.13718 0.65655 0.097251 -0.11263 0.26991 0.70284 -0.60415 0.21964 -0.74895 -0.66349 -0.65533 0.27243 0.32007 -0.10012 -0.76099 -0.11451 -0.57458 0.69286 -0.69263 0.26508 -0.59993 0.18845 1.2672 -0.12581
expected -0.27796 0.30231 0.18725 -0.12584 -0.12855 -1.0955 -0.034522 0.64725 -0.52823 -0.13457 -0.38564 0.26974 0.25514 -0.5583 0.25261 -0.67444 -0.10364 0.10749 -0.15049 0.013903 0.45408 -0.7743 0.1318 0.91709 -0.35213 -0.60559 0.052164 -0.069311 0.30827 -0.33595 -0.14043 -0.1164 -0.19684 -0.0087591 0.20873 0.82884 0.4546 0.14909 -0.36678 0.17103 -0.69244 -0.76684 0.23169 -0.20194 0.09472 -0.22776 0.22803 -0.76522 0.28131 -1.3426 0.58782 -0.65446 0.35056 0.65476 0.069956 -2.2628 -0.73082 -0.35286 1.8981 0.71912 -0.25904 0.57498 -0.59369 -0.25743 0.095479 0.37312 -0.29276 0.63878 0.11685 -0.68923 0.40351 -0.55259 -0.81625 -0.46859 -0.032101 -0.34279 -0.42092 0.11114 -0.49637 -0.11794 0.7831 -0.18268 -0.61821 -0.39703 -1.233 -0.88781 0.6664 0.093885 0.24446 -0.51437 0.52464 0.085144 -0.62629 -0.32011 -0.82609 0.36622 0.46419 -0.036566 1.0055 -0.1312
won 0.76222 0.4244 0.52142 -0.17333 0.88267 -0.34731 0.56977 0.56831 -1.1566 -0.1112 0.65045 -0.327 -0.59486 -0.11525 -0.61917 -0.26306 0.099659 0.19816 -0.029884 0.51016 1.0697 0.43445 0.73357 0.4988 0.7165 -0.68969 -0.17862 -0.82457 1.2123 -1.0012 -0.10805 0.79784 -0.0074444 0.31013 0.52086 -0.33906 -0.24449 1.4257 -1.3048 0.64268 -0.064299 -0.52785 0.24627 -0.71255 0.15777 -0.37284 0.76634 -0.83944 0.38903 -0.72386 -1.0251 -0.39154 0.77334 1.0487 0.077734 -2.3149 0.22371 0.60979 0.45228 0.28971 -0.1929 0.023149 -0.74615 0.7548 0.62112 -0.034022 0.016985 1.0178 -0.14847 0.47618 -0.18533 0.8837 -0.76806 0.42934 -0.4407 0.50914 -0.99371 -0.0265 -1.0665 -0.27986 0.61159 -0.067872 -0.14687 -0.029796 -0.60673 -0.29901 -0.37141 0.31543 0.59648 0.055415 -0.078148 -0.21809 -0.020038 1.0129 -0.51481 0.45144 -0.59261 0.52001 0.5746 0.25853
1980 0.50515 -0.1485 -0.24194 -0.16246 0.51537 -0.11091 0.53687 0.066184 -0.11915 0.14087 0.50173 -0.78681 0.19428 0.51237 -0.080191 0.055343 0.47916 0.36036 -0.35078 -0.034949 0.26534 0.37881 0.75904 0.21804 0.18141 -0.34277 -0.19922 -0.76911 0.8746 -0.048338 0.1544 0.79539 -0.12935 -0.031733 -0.81144 -0.089523 0.34833 0.51481 -0.59097 -0.40673 -0.18747 -0.080868 0.12869 0.051423 0.72135 -0.10087 0.93781 -1.1429 -0.31267 -0.37395 -0.23629 -0.29588 0.64581 0.78601 -0.067732 -2.119 -0.31442 0.035831 0.73406 0.059171 -0.41092 0.41798 -0.37351 -0.32063 0.79511 -0.27022 -0.18759 -0.056313 0.43307 0.80399 0.23178 0.49962 -0.58307 0.9203 -0.77143 -0.048865 0.36737 0.25798 -0.66712 -0.29864 0.012582 0.037318 0.52521 0.11495 -0.12158 0.24233 0.17649 -0.44485 -0.15351 0.25847 0.12981 -0.049893 -0.19497 0.97208 -0.42818 0.19463 -0.31832 0.58627 -0.096603 -1.0708
500 0.60204 0.72533 -0.085893 0.2984 -0.19108 0.3251 0.52305 0.40572 -0.74238 0.21794 1.4968 0.44359 0.005506 -0.79274 -0.58887 -0.47586 0.19877 -0.55773 -0.067793 0.12393 1.3714 -0.25715 0.36949 0.36964 0.28622 -0.90828 0.041857 -0.11375 0.096383 -0.40103 -0.039866 0.096373 -0.17119 0.57849 0.27036 0.43204 0.092612 0.41364 -0.13564 0.82841 -0.31489 -0.84149 0.2 -0.56077 -0.27658 -0.023587 0.11138 -0.31081 -0.27707 -0.71366 -0.29112 -0.36469 -0.2427 0.62252 -0.63593 -1.153 -0.53929 -0.046173 1.805 0.21031 0.37678 0.81889 0.01086 0.30568 0.53932 -0.18341 0.25457 0.13154 1.5445 -0.13067 -0.12635 0.11133 -0.95607 0.44758 0.18954 0.76216 0.48346 0.31685 -0.66226 0.00023856 1.0723 -0.2219 -0.40627 -0.64639 -0.39983 0.89923 0.47237 -0.88592 0.61431 0.33629 0.003951 0.42609 0.40049 -0.66275 -1.1117 0.13446 -0.081338 0.55717 1.079 -0.18366
award 0.71436 0.22114 -0.37604 -0.32633 1.3424 -0.67904 0.22045 -0.12186 -0.89462 0.24421 -0.29803 -0.45478 -0.48701 -0.05428 -0.8761 -0.13023 1.3686 -0.048758 -0.11003 1.2693 -1 -0.70829 -0.18008 -0.27971 1.7478 0.44701 0.14656 -0.22171 1.0478 -0.69376 0.146 0.83873 0.12071 0.88957 0.28496 -0.12439 -0.69413 1.3422 -1.5947 0.038978 -0.16725 0.51302 -0.36203 0.10474 0.54977 -0.10108 0.013877 -0.86732 -0.6845 -0.29218 -0.22561 -0.47102 0.36103 0.93723 -0.51709 -1.8621 0.34561 0.33897 1.2811 -0.0074144 0.20141 1.1333 -0.48613 0.55164 0.37845 -0.98926 0.020951 0.57633 0.34919 0.15114 0.26208 0.79876 -0.52936 0.50319 0.093428 0.38127 -0.5678 -0.0045169 -0.45851 -0.61212 -0.59758 0.011266 0.034187 -0.93455 -1.0058 0.095902 -0.46192 -0.87179 0.81685 -0.61746 0.0087744 -0.63001 -0.021274 0.14425 -0.027911 1.1859 0.0058671 0.3859 0.95599 0.35539
13 0.36763 0.023309 -0.028741 -0.15241 0.26486 0.14037 0.77125 0.40838 -0.60531 -0.17316 1.1608 -0.23702 -0.23213 0.27026 0.82251 0.083789 -0.0018132 0.16021 -1.0461 0.98052 0.74497 -0.10846 0.51783 0.77148 0.2845 -0.39415 0.2648 -0.16726 0.4411 0.23896 0.11524 0.27342 0.17732 -0.81631 -0.62561 -0.032182 0.075138 0.24766 -0.5206 0.824 -0.11204 -0.60113 0.78433 -0.28076 0.26945 -0.55347 -0.46765 -0.6721 -0.054619 -0.040909 -0.46668 -0.77043 -0.40149 0.90076 -0.56408 -2.2421 -0.22134 -0.73161 1.5684 1.0439 -0.65475 0.55068 -0.72331 0.14036 -0.014622 0.52705 -0.34851 0.43592 0.085714 0.47177 -0.2455 -0.019034 -0.21837 0.40532 -0.044886 0.17848 0.14654 0.19122 -0.91469 -0.3027 0.59865 0.0037112 -0.20827 0.26768 -0.43412 -0.42337 0.2821 -0.25061 0.18552 0.63101 -0.17209 0.26927 -0.20051 0.013887 -1.268 0.33903 -0.37743 0.038327 0.33332 -0.68682
victories -0.35553 0.25844 0.33654 0.012582 0.40547 -0.10447 0.59928 -0.38694 -1.4883 -0.25776 0.57472 -0.26385 -0.07113 0.057141 -0.44277 0.35088 0.13842 0.19064 0.049756 0.83633 0.93918 0.54605 -0.119 0.46919 0.22611 -0.78266 0.071167 -0.24758 0.79698 -1.3739 0.10286 -0.346 0.17771 -0.1071 0.2179 -0.18024 -0.85819 0.18834 -1.1426 0.87928 0.030119 -0.40512 0.77678 -0.73857 -0.17904 -0.64567 0.9935 -0.74778 -0.098961 -0.45978 -0.54907 -0.38992 0.047625 1.0004 1.2526 -1.4893 0.45437 0.54224 0.62764 0.77525 -1.3099 0.069567 0.2633 0.67515 -0.16423 0.20212 -0.25126 0.29165 -0.23009 0.29722 -0.25632 -0.011003 -0.6345 0.035973 0.07578 0.38281 -0.12994 -0.11758 -0.44596 0.50941 0.36769 -0.23899 -0.17289 0.48326 -0.65451 -0.20698 -0.22777 -0.56877 -0.00054674 0.30639 -0.85147 -0.11946 -0.1464 0.88141 -0.94297 -0.27662 -0.5324 0.46208 0.061286 0.31679
eight 0.045342 0.53907 0.09175 -0.28573 0.53702 0.39433 0.59705 0.77916 -0.97449 0.12039 0.93261 -0.036002 0.18211 0.50002 0.085751 -0.052734 -0.26294 -0.0034956 -0.79252 0.35014 0.90872 0.00042035 -0.006779 0.31547 0.50237 -0.84574 -0.14582 -0.20607 -0.12478 0.30578 0.0072997 -0.090696 -0.13796 -0.43565 0.17549 0.046519 -0.16452 -0.053261 -0.57272 0.7883 -0.71468 -0.28706 0.81905 -0.12385 0.52551 0.15503 -0.1091 -0.65488 -0.24642 -0.022244 -0.63205 -0.72396 -0.39881 1.1385 0.11621 -2.1278 -0.068028 -0.15404 1.6399 1.3625 -0.62138 0.76381 0.046392 0.35699 -0.015434 0.43006 -0.0032099 0.47679 -0.093772 0.081112 -0.19215 0.24864 -0.041566 0.20505 0.085003 0.54391 -0.42043 -0.41927 -0.74522 0.0087377 0.98528 0.32142 -0.27989 0.32109 -1.241 -0.089058 0.13647 -0.21184 0.27561 0.3723 0.021715 0.18484 -0.35686 -0.36793 -1.2274 0.1488 -0.59563 0.2349 0.48708 -0.28585
seasons -0.11081 -0.26641 0.15173 -0.66644 -0.06069 0.036585 1.1313 0.31496 -1.2321 -0.31853 0.69309 -1.0266 0.46025 0.15376 0.023903 -0.09165 0.073646 0.19517 -0.10896 0.78639 -0.38744 1.1163 -0.77131 0.27093 0.49475 -0.6836 -0.074085 -0.64401 -0.085214 -0.1366 -0.43889 0.30753 -0.075331 -0.6034 -0.54311 0.62406 -0.64536 0.40916 -1.0412 -0.28646 0.51049 -0.17627 0.33603 0.13091 0.64013 0.56201 0.74797 -1.0112 0.5915 -0.46108 -0.42083 -0.64066 -0.025591 0.70296 0.96906 -2.171 0.19135 0.091378 0.07876 1.4498 -1.1949 0.96002 -0.47597 -0.60584 0.51784 -0.042999 0.14483 -0.62725 -0.12347 0.46116 -0.186 -0.14722 -0.29773 0.39535 -0.25736 0.10359 -0.73212 0.20363 -0.14633 -0.025958 0.19596 0.39648 -0.64364 0.14879 -0.51274 0.027093 -0.27103 -0.43035 0.21054 0.65521 -0.74824 0.19276 -0.37937 0.11279 -1.0377 0.13303 -0.83056 1.237 0.60602 -0.30543
victors -0.10447 0.77031 0.56982 -0.18452 -0.17212 0.48186 0.38052 -0.60424 0.11415 -0.40207 0.56204 0.21204 -0.11799 0.1199 -0.051456 -0.33046 0.41985 0.39599 -0.22969 -0.27508 0.48564 -0.16677 0.24697 0.057582 -0.079226 -0.32765 0.26518 0.63069 0.40708 -1.0632 0.57639 -0.81508 -0.42891 0.066741 0.50558 0.077548 -0.17649 0.14698 -0.59222 -0.19876 -0.065319 0.15448 -0.075169 -0.13734 0.33107 -0.16501 0.78588 0.14677 -0.59049 -0.055115 -0.21567 -0.077697 0.29384 1.0078 0.088761 0.093136 0.61217 0.31625 -0.36711 -0.066463 -0.69685 -0.16467 -0.3544 -0.037923 0.21147 0.19744 -0.53865 0.55334 -0.67927 -0.25066 -0.55025 -0.49308 -0.36192 -0.22616 -0.29979 0.023887 -0.62057 -0.66845 0.14346 -0.28588 -0.051572 -0.12265 0.41264 0.87552 -0.16646 -0.47359 -0.7396 -0.14936 -0.50453 -0.22989 -0.2348 -0.046128 -0.24688 0.75759 -0.053551 -0.66684 0.47898 0.53294 0.11708 0.25999
contest -0.087894 0.163 0.20416 -0.33718 0.69264 0.3615 0.57177 0.70347 -0.31163 0.25581 -0.3489 -0.090588 -0.3785 -0.63543 -0.53828 -0.059918 0.13861 0.23207 -0.25985 0.18369 -0.0077134 -0.39955 1.0658 -0.15548 0.15993 -0.12246 -0.15421 -0.13653 0.77887 -0.53477 -0.33795 0.27781 0.66866 -0.13175 0.51974 -0.34745 -0.35956 -0.282 -0.8852 -0.35822 -0.16247 -0.34289 0.11735 -0.67015 -0.58973 -0.59141 -0.0005824 -0.74442 -0.31333 -0.29508 -0.24936 -0.20286 0.69911 1.0662 0.14829 -1.9976 -0.19667 0.043991 0.91903 0.46874 -0.63766 0.2334 -0.21275 0.12658 0.81849 -0.06332 0.16242 0.033774 -0.25221 0.12221 0.0038554 0.14481 -0.21823 0.65888 -1.0451 0.61838 -0.36412 -0.61664 -0.33219 -0.094248 -0.14666 -0.36599 0.19614 -0.24796 -1.0048 -0.89255 -0.59536 0.18269 0.57767 -0.15514 -0.31058 0.39427 -0.037239 0.76702 0.57879 0.1869 -0.38403 0.79926 0.85792 0.26045
retain -0.30218 -0.37475 0.16495 0.15479 -0.12171 -0.11825 -0.77495 -0.10808 -0.27869 0.26864 -0.23001 -0.031003 0.20604 -0.46033 -0.58016 -0.93842 0.47969 -0.016267 -0.015179 0.47821 0.0047694 -0.53191 0.11401 -0.14255 -0.36469 -0.91647 0.4295 -0.74545 0.51933 -0.27519 -0.001199 0.52286 -0.67828 -0.36589 0.40681 0.023639 0.10045 0.099313 -0.63913 0.22606 0.44591 -0.66109 0.53908 -0.86397 -0.033142 0.09898 0.5103 0.24735 -0.047441 -0.75638 -0.43803 -0.035886 -0.20492 0.77943 0.96613 -1.4098 0.29425 -0.53252 0.81677 -0.21551 0.13291 -0.0065363 0.12642 0.29574 0.75845 -0.022692 0.34688 0.71808 -0.28606 -0.75906 0.35366 -0.017503 -0.074984 -0.12833 0.21079 -0.27141 -1.1552 -0.46507 -0.36084 -0.012584 0.41427 -0.64677 -0.28831 0.15684 -0.17218 -0.084585 0.54709 0.68362 0.43284 0.79593 -0.20179 -0.30098 0.66603 -0.2318 -0.53441 -0.35684 -0.068574 -0.1569 0.28695 0.48794
championship -0.042128 -0.47788 1.0892 -0.43514 -0.46796 -0.17639 0.7789 0.50304 -0.78917 -0.37095 0.55836 -0.18275 -0.39957 -0.17314 -0.72944 0.18856 0.59633 0.50136 -0.34646 -0.13366 0.12079 0.056548 0.62326 0.65778 0.37476 -0.39957 -0.11279 -1.0262 0.91265 -0.38754 -0.8912 0.29699 -0.36011 -0.25808 1.0317 -0.44623 -0.90501 1.1459 -1.2297 0.56701 0.45074 -0.44656 0.69197 -0.9416 0.068462 0.37151 1.1694 -0.13333 -0.55792 -1.1614 -1.3364 -0.3646 -0.083682 0.71496 1.0994 -2.6588 -0.46187 0.4321 0.30795 1.0383 -0.80232 0.46333 -0.20949 0.11369 0.15942 -0.65053 -0.65184 0.76229 0.0066009 0.33305 -0.37863 -0.28991 -0.3174 0.10645 -0.59584 0.57081 0.22518 -0.45753 -0.65331 -0.096256 0.33061 -0.27538 -0.37459 0.13799 0.11639 -0.17111 -1.3054 -0.71862 0.69395 0.89755 -0.94673 0.4313 -0.36899 1.0378 -0.13235 -0.16213 -0.33112 0.95204 1.2787 0.35923
advocate -0.29645 0.15535 -0.9674 0.11869 0.78437 0.2569 -0.40986 -0.74693 -0.21292 -0.11109 -0.89153 -0.7804 -0.55144 -0.29935 -0.21866 -0.39707 0.2013 -0.3858 -0.8627 0.21834 0.18233 0.24788 -0.14753 -0.17004 0.097666 0.6099 -0.103 -0.94135 0.088105 0.73133 -0.0163 0.90182 0.39765 0.69492 -0.015259 -0.19685 -0.46796 0.17068 0.47891 -0.15467 -0.58624 0.33119 0.41912 -0.44144 0.23593 -0.9474 0.31925 -0.33865 -0.5267 -0.55933 0.56984 -0.10852 0.0066864 0.81006 0.16091 -0.62593 0.4643 -0.66275 1.0418 -0.42471 0.23123 -0.73186 -0.11994 0.030126 0.89662 -0.28542 0.21733 0.18902 0.53022 0.10687 0.52348 -0.25456 -0.31238 -0.4087 -0.41837 -0.72399 -0.09868 -0.198 -0.32324 -1.0455 -0.11411 0.0074827 0.30763 0.35645 -1.0049 -0.14512 -0.38583 0.24205 -0.15176 -0.7639 0.60438 -0.67185 0.074934 0.40726 -0.15643 0.31622 -0.14362 -0.17501 0.50098 -0.044168
increased 0.29642 0.10755 -0.37765 0.28073 0.24202 -0.77096 -0.44954 -0.011529 -0.028735 0.30933 -0.70503 -0.24199 0.093232 -0.55555 0.80029 -0.62051 -1.1408 -0.02665 -0.10771 0.028356 0.40601 -0.37856 -0.077509 0.79914 -0.21937 -0.24408 0.25188 -0.67453 -0.1342 -0.54667 0.20318 0.38007 -0.32589 -0.01652 0.067331 0.42178 0.90037 0.4151 -0.65986 0.67971 -0.1007 -0.89272 -0.11513 0.030401 0.96123 -0.17521 0.5706 -0.51901 0.52624 -1.4812 0.11011 0.076987 -0.66799 1.4877 0.041646 -1.6533 0.027031 -0.91174 1.6012 0.16178 0.22741 -0.13648 -0.43206 0.15413 0.3676 0.54626 -0.079814 -0.39666 1.7267 0.33922 0.35801 -0.45591 0.19402 0.43156 0.185 0.22283 -0.062249 0.038912 -0.91432 0.3017 0.72105 0.20518 -0.097211 0.094296 -1.1486 -0.38243 0.6878 -0.5636 -0.50189 -0.0025237 -0.29246 -0.080332 -0.4139 -0.23396 -0.48981 -0.16239 0.3045 -0.34056 1.0843 -0.35296
ethnic -0.027884 1.0083 -0.10273 0.098994 0.74011 1.2072 -0.088794 -0.45988 1.1447 1.3378 -1.5995 -0.00501 1.327 -0.21455 -0.053877 0.23174 -0.17349 -1.148 -0.88399 0.019414 0.70654 -0.31694 1.2682 0.22744 -0.018818 -1.1903 0.47719 0.39665 -0.31229 -0.85607 -0.14042 0.11717 -0.17164 -0.62741 0.3616 -1.3474 2.0323 0.81289 0.10828 -0.26574 -1.5767 0.006117 0.085015 -0.32134 0.090127 -0.27793 -0.06215 -0.17315 -0.53201 -0.26861 -0.57893 -0.71363 -0.63265 0.99622 0.47159 -1.0105 0.14828 -0.2481 2.0737 0.28665 0.23782 0.5659 -0.11121 -0.48344 1.2261 0.097632 0.70957 -0.009824 0.083 0.48461 -0.33328 -0.33341 -0.49671 0.048401 -0.086519 0.16536 -1.2745 0.26713 -0.93225 0.27439 0.32553 -0.46024 0.21722 0.23032 -0.61129 0.26736 -1.4496 0.031195 -0.33009 0.4313 0.071341 0.29437 -0.92004 0.026606 -1.1485 -0.45424 -0.66912 0.093379 -0.06599 0.47012
representation -0.030987 0.5937 0.41467 0.72193 0.31209 0.5101 -0.57862 -0.13152 -0.17422 0.6119 -0.68706 -0.91689 0.603 -0.14604 0.13178 0.24644 -0.10506 0.70053 0.6069 -0.056686 -0.023093 -0.28109 0.66656 -0.68899 -0.34719 -1.1018 1.0234 0.088842 -0.21734 -0.53959 0.80518 0.32955 -0.079284 -0.33661 0.30891 -0.42252 0.35234 0.70825 -0.42504 -0.32818 -0.37699 -0.53205 0.49486 0.13602 -0.36083 -0.36309 0.067848 -0.19372 -0.24896 0.10243 -0.38062 0.071912 -0.074882 1.3117 -0.29056 -1.0966 0.47385 -0.68441 1.3078 -0.1806 -0.41387 -0.60614 -0.66817 0.020585 1.3245 -0.018904 -0.1815 0.41022 0.21016 -0.29433 -0.19708 0.044116 0.36051 -0.30562 0.63532 -0.087996 -0.34127 -0.62529 -0.51378 -0.61949 -0.5289 -0.13986 0.26373 -0.33308 -1.1063 0.35032 0.13748 -0.29543 0.95094 -0.40007 0.18851 -0.17441 -0.13946 0.30489 0.70979 -0.10758 0.0010482 -0.11609 0.090762 -0.20275
entertainment 0.23663 -0.46896 0.37816 -0.20189 0.44938 -0.0406 -0.16961 -0.068903 0.31474 -0.12188 0.97337 -0.93651 0.032923 -0.74383 0.10782 -0.46936 0.91545 0.099765 -0.18502 0.64574 0.29975 -0.17365 -0.12848 -0.56038 0.15556 0.65934 1.1251 1.1093 -0.83746 0.24461 0.25852 0.78569 -0.58614 -0.21024 0.11817 0.45549 0.056519 0.63144 -1.0579 -0.81382 0.53385 0.36438 -0.98143 0.30932 -0.066608 0.004439 -0.89617 0.2095 0.92079 -0.16076 -0.44506 -0.40737 -0.12202 0.19807 0.84839 -2.2798 -0.17826 0.61991 1.7713 0.49144 -0.23346 0.744 -0.36487 -0.63783 0.34139 -0.51139 0.79681 -0.17424 0.43395 0.43689 -0.30469 -0.24966 -0.27356 0.14817 -0.33086 -0.41147 0.025413 -0.013352 -0.3011 -0.14013 -0.30435 -0.52477 0.5926 0.45399 -0.89249 -0.18777 -0.73268 -0.31374 0.36842 -0.42137 0.68716 -0.34418 0.31603 -0.32649 -0.028085 -0.18048 0.26234 -0.23749 1.8042 0.54391
industry -0.12419 0.323 0.086431 -0.22618 0.21486 -1.7374 -0.63401 -0.15892 0.39001 -0.54521 0.07049 -1.0063 0.0052327 -0.47912 -0.66095 -0.26998 0.82347 -0.43201 -0.0097331 0.37346 0.03242 0.32632 0.46603 -0.17132 -0.12496 0.029494 0.045909 0.026349 -0.64728 -0.13938 -0.060012 0.75321 -0.01858 -0.46878 -0.47528 0.31727 -0.25299 0.029181 -0.45718 -0.61999 -0.19335 -0.60236 -0.57227 0.084462 0.28054 -0.73414 0.36365 0.26166 -0.22548 -1.0378 -0.28617 -0.2083 -0.07588 1.1662 0.3253 -1.5728 -0.8938 0.075756 2.3181 0.8808 0.3273 0.16781 0.046313 0.19536 0.058358 0.081167 0.74626 0.032699 0.87148 -0.32959 0.25705 0.44222 -0.65714 -0.12934 -0.071402 -0.66926 -0.096182 -0.54086 -1.2009 -0.064056 0.82421 -0.058324 -0.19963 0.5065 -1.6408 -0.6709 -0.4041 -0.57611 -0.36324 -0.78395 1.3076 -0.071947 -0.58948 -0.61056 0.12916 0.56431 -0.023277 -0.33206 1.3644 0.13322
2001 0.39863 -0.22428 0.28627 -0.41867 0.89063 -0.30268 0.43543 0.1412 -0.050796 0.30794 0.83377 -0.43845 0.25397 0.20883 -0.10061 0.061951 0.20268 -0.014015 -0.58659 0.18741 0.093888 -0.43762 0.53632 0.97351 0.13661 -0.29331 0.59424 -0.48183 0.36659 -0.27366 0.31649 0.37973 0.016153 -0.20173 -0.36487 0.16951 -0.020441 0.38907 -0.46057 -0.052243 -0.32504 -0.11879 0.50745 0.22922 0.43051 0.0012949 0.51333 -0.93318 -0.023374 -0.64969 -0.36674 -0.3595 0.43814 0.93804 -0.34246 -2.5099 -0.22467 -0.012601 1.3847 0.43553 -0.39351 0.53025 -0.33289 -0.51672 0.59422 -0.16053 -0.41476 0.085981 0.573 0.51759 0.32987 0.34916 -0.96271 0.20301 -0.86378 -0.091034 0.24025 0.51235 -1.1676 -0.12444 0.58024 0.18135 0.057088 0.17361 -0.3993 -0.17103 0.17186 -0.33892 -0.22218 0.37184 -0.023201 -0.023481 -0.1561 0.49305 -0.10407 0.39984 -0.04153 0.46477 0.35595 -0.98532
founded 0.6864 -0.12983 -1.1631 0.24146 0.67983 0.1308 0.37104 -0.40206 -0.23201 -0.15409 0.43896 -0.79291 0.78816 0.33221 -0.19953 -0.74811 1.2186 -0.11771 -0.64519 0.17626 -0.30376 0.38656 0.45444 0.10429 -0.31317 -0.67871 -0.076088 -0.51852 0.26118 0.43709 -0.1987 1.1903 -0.039458 0.031058 -0.59088 -0.10945 0.33396 0.58983 -0.071389 -0.80931 -0.24024 0.42999 0.027841 -0.38365 0.23252 -0.75944 0.30774 0.2716 0.45605 0.31545 -0.85635 0.28381 0.16698 -0.041196 -0.60302 -2.2625 -0.68812 -0.32851 0.79913 0.10615 0.50721 0.085393 0.13639 0.020704 0.59414 -0.28893 -0.24292 0.41157 0.86195 0.3789 0.56987 0.29567 -0.68704 -0.25886 -0.52538 -0.5707 0.41573 -0.23157 -1.08 0.05279 -0.18358 0.12444 -0.16438 0.61333 -0.27101 0.12929 -0.27977 -0.68339 0.11558 -0.1454 0.22448 -0.67403 0.2564 0.82964 -0.38899 0.35656 -0.41889 -0.67801 0.51915 -0.2349
production 0.36622 0.12434 -0.21046 -0.13624 0.31808 -1.9094 0.054222 0.72825 -0.35685 0.47407 -0.10669 -0.67991 0.23425 0.053366 -0.24847 -0.10672 0.21431 0.36731 1.1082 0.29009 0.41994 -0.5316 0.77336 0.30423 0.16521 0.20905 0.20337 -0.082957 -0.13893 0.48026 -0.81531 0.26852 -0.26467 -0.41767 -0.43464 0.53394 0.79129 -0.24004 -0.51245 -0.34833 0.43349 -0.42261 -0.74869 0.91185 1.127 -0.082883 -0.4663 -1.1648 -0.21104 -1.1799 -0.35253 0.25048 -0.47397 1.2757 -0.02622 -1.9967 -1.1629 -0.20128 1.4315 -0.0029584 0.70911 0.59139 -0.15825 0.10363 0.93889 -0.40963 0.55489 -0.36519 0.52994 -0.16663 0.73804 0.11328 -0.12386 0.067679 0.47266 -0.19046 -0.008641 -0.026138 -0.71655 0.59935 0.25784 0.10146 -0.52501 0.57151 -1.7771 0.041576 0.43476 -0.80307 -0.31194 -0.26464 0.11321 -0.40386 -0.31022 -0.0479 -0.48683 -0.092252 -0.19909 -0.3408 1.1713 -0.15728
company 0.60631 -0.37365 -0.31874 0.030332 0.18667 -1.1275 0.18433 0.16875 -0.20626 0.0087478 0.86313 -0.25189 0.40721 -0.51964 -0.79094 -0.72724 1.0097 -0.11107 0.42026 0.16993 0.076219 -0.11326 0.23855 0.41726 -0.57761 -0.14314 -0.19051 0.33742 -0.49969 -0.28331 0.25436 1.5028 -0.50439 -0.68896 -0.42216 0.46763 0.34395 0.00036374 0.26785 -0.71838 0.73955 -0.1161 -0.48352 -0.21261 -0.11326 0.59394 -0.26361 -0.25681 0.28549 -0.85409 -0.24955 0.087372 0.3393 0.86974 -0.37837 -2.4103 -0.67233 -0.39496 2.2253 0.444 0.73806 -0.23085 0.0014253 0.63356 0.2074 -0.351 0.66789 0.74544 0.42554 0.40073 -0.14964 0.37755 -0.66066 -0.47359 0.39401 -0.34221 0.4854 -0.34195 -1.7212 0.41925 0.75561 -0.29337 -0.35955 1.059 -1.3379 -0.85894 0.074892 -0.5918 -0.1528 -0.44238 0.096469 -0.538 -0.049649 -0.47351 -0.27107 0.62337 -0.11412 -0.35592 1.0019 0.14789
producing 0.1774 0.25688 -0.28845 0.22513 0.93045 -0.60462 0.14119 0.387 -0.28589 0.43341 0.12974 -0.9472 0.13224 0.14646 -0.37522 -0.54253 0.22936 -0.22604 1.3705 0.15713 0.20564 0.34037 0.49742 -0.34417 0.017416 0.38261 0.14098 0.071807 -0.0076824 0.75846 -0.23989 -0.01486 -0.10547 -0.8144 0.21533 -0.24258 0.29147 -0.62096 -0.63238 0.115 -0.017938 0.32859 -0.49492 -0.20955 0.78016 -0.20817 0.23133 -0.89133 -0.51834 -0.94827 -0.48983 -0.11576 -0.4133 0.93319 -0.1556 -1.5295 -0.55039 0.011124 0.79761 -0.12449 0.5279 0.84919 -0.053646 -0.16433 0.68355 -0.20073 0.92594 -0.21123 0.43452 -0.31366 0.43044 0.3365 0.0071881 0.25277 0.20765 0.28744 0.096234 -0.51132 -0.52734 0.7253 0.65789 0.45725 -1.1204 0.29489 -0.99331 0.48249 0.56183 -0.34464 -0.33474 -0.083374 -0.16138 -0.01718 -0.45068 -0.70586 -0.65951 -0.083869 -0.66096 -0.58894 1.4791 -0.064408
short -0.43089 -0.023907 -0.081875 0.044522 0.33741 -0.23081 -0.35145 0.33043 -0.92222 -0.22005 0.33604 0.37326 -0.035146 0.1891 0.47452 0.1585 -0.34785 -0.085125 0.64394 -0.35164 0.5997 0.50188 0.077886 -0.069592 0.68977 0.40665 -0.96515 -0.39662 -0.066261 0.49834 -0.19183 0.12322 -0.51768 -0.63041 0.1008 0.32112 0.12368 0.16942 -0.35461 0.50978 0.23796 -0.098361 -0.10643 0.08031 0.20706 -0.51952 0.51756 -1.01 0.015322 -0.016197 0.13823 0.022547 0.64536 0.92345 0.14181 -2.7991 0.15426 0.053223 1.6572 0.30195 -0.05011 0.8899 -0.12597 0.068082 0.83607 -0.44485 0.42012 0.21 0.16211 -0.30593 -0.24196 0.050916 -0.16804 -0.049685 -0.039044 0.34179 -0.38453 0.55344 -0.57794 -0.42575 0.12292 0.091383 -0.43363 -0.61465 -1.6718 -0.098493 -0.13724 -0.24059 0.13742 0.20643 -0.3922 0.19714 0.008992 -0.48841 -0.73909 0.1728 -0.18782 -0.16071 -0.064686 -0.025191
film 0.19916 -0.049702 0.24579 -0.32281 0.89768 -0.1278 -0.49506 0.20814 -0.20046 -0.20604 0.038292 -0.67277 -0.12689 -0.18766 -0.10277 0.73128 0.82408 0.087288 0.69255 1.3107 0.49113 -0.38097 0.24338 -0.27813 0.62506 0.35978 0.42041 -0.24529 0.14861 -0.26726 -0.56262 0.63843 -0.54153 0.36537 0.20545 -0.16604 0.72434 0.29961 -0.42501 -0.35932 -0.089288 0.48752 -1.0927 0.88818 0.89941 -0.7541 -0.35492 -0.76396 0.27468 0.2757 -0.48152 -0.41399 0.64489 1.148 -0.29131 -2.9387 -0.83162 0.95586 1.1623 -0.42502 0.15486 2.2326 -0.31339 -0.030228 0.79802 -0.41302 0.72885 0.7296 -0.31909 0.8956 0.34625 0.2923 0.40056 0.78985 -0.43999 0.24698 -0.46548 0.055886 -0.62603 -0.036487 -0.65429 0.10563 0.17435 0.35466 -1.9403 -0.022502 -0.7302 -0.63042 -0.032799 -0.43953 -0.07239 -0.44875 -0.074689 -0.14426 0.19252 0.27108 0.20325 -0.068109 0.017651 0.06455
's 0.58854 -0.2025 0.73479 -0.68338 -0.19675 -0.1802 -0.39177 0.34172 -0.60561 0.63816 -0.26695 0.36486 -0.40379 -0.1134 -0.58718 0.2838 0.8025 -0.35303 0.30083 0.078935 0.44416 -0.45906 0.79294 0.50365 0.32805 0.28027 -0.4933 -0.38482 -0.039284 -0.2483 -0.1988 1.1469 0.13228 0.91691 -0.36739 0.89425 0.5426 0.61738 -0.62205 -0.31132 -0.50933 0.23335 1.0826 -0.044637 -0.12767 0.27628 -0.032617 -0.27397 0.77764 -0.50861 0.038307 -0.33679 0.42344 1.2271 -0.53826 -3.2411 0.42626 0.025189 1.3948 0.65085 0.03325 0.37141 0.4044 0.35558 0.98265 -0.61724 0.53901 0.76219 0.30689 0.33065 0.30956 -0.15161 -0.11313 -0.81281 0.6145 -0.44341 -0.19163 -0.089551 -1.5927 0.37405 0.85857 0.54613 -0.31928 0.52598 -1.4802 -0.97931 -0.2939 -0.14724 0.25803 -0.1817 1.0149 0.77649 0.12598 0.54779 -1.0316 0.064599 -0.37523 -0.94475 0.61802 0.39591
festival 0.16703 0.34424 -0.42483 -0.58517 1.412 0.18365 0.011981 1.2781 -0.44585 -0.6656 -0.9443 -0.70614 0.27261 -0.52033 -0.54792 0.14154 0.51025 -0.37312 -0.10429 0.89265 -0.29816 -0.84041 0.36043 -0.01089 0.33999 0.33236 0.04888 0.51216 0.82334 -0.75119 -1.3495 -0.15193 0.39978 0.72282 -0.028948 -0.14455 0.3282 0.54561 -0.91476 -1.2192 -0.03245 0.1198 -0.44615 0.22306 0.79309 -0.83451 0.036119 -0.70903 0.49312 -0.032458 -0.629 -0.53462 0.07826 -0.21114 -1.5997 -2.4541 -0.69967 0.742 1.3044 0.03921 -0.039778 1.8014 -0.20244 -0.09796 -0.059068 -0.14211 -0.31417 -0.73733 0.30819 -0.024959 0.22453 -0.08524 -0.15629 0.43802 -0.81702 -0.3525 0.3635 -0.66298 -0.2478 -0.13657 -0.38953 -0.41603 0.25275 0.31896 -1.0052 0.03741 -1.1452 -0.27211 0.77936 0.45086 -0.43136 -0.59057 0.18058 0.41525 -0.13563 0.25068 -0.034371 0.17492 1.2349 0.52924
order -0.034057 -0.43131 -0.19716 0.46429 -0.10513 0.53612 -0.48987 -0.30831 -0.49893 0.36651 -0.19352 -0.11855 0.31087 0.23738 -0.35699 -0.37677 0.60825 0.56713 -0.6612 0.40612 -0.043963 -0.93474 0.4853 -0.19031 0.46714 -0.015579 -0.38304 -0.51897 0.16811 -0.068862 0.29067 -0.031393 -0.31108 -0.43114 -0.33586 0.39899 0.20414 -0.53229 -0.35693 -0.33847 -0.43594 0.040716 0.2285 -0.91157 0.16134 -0.16923 -0.19384 -0.20617 0.091049 -0.6711 0.36988 0.16965 0.024592 1.3771 -0.15788 -2.1277 -0.28285 -0.15612 2.3049 0.50289 -0.63042 -0.10613 -0.084574 0.092476 1.2218 -0.18183 -0.76381 0.23732 0.40246 -0.41733 0.073375 -0.4046 -0.19212 -0.7337 0.57635 0.48449 -0.59015 0.086238 -0.76147 0.151 0.29896 -0.38905 -0.73351 0.13635 -1.1779 -0.018747 0.44691 -0.44374 0.21153 0.07235 -0.49581 -0.58365 0.13184 -0.33582 -0.27479 -0.25103 0.33756 -0.65422 -0.021066 0.0042945
campaign -0.61527 0.32715 -0.86983 -1.0439 0.81676 0.42518 0.4435 -0.028421 -0.22501 0.58533 -0.24978 -0.17747 -0.29341 -0.48998 -0.54316 0.099071 0.36962 -0.51354 -0.087551 -0.37826 0.78639 0.24903 0.29688 0.38373 -0.99479 0.43684 -0.34238 0.12277 -0.20322 -1.0698 0.37367 0.76077 0.86792 0.14114 -0.44201 0.067479 -0.488 -0.12485 -0.21091 0.79741 -0.63913 -0.50495 0.53466 -0.086324 -0.4726 -0.71852 0.20816 -0.92277 -0.17185 -0.95178 0.14434 0.16233 0.57301 1.3329 0.41414 -2.6787 0.19162 -0.20213 1.2819 0.19396 -0.20334 0.098051 0.31497 -0.18388 1.2139 0.14751 -0.17941 0.23629 0.58448 0.086942 0.54095 -0.6335 -0.91381 -0.39369 -0.61351 -0.10681 -0.33536 0.70776 -1.4939 0.11156 0.4668 -0.10377 0.19867 -0.18219 -1.3863 -0.30084 -0.59094 0.58907 -0.26503 -0.57678 -0.15877 0.14814 0.50709 0.6834 0.092827 -0.35182 -0.3382 1.0004 0.21358 0.48133
niece 0.45601 -0.45849 0.20054 0.037433 0.16433 0.61571 -0.015299 -0.061173 0.14723 0.21378 -0.026032 0.7282 -0.091235 0.33174 0.23942 -0.53372 0.21361 -0.28172 -0.59238 0.96127 -0.66675 -0.0036984 0.18542 0.81471 0.73418 0.15098 -0.8115 -0.95759 0.01263 0.52082 0.27724 0.077231 1.1285 -0.31312 -0.3101 0.30702 0.24027 -0.14869 0.67095 0.16665 0.13789 0.47508 0.59811 -0.72113 0.064573 0.25796 -0.49014 0.14015 0.46594 0.14864 -0.12416 -0.02618 0.68972 0.41246 0.058873 -0.57969 -0.38713 0.21046 -0.76966 0.047832 0.1784 0.7109 0.36476 0.031806 0.14641 -0.29571 -0.055122 0.59737 0.052162 0.083525 0.062843 -0.094484 0.1633 -0.17318 -0.050941 0.32381 -0.062008 -0.3407 -0.3708 -0.36303 -0.057467 0.33984 1.0788 -0.046173 -0.8604 -0.72666 0.001837 -0.2637 0.0019473 -1.0629 0.31315 0.066191 1.3068 0.27241 -0.84348 -0.22182 -0.39522 -0.63814 -0.74446 -0.35189
also -0.33819 0.064568 -0.032558 -0.29448 0.84125 -0.29092 -0.35264 0.35777 0.004152 -0.0067549 -0.11512 -0.38832 0.49764 0.47187 0.046247 -0.059806 0.59317 -0.080286 -0.45926 0.28211 0.33909 -0.25741 0.30599 0.53594 0.1168 -0.30916 -0.16143 -0.1841 -0.26339 -0.035592 -0.13136 1.1538 -0.61616 0.73314 0.46168 0.4241 0.2918 0.73092 -0.17098 -0.03529 -0.6867 -0.24653 0.34776 -0.46747 0.21257 -0.052958 0.1032 -0.52122 0.61087 -0.71005 -0.16765 -0.34415 0.27119 1.1337 -0.33195 -2.3864 -0.52352 -0.25531 0.80993 1.3563 -0.1452 0.32792 0.11149 0.17806 1.0008 -0.37243 0.3127 0.28634 0.47915 -0.23534 0.13146 -0.5478 0.054173 -0.19163 0.16276 -0.067267 -0.0044537 0.55708 -1.2568 -0.063385 0.62438 -0.28284 -0.6458 -0.2832 -1.8987 -0.5706 0.026083 -0.41721 0.29686 -0.18416 -0.19252 -0.59915 -0.17981 0.17649 -0.56043 0.48284 -0.44081 -0.84036 0.78533 0.36017
patrons 0.93214 -0.026446 -0.083208 0.10295 0.16084 1.1589 -0.19512 0.2 0.25405 -0.59709 -0.01324 -0.62981 0.4785 -0.18689 -0.43886 -0.29337 -0.090069 -0.0058869 -0.64994 0.3115 -0.30664 -0.10691 -0.08977 -1.081 0.12878 -0.77236 -0.23192 -0.15069 0.32943 -0.62156 0.44397 0.29948 -0.089381 0.066208 0.31456 0.49337 0.065794 0.36745 0.051294 -0.3436 0.20583 -0.31306 -0.26482 -0.34085 0.70389 -0.3235 -0.38744 0.00086328 0.6496 0.046366 -0.018265 -0.30249 -0.44592 0.25164 -0.20637 -0.36315 -0.084034 -0.55809 0.83849 -0.2446 -0.13525 0.77865 0.46343 0.50816 0.16759 -0.13671 0.69526 -0.14806 0.38785 -0.68638 -0.21299 -0.44782 0.36583 -0.41875 -0.86402 -0.35677 0.26335 -0.25776 0.2523 -0.33554 0.3469 -0.36724 0.14775 -0.30596 -0.82729 -0.41964 -0.51976 0.065961 -0.28419 -0.43959 0.42994 -0.35861 0.59186 -0.43781 -0.6808 -0.35666 -0.09806 0.18064 0.6695 0.30793
trained -0.062443 0.54646 -0.63744 -0.1629 -0.33036 0.14841 0.2854 -0.027062 -0.96906 0.87773 0.31912 -0.35297 1.0904 0.4278 -0.38768 -0.44778 0.50988 -0.19683 -0.63837 -0.18694 -0.0092035 -0.31984 0.49261 -1.0616 -0.49322 -0.66041 -0.51994 -0.79816 0.49114 0.15326 -0.94528 -0.0032227 -0.38701 0.39566 1.1855 0.16325 -0.8457 0.81713 0.55036 0.21164 -0.32873 0.3796 -0.10773 -0.43084 0.55792 -0.39808 0.18185 -0.27955 0.29852 -0.54115 -0.92775 -0.144 0.13104 0.81646 0.21049 -0.96596 0.051749 -0.37073 0.71554 -0.032604 1.0418 1.0808 0.25608 0.12312 0.34776 0.091765 -0.081147 0.78831 0.4813 1.4923 -0.02388 -0.28598 -0.65951 0.37243 0.23596 -0.24189 0.42615 -0.02102 -0.025176 -0.56494 1.3953 -0.10525 -0.73795 0.049167 -1.3111 0.12982 0.41896 0.69944 -1.0149 -0.42981 -0.47183 -0.77494 0.40253 0.042638 -0.43762 0.10231 -0.67743 -0.086742 -0.26923 -0.31565
performed -0.43564 0.033928 -0.80696 0.043694 0.39051 0.31911 -0.031473 0.98183 -0.68758 -0.0072754 0.030331 -0.41943 0.54515 0.51076 -0.30598 -0.44981 0.57468 0.76656 -0.08429 0.38813 0.50557 -0.94517 0.13386 0.058626 -0.17943 -0.18596 -0.17792 -0.29633 1.073 0.16703 -0.58758 0.16777 0.31598 0.88214 0.25688 0.2085 0.023797 0.35983 -0.47863 -0.91583 0.33916 0.55699 -0.51868 0.82626 0.012787 -0.26272 -0.3174 -0.66578 0.074307 -0.75128 -0.32323 0.15976 0.49349 0.14564 -0.46669 -2.2174 -0.46783 -0.17203 0.28789 1.1294 0.19295 1.3706 0.28163 0.22307 0.14818 -0.062648 0.12151 -0.20078 0.40697 0.2589 -0.59434 0.18479 -0.12929 0.8995 0.43382 -0.40609 -0.3025 -0.088776 0.25288 -0.68464 0.5841 -0.062549 0.43366 0.49919 -2.3055 -0.2249 0.54706 -0.23391 -0.64707 0.27307 -0.57524 -0.66581 -0.077244 0.8983 0.052446 0.25855 -0.71734 -0.24317 -0.051066 -0.0070115
received 0.6316 0.19742 -0.34281 -0.1557 0.68986 0.16975 0.35076 0.6097 -0.38117 0.13524 0.16673 -0.14274 0.15941 0.4306 0.21481 -0.47025 0.43005 -0.51582 -0.19327 0.73749 -0.28354 -0.24956 -0.15329 0.11363 -0.12924 -0.36787 0.11971 0.065129 0.74818 -0.3802 0.67221 0.87122 -0.092059 0.88669 -0.0016122 0.42023 -0.22736 0.51928 -1.0758 0.63688 -0.51272 0.060229 0.098448 -0.41515 0.61589 -0.31828 -0.014354 -0.39628 0.44775 -0.42946 0.24903 -0.021769 0.56386 0.38557 -0.65593 -1.9108 0.22578 -0.4925 1.3608 0.2922 0.44959 0.74226 -0.63361 0.30804 0.21659 -1.037 -0.21264 0.55096 0.45619 0.72729 -0.45986 0.23555 -0.0067362 0.25746 -0.0058665 1.0185 -0.52697 0.071986 -1.5352 -0.42067 0.76987 -0.26881 -0.31529 -0.5354 -1.3532 -0.338 0.62168 -0.74892 -0.059436 -0.38819 0.07084 -0.54418 -0.15339 0.31758 -0.26523 0.55795 -0.17072 0.27281 0.35882 -0.20648
positive 0.43385 0.39656 -0.08207 0.24921 -0.14806 -0.53745 -0.17603 -0.085117 -0.40782 -0.44446 -0.58445 -0.14971 0.33555 -0.28027 0.59886 0.89536 -0.59244 -0.16457 0.34656 0.27937 0.76173 -0.26848 -0.97593 0.41474 -1.0014 0.06316 0.95393 0.17069 -0.14098 0.6985 0.082144 0.52142 -0.27456 0.5642 0.8728 -0.23062 0.12196 0.48946 -1.271 0.08965 -0.84637 -0.26129 0.25161 -0.52738 0.1356 0.12306 0.052546 -0.4133 -0.25617 -1.3112 0.91579 -0.19559 0.052998 0.50368 -0.15949 -2.3884 -0.12122 0.26459 1.3294 -0.45286 -0.10407 0.39303 -1.0804 0.14384 0.5202 0.57544 0.36783 -0.037184 0.23943 -0.27346 0.23998 0.28916 -0.081736 -0.082439 0.61155 0.65132 -0.1529 -0.63152 -0.67196 -1.0458 0.080372 0.26208 -1.0728 0.067749 -1.0979 -0.15319 0.24705 0.0085332 -0.91119 -0.75851 -0.94307 0.0075549 -0.46237 -0.075132 0.25464 0.71082 -0.5818 -0.32477 -0.15831 0.67787
reviews -0.8798 0.13604 0.43975 -0.30877 0.50379 0.31618 -0.30931 -0.17681 -0.57 -0.3325 0.44207 -0.92437 0.16939 -0.37041 -0.044593 1.1807 0.27204 -0.47683 0.18278 1.6831 0.076914 0.0082387 -0.59083 0.063692 0.15458 -0.20553 0.66316 0.33212 -0.11893 0.17655 0.4479 0.45647 -0.52997 0.68398 -0.10609 0.81389 0.35122 -0.041644 -1.1729 0.19163 -0.35036 -0.31198 -0.81616 0.20641 0.27194 -1.1931 -1.0376 -0.92664 0.63978 -0.29502 1.4287 -0.23199 -0.22052 0.23608 0.022214 -1.4138 0.51438 -0.13706 1.0612 -0.34526 -0.49454 0.59211 -0.54152 0.32493 0.20189 -0.41938 0.20215 0.024253 0.0058627 0.26593 -0.068871 0.98137 0.35584 0.42487 -0.89525 0.26803 -0.56779 -0.1288 -0.55929 -1.1144 0.35901 0.16355 -0.34166 0.33862 -1.3866 -0.50465 0.22877 -1.5602 -1.0086 -0.064617 -0.00059047 -0.12294 -0.4314 -0.017092 0.22759 1.4162 -0.28717 0.22445 0.41789 0.93756
contemporary 0.018576 0.82153 0.28487 0.84061 0.98719 0.61724 0.072493 -1.0646 -0.53791 0.56133 0.027546 -0.7005 0.013764 0.1101 0.10899 0.22678 0.15331 -0.094367 -0.03356 0.58428 0.046499 -0.27419 0.30379 -0.80121 0.30327 -0.73075 0.83788 -0.61202 0.21814 0.29056 -0.84578 0.065305 -0.54009 0.6854 -0.44023 0.20637 -0.070998 0.00799 -0.19494 -0.72235 -0.37053 -0.34274 -0.71546 0.59265 -0.049729 -0.57381 0.21313 -0.2583 0.072147 -0.002016 0.54558 0.28935 0.23737 -0.34202 -0.052728 -1.9046 -0.1849 -0.07324 0.95964 0.027394 0.2599 1.179 -0.20523 -0.035746 0.84813 -0.53188 -0.028394 -0.052267 -0.082382 -0.30308 -0.11094 0.57978 0.17258 0.53727 0.20911 -0.5984 0.052324 -0.048054 -0.43957 -0.75722 -0.25359 0.038012 0.62311 0.47059 -1.0333 0.12956 -1.2121 -0.37961 -0.13479 -0.58875 0.47089 -0.21083 0.064617 -0.25986 -0.54763 -0.092195 -1.3543 -0.81001 0.61448 0.63871
critics -0.31665 0.44267 0.60888 -0.32146 0.30432 0.26543 -0.75938 -0.76631 0.01662 0.21073 -0.42256 -0.32475 -0.50032 -0.9022 -0.73714 0.25231 -0.12887 -0.18429 -0.35715 0.65044 0.46891 -0.030987 -0.10627 -0.51616 0.1619 0.072104 0.010109 0.025042 0.57195 -0.054657 1.1426 0.67814 -0.10052 0.74875 -0.10555 0.75566 0.023455 0.046253 -0.55932 -0.24375 -0.95728 0.092371 -0.44569 0.66724 0.66221 -1.3319 0.26381 -0.27941 -0.12304 -0.21512 0.72882 -0.050665 -0.30548 1.0638 -0.25437 -1.7224 0.10046 -0.24385 0.69499 -0.12416 -0.36833 0.33428 0.019832 0.33041 0.58474 -0.46943 0.37438 0.30153 -0.16476 -0.18835 -0.17427 0.75786 -0.46623 0.43509 -1.2698 -0.54405 -0.097395 0.193 -1.001 -0.15717 0.57596 -0.28865 -0.42593 -0.43077 -2.1842 -0.38043 -0.53982 0.32828 -0.62338 -0.38034 0.13009 -0.61572 -0.75896 0.0012337 -0.036816 0.33212 -0.61658 0.15598 0.46569 0.88865
declared 0.020872 -0.35341 0.061219 0.47226 0.1885 0.24755 0.15138 0.21941 0.018103 0.077719 -0.49219 0.40323 0.43531 -0.55275 0.015546 -0.48256 1.0795 0.4814 -0.84503 -0.16522 0.52577 0.25152 0.4903 0.024754 -0.21077 0.10767 -0.1287 0.39112 0.14501 -0.12296 0.84754 -0.048964 0.032596 0.38445 0.18075 -0.27054 0.073105 -0.34414 -0.99552 -0.064533 -0.83982 0.51094 1.4215 -0.37676 0.67968 -0.43406 0.15699 -0.21191 -0.61164 -0.48289 -0.0051128 -0.22799 0.90929 0.53749 -0.66186 -1.7803 0.32489 -0.050177 1.2903 0.77261 0.12287 -0.3031 -0.44374 -0.54156 0.69954 0.11142 0.13046 0.6644 -0.45064 0.19795 0.37536 -0.21286 -0.41553 0.013885 0.1447 -0.20843 -0.49303 0.20585 -1.0663 0.027024 0.32458 -0.98387 -0.53536 0.42597 -0.38521 -0.34471 0.016538 0.08122 -0.20029 -0.25374 -0.057555 -0.25245 -0.010836 1.1641 -1.0732 0.43252 0.17911 0.16517 -0.38818 -0.25147
track 0.32228 -0.1097 0.47249 -0.10462 0.34316 -0.49609 -0.22263 0.42833 -0.11014 -0.089598 1.0961 0.37959 0.47335 -0.34928 -0.22639 0.40075 0.54794 -0.087748 0.020893 -0.092109 0.40709 0.16208 0.37753 -0.1818 -0.31601 -0.088803 -0.4988 -0.65926 0.55904 0.519 -0.5257 0.094662 0.058114 0.77082 0.15484 0.21927 -0.39942 0.24981 -0.10596 0.2416 0.21547 -0.27286 0.088884 -0.020817 -0.10042 0.028969 0.25752 -0.72987 0.36696 -0.89772 -0.0098035 -0.052629 0.35066 1.0265 0.68539 -2.5411 -0.16658 0.79028 1.6491 0.52352 -0.095636 0.46339 0.13968 0.016423 1.0176 0.13381 -0.052997 0.52917 0.47581 -0.56537 -0.28363 0.03584 -0.029408 0.11013 0.44261 0.27038 0.8515 0.10103 0.51023 -0.96083 0.2277 0.071428 -0.45569 0.15989 -0.97388 0.3851 0.062834 -0.26922 -0.12226 0.6627 -0.89774 0.50317 -0.63183 0.083059 0.50716 -0.27899 -0.86304 0.11636 1.1186 0.11304
strongest 0.24657 0.59415 0.2579 0.14817 -0.075456 -0.23359 0.26539 -0.71165 -0.47217 0.041521 -0.049866 -0.88235 -0.38566 -0.3781 -0.23881 0.48435 -0.34141 -0.062772 0.2278 0.47711 0.8492 0.18102 0.054756 0.45384 -0.33203 -0.21135 0.043172 0.51461 0.28058 0.27171 1.0789 -0.18202 0.69445 0.44323 0.30786 0.16755 -0.28626 -0.47971 -0.31718 0.03498 -0.43311 0.58888 1.294 0.25259 0.66938 -0.30741 1.1469 -0.17571 -0.11564 -0.96301 -0.44235 0.05921 0.23547 0.3062 0.42337 -1.4139 0.39741 -0.18381 1.0138 0.1629 -0.19798 0.36488 -0.4063 0.32669 0.52124 0.13232 -0.55415 0.23471 0.54841 -0.61058 0.39375 -0.25839 -0.18795 -0.13948 0.55419 0.078671 -0.22271 -0.58955 -0.33882 -0.071412 0.17796 0.027193 -0.86588 -0.18537 -0.53642 -0.94208 -0.14267 0.28407 0.65817 -0.45147 0.3149 0.5114 -0.18787 0.24072 -0.12776 0.33324 -0.85996 -0.45498 0.66528 0.67536
song -0.20181 -0.071811 0.72526 -0.50313 1.2585 0.65024 0.18399 -0.084942 0.42652 -0.017524 0.2819 0.15924 -0.070275 0.22617 0.14699 -0.15519 0.68584 -0.35722 0.034995 0.49866 1.2094 -0.41853 0.056533 0.2161 -0.16367 0.81575 -0.11273 -0.24456 1.3419 0.20132 -0.77685 0.63483 0.88386 0.92982 -0.14763 0.044292 0.26434 0.3362 -0.36969 -1.5062 0.19298 0.68243 -0.20024 0.99566 0.37843 -0.30085 -0.80727 -0.85098 0.3896 -0.80589 -0.069258 0.11408 0.67753 0.45479 -0.30921 -2.7645 -0.14802 0.55145 0.47024 0.92589 0.49974 0.98762 -0.4761 -0.07365 0.9706 -0.23982 0.79655 0.31308 -0.051331 -0.64392 -0.16087 0.74622 -0.022713 0.29361 0.24785 0.98513 -0.11774 -0.17811 0.33659 -0.82853 -0.139 -0.4679 0.18255 -0.03011 -1.7041 -0.079307 -0.72092 -1.1939 0.20224 0.92653 -0.40786 0.26387 -0.51089 0.58869 0.094796 -0.32498 -1.4762 -0.52873 -0.056057 0.042455
demonstrates -0.025274 0.23557 0.48393 0.55618 0.12426 -0.3618 -0.19992 0.025585 0.11541 0.013554 -0.24755 -0.073489 0.27182 -0.53755 -0.38253 0.34693 -0.21777 0.3994 -0.17551 0.14298 -0.12543 -0.47858 -0.33456 -0.55417 0.04273 0.15716 0.068046 -0.2566 -0.42579 -0.43489 -0.31237 0.8232 0.0070494 0.1218 0.066312 -0.076337 0.25002 -0.19123 -0.2886 -0.49747 -0.21049 0.38181 0.057295 0.23173 -0.51447 -0.36272 0.72204 -0.1636 -0.073633 -0.31579 0.077773 -0.05379 0.18393 0.56105 0.090676 -0.86117 0.28903 -0.70044 0.18523 -0.2169 -0.33767 0.25202 0.049587 -0.25273 0.026641 0.42605 0.046719 -0.17634 -0.0216 0.13603 0.84564 0.026233 -0.23492 0.068125 0.94809 0.090856 0.11267 -0.3596 -0.75644 0.1438 0.1349 0.19929 -0.29414 -0.095476 -0.70961 -0.40444 -0.047026 -0.19245 -0.37583 -0.15283 -0.32559 -0.11473 -0.24968 0.38482 0.56811 0.054123 -0.34516 -1.0724 -0.30705 0.98504
influence 0.31131 -0.16089 0.43179 0.66843 0.2664 0.12641 -0.63466 -1.2659 0.16256 0.35232 -1.1356 -0.40209 -0.16303 -0.18601 -0.52766 -0.13572 -0.20473 -0.52206 -0.30388 0.15584 -0.033552 -0.20153 0.13262 -0.52051 -0.60099 -0.23346 0.14167 -0.66831 0.61514 0.088023 0.55761 0.26164 -0.36211 -0.14952 -0.63845 -0.12579 0.71484 0.30224 -0.55713 0.036885 -0.94993 -0.19828 0.13377 -0.10647 -0.27756 -0.67536 0.49261 -0.29029 0.52626 -0.95172 -0.070755 0.72741 0.11925 0.79655 0.33895 -2.0555 -0.23384 -0.50677 1.0078 0.067859 -0.075175 0.73795 0.08981 0.36395 0.84118 -0.0186 0.34313 -0.48042 0.53847 -0.0793 0.52242 -0.44998 0.19853 -0.10036 -0.25378 -1.0456 -0.52903 -0.50006 -0.40846 0.5699 0.26495 0.10217 -0.064009 -0.1744 -1.2677 -0.19279 -0.50518 -0.1563 -0.019018 -1.1898 -0.58164 -0.25683 -0.039209 -0.16075 -0.0027926 -0.31285 -0.62162 -0.93291 0.5879 0.45196
glam -0.41129 0.31782 0.4808 -0.72318 -0.34847 0.67852 -0.67655 -0.28895 -0.063168 1.5574 0.18264 -0.46691 -0.48573 0.50473 0.42847 -0.087234 0.23536 -0.64125 0.797 0.44628 0.93209 0.13776 -0.5594 -0.11373 0.0464 0.16758 0.90836 -1.2935 1.0457 -0.38832 0.42742 -0.35607 -0.12902 0.628 0.4325 -0.43595 -0.0024034 -0.3051 -0.25407 -0.76389 0.031261 0.44156 -0.45251 0.58416 -0.29889 0.19687 -0.076549 0.32786 0.65908 -0.30677 -0.42671 0.017444 0.16085 -0.65999 -0.19826 -0.23631 -0.46786 1.1199 0.18166 0.29099 0.34524 0.47151 -0.69841 0.61982 0.38375 -0.64501 0.50419 -0.1949 -0.38246 -0.53912 0.21343 -0.152 -0.96885 0.66953 -0.85618 -0.55049 0.53196 -0.13764 0.45997 -0.28428 -0.027873 0.2612 1.2037 0.54255 0.34875 0.17742 0.24573 -0.27314 -0.12723 -0.28947 0.2993 -0.42434 -0.61413 0.1491 0.93866 -0.39978 -0.51965 0.25586 0.28142 0.18439
rock -0.68387 0.39176 0.5367 -0.378 0.42068 0.3151 -0.12959 -0.039727 -0.38993 0.48069 0.42589 -0.05737 -0.32457 0.56809 0.32001 -0.32282 0.77238 -0.63141 0.16418 0.9891 0.89864 0.27613 -0.38481 -0.56139 0.11241 0.42056 -0.033829 -0.21714 0.92384 0.18438 0.075164 0.00077238 0.15979 1.1103 0.26824 -0.40034 0.053574 -0.14829 0.5328 -1.0415 -0.273 0.11074 -0.73618 0.47192 0.039466 -0.15975 -0.3489 0.2324 0.34385 -0.51007 -0.48266 -0.14807 0.39921 0.045746 -0.1711 -2.871 -0.69739 0.15572 1.4906 1.183 0.53026 1.0778 -0.083191 0.22489 1.0309 -0.22814 0.95806 -0.31578 0.11968 -1.049 -0.39771 0.46479 -0.47275 0.65784 -0.60764 -0.67165 0.80523 -0.042942 0.61753 -0.32655 0.22757 0.13329 0.41163 -0.062335 0.0055428 0.045062 -0.21218 -0.48234 -0.019404 0.50274 -0.25566 -0.52942 -1.0037 0.68707 -0.1712 -0.46629 -1.3876 -0.14145 1.3115 0.31476
directed -0.21567 -0.33206 -0.45313 -0.41919 0.82384 0.36837 -0.61553 0.16841 -0.62995 -0.023168 0.2699 -0.4657 0.094082 0.26985 0.2795 0.1807 0.0074895 0.29671 -0.63218 0.86336 0.42662 -0.55487 0.33863 -0.21184 0.24564 0.40058 0.17919 0.066713 0.098859 0.17272 -0.56386 0.5703 -0.14503 0.35375 -0.26583 -0.14769 0.80013 -0.0067112 -0.39313 0.027752 -0.10297 0.30957 -1.0458 1.176 0.92512 -0.56637 -0.77477 -0.83083 -0.11463 0.055441 -0.40675 -0.054181 0.46651 0.81062 0.033595 -2.1541 -0.36123 0.85944 0.50093 -0.4943 0.4748 1.1931 0.42139 -0.10817 1.0794 -0.50794 0.26591 1.1886 0.21978 1.0539 0.47414 -0.011562 0.026147 -0.031809 -0.16441 0.045222 -0.27503 0.67033 -0.59198 0.089545 -0.23214 0.12678 -0.2528 0.063869 -1.6515 0.088796 -0.18252 -0.31924 -0.2131 -0.9439 -0.56847 -0.75329 -0.61068 0.30506 0.58672 0.40351 0.061258 0.024186 -0.43767 -0.26252
documentary 0.0093314 -0.15821 0.14475 -0.15762 0.90144 -0.26217 0.14272 0.44588 -0.60174 -0.48438 0.3826 -0.0297 -0.064981 -0.18152 0.25928 0.67791 0.56781 -0.42512 0.32156 0.88563 0.093188 -0.10601 0.090282 -0.39573 0.64393 0.11823 0.48902 0.55408 0.070359 -0.076801 -0.47872 -0.05711 -0.73531 0.87794 -0.21354 -0.27628 -0.11511 0.31752 -0.18651 0.064835 -0.55031 0.69411 -0.72659 0.99763 -0.17842 -0.69658 -0.24819 -0.88481 -0.19347 0.16535 -0.29524 -0.044281 0.53336 0.74397 -0.089871 -2.0459 -0.26441 0.411 0.8616 -0.31977 0.27612 1.6758 0.20693 -0.87371 1.2859 -0.57131 0.26591 0.37228 -0.61508 0.36385 0.68535 0.64711 0.4624 1.0822 -0.50682 0.30715 0.39955 0.23107 -0.4184 -0.29416 -0.56551 0.41923 0.85313 0.036276 -1.2792 -0.050234 -0.89033 0.18424 -0.14626 -0.10291 0.27973 -0.43413 0.14681 -0.40143 0.44777 -0.058748 0.015386 -0.39636 0.36529 0.4127
1972 0.44782 -0.30861 -0.21715 -0.0078157 0.46981 -0.16396 0.61596 0.044773 -0.18168 0.35197 0.60722 -0.77562 0.25421 0.82521 -0.068442 -0.024943 0.83414 0.3832 -0.44169 -0.25233 0.22213 0.26298 0.91003 0.24613 0.053329 -0.26937 -0.31201 -0.69202 0.57751 -0.091093 -0.30565 0.99493 0.19256 0.050881 -0.85557 -0.083468 0.37797 0.12354 -0.80817 -0.22047 -0.15086 -0.012463 0.16394 -0.095542 0.61477 0.015957 0.8218 -0.8827 -0.49252 -0.465 -0.12829 -0.16325 0.49312 0.51827 -0.069594 -1.9972 -0.024231 0.067355 0.77877 0.15198 -0.48259 0.67582 -0.14942 -0.18176 0.77395 -0.075467 -0.15801 0.34312 0.14705 0.7206 0.1647 0.25783 -0.32961 0.75659 -0.96608 0.11851 0.097871 0.26372 -0.66588 -0.4201 -0.14012 -0.21779 0.51582 0.32584 -0.10042 0.6352 0.019985 -0.41379 0.012514 0.54796 0.022821 -0.43429 0.057693 1.12 -0.22372 0.51696 -0.45588 0.68422 -0.21972 -0.71973
band -0.1216 -0.24348 0.030226 -1.2775 0.62423 0.39206 0.065402 0.20421 -0.53397 0.13893 0.26517 -0.58043 0.34875 0.26053 0.28681 -0.55287 0.73724 -0.65565 0.71753 0.27391 0.47934 -0.61922 -0.26729 -0.26051 -0.039193 0.25322 -0.014115 -0.5405 1.7491 0.2721 -0.24734 0.54012 -0.15149 0.70848 0.29934 -0.43364 0.4532 0.26163 0.7244 -1.2507 0.20152 0.73168 -0.1092 0.89028 0.10365 -0.40096 -0.4573 0.18444 0.71122 -0.72101 -0.14241 -0.055955 -0.092496 0.065297 -0.2081 -2.9792 -0.33965 -0.41949 0.67747 1.4242 0.80313 0.85717 -0.48795 0.1208 0.89289 -0.40356 0.18408 -0.17472 0.57541 -0.35312 0.005563 0.23046 -0.72122 0.27443 -0.3719 -0.024945 0.45489 -0.2384 0.55946 -0.27285 -0.07421 0.19916 0.45601 -0.023975 -1.1518 0.011752 0.01657 -0.75601 -0.36328 0.98481 -0.89614 -0.31128 -0.93766 0.6214 -0.15711 -0.77181 -1.4108 0.50354 0.8215 -0.044315
around 0.049432 0.29907 0.070318 0.085277 -0.17125 0.93128 -0.67008 0.54096 -0.38016 -0.49383 0.30008 0.28522 0.7559 -0.065383 0.56754 -0.83206 0.1329 0.11873 -0.63604 -0.29106 1.0898 0.65408 0.58158 -0.022854 0.24991 -0.551 -0.14216 -0.065637 0.10867 -0.17114 -0.27218 -0.20419 0.9035 -0.22882 -0.12385 0.41479 -0.15903 0.23308 -0.08571 0.063337 -0.40937 -0.79099 -0.28885 -0.28497 -0.2298 -0.26469 -0.009687 -0.066363 0.017328 -0.61434 0.10515 0.23692 -0.069444 1.6105 -0.61603 -2.6838 -0.7 -0.31433 1.5742 0.81873 0.36615 2.0177 -0.30481 0.30421 0.077525 0.26503 0.33716 -0.12614 0.672 0.11275 0.30333 -0.32643 -0.27705 -0.28524 0.10183 -0.4819 0.76543 0.13401 -0.3008 0.25959 0.68685 0.14341 -0.49093 -0.029874 -0.72508 0.38488 0.49854 -0.28301 -0.12738 -0.025954 0.14759 0.43767 0.056956 -0.37114 -0.68358 0.047255 -0.43799 0.21136 1.4037 0.54495
time -0.024221 -0.034855 0.3571 -0.02155 -0.54804 0.31822 0.012929 0.35174 -0.4169 -0.29411 0.63723 -0.14859 -0.015264 -0.35811 0.12395 -0.67468 0.28165 -0.006541 -0.41743 0.0056387 0.26789 0.18282 0.077023 0.23808 0.505 -0.24993 -0.029143 -0.50666 0.42215 -0.097988 -0.45997 0.37969 -0.12402 -0.19568 -0.12479 0.24071 -0.51656 0.44866 -0.040484 -0.41001 -0.55576 -0.26892 0.19317 0.089754 -0.27962 -0.1567 0.39276 -0.97373 0.44148 -0.97508 0.0028868 -0.29774 0.33367 1.5798 -0.047833 -2.9699 -0.41627 0.034471 1.6993 0.8347 -0.28926 0.85307 -0.23608 0.12667 0.99202 -0.18601 0.28053 0.085047 0.27694 -0.030098 -0.30514 -0.29668 -0.027471 -0.2722 0.13718 -0.12591 -0.43509 -0.70461 -0.89953 -0.15115 0.50439 -0.23954 -0.5216 0.12224 -1.467 0.21616 -0.071825 -0.022067 -0.15128 -0.55081 -0.28592 0.32269 0.19877 0.14663 -0.81213 -0.30295 0.19865 -0.087568 0.25961 0.050783
accidentally 0.24011 -0.21796 0.18039 0.1011 0.34144 0.45358 0.31969 0.54561 1.3832 -0.17534 0.32814 0.54448 0.7586 0.83325 0.35575 0.2294 0.12305 0.135 -0.56583 0.088999 0.43916 -0.41969 0.38734 -0.074092 0.48059 0.41876 -1.3754 0.16475 0.33177 0.458 0.046019 1.0421 -0.23714 0.24605 0.23278 -0.84163 -0.8396 -0.62314 0.44032 0.27753 -0.61606 0.15578 0.24912 0.064211 0.26397 0.68166 -0.69035 0.27557 0.10278 -0.79308 0.1025 0.32625 0.016197 0.91473 -0.0061437 -0.87199 -0.3137 0.12738 0.41185 0.50069 0.72718 1.0295 0.46981 0.75443 -0.0012755 0.045142 0.67912 -0.36022 -0.47053 0.21873 -0.36599 -0.18466 0.42203 0.27922 -0.3974 0.28977 0.22311 -0.089187 -0.4998 0.76962 -0.25199 0.17488 -0.86927 -0.50274 -0.62738 -0.94766 0.39117 0.16972 -0.5631 -0.33478 -0.089543 -0.064208 0.22293 -0.12389 -0.15918 0.24533 0.11349 0.10641 -0.29093 -0.5947
swears -0.20783 -0.19324 0.64702 -0.34518 -0.048987 0.71099 -0.5245 0.46863 0.55096 0.11427 -0.25798 0.52661 0.1066 0.56997 -0.40563 0.084474 0.11034 0.26937 -0.19788 0.58252 0.090929 -0.42342 -0.16879 -0.028054 0.26866 0.37778 -0.30459 -0.13681 -0.080158 -0.38544 0.04657 0.98496 -0.69984 0.04512 -0.32384 0.51628 -0.26844 -0.49416 -0.044256 -0.17453 -0.19677 0.50674 0.72494 -0.83564 -0.81629 -0.13517 0.028734 -0.1245 0.52467 -0.2381 -0.60968 -0.24705 0.65321 0.36104 -0.19748 -0.061269 0.20443 0.33156 -0.78492 0.20548 0.44321 -0.062812 0.11377 -0.21492 0.07368 0.25526 0.38695 -0.33259 -0.16512 -0.15138 0.51418 -0.74442 -0.17163 -0.3281 -0.18407 0.12285 -0.32376 -0.25856 -0.1102 -0.10434 0.4959 -0.62882 -0.0016394 -0.070008 0.67664 -1.0085 0.4342 -0.0047808 -0.33779 -0.50942 0.32398 -0.24741 0.32281 0.4894 0.033117 -0.25098 0.19133 -0.067886 -0.67385 0.87223
filed 0.7557 -0.35114 -0.4193 -0.039296 0.81362 0.62061 -0.22554 0.3581 -0.46911 -0.14055 0.3551 0.086353 0.093294 -0.29051 -0.3815 -0.7471 0.62814 0.58942 -0.44845 0.11371 0.32755 -0.1751 0.42134 1.244 0.1097 -0.20064 0.37113 -0.37484 -0.51984 0.068171 1.5941 0.67327 0.16026 -0.042583 -0.41647 -0.26742 0.28815 -0.65518 0.32868 0.035336 -0.70372 -0.05627 -0.2701 -0.79318 -0.29082 -0.31227 -0.22908 -0.12533 0.49992 -0.29906 0.89969 -0.40498 0.7356 0.29111 -0.21091 -0.47926 -0.15254 -0.77204 2.1505 0.6438 -0.4805 0.20238 -0.045387 -0.17968 0.63326 -0.74965 0.2345 1.1263 -0.5789 0.17276 -0.44047 0.61969 -1.2296 -0.59701 0.23489 0.57298 -0.012722 -0.26712 -1.8013 0.13808 0.40618 -0.42761 0.32177 -0.074717 -0.64952 -1.2038 0.074825 0.023846 0.21507 -0.23991 0.23809 -0.60853 -0.5297 0.11115 1.0928 0.966 0.17001 0.44152 0.89414 -0.63424
lawsuit 1.0298 -0.26779 -0.23173 -0.17191 0.18096 0.36049 0.16042 -0.21225 -0.042689 0.19768 0.10461 0.28772 -0.35121 -0.68206 -0.66918 -0.45084 0.37462 0.32123 -0.42345 0.57049 0.3109 -0.41406 0.17129 1.0209 0.28398 0.33072 0.17512 -0.56954 -0.92384 -0.055211 1.0558 0.96867 0.20752 -0.10504 -0.63967 -0.27606 0.045226 -0.63723 0.41957 0.088922 -0.53819 0.15597 -0.31377 -0.75982 -0.28587 -0.32916 -0.25666 0.086474 -0.038407 -0.66259 0.95902 -0.17917 0.46833 0.30364 -0.26511 -0.98429 -0.2051 -0.97681 1.6283 0.25328 -0.3305 0.08697 0.44615 -0.20239 1.01 -0.83488 0.31022 0.58466 -0.65852 0.12827 0.054543 0.58089 -0.94195 -0.077831 0.18456 0.43186 -0.089714 -0.4199 -1.4992 0.63445 0.49136 -0.53955 0.48225 -0.027323 -0.97118 -0.73554 -0.60774 0.26431 0.47324 -0.19823 0.053563 -0.81506 -0.79983 -0.33186 1.4179 0.7442 0.056287 0.74464 1.0358 -0.51411
unlawful 0.50691 -1.0332 -0.27095 0.12198 -0.2772 0.97255 -0.037251 0.60355 0.40363 0.47737 -0.22747 -0.2044 0.14169 -0.14682 0.56883 -0.1565 -0.074687 0.49021 -0.60979 0.67539 1.1432 -0.30034 0.52171 -0.16872 -0.34321 0.79883 0.42502 -0.28489 -0.027231 -0.10959 0.13151 -0.11123 -0.65347 -0.15914 0.15017 -0.57212 0.021917 -0.4839 -0.059841 -0.6216 -0.66986 0.39311 0.7716 0.23017 0.016659 -0.43896 0.10664 -0.43707 -0.49477 -0.16821 0.29913 0.13148 0.064485 0.27091 -0.27476 0.30718 1.0614 -0.81789 1.412 -0.04474 -1.0494 -0.9109 0.041535 -0.29442 0.37585 -0.68165 0.79741 -0.77114 0.271 -0.2656 -0.13111 -1.2374 0.34925 0.04033 0.22893 0.14162 -0.37136 -0.18975 -0.95012 0.17809 0.93554 0.29476 0.43776 0.69165 -1.2431 -0.51435 0.71884 0.082743 0.65792 -0.51574 -1.2058 -0.21867 0.63987 0.24903 1.4978 -0.41695 -0.17569 -0.35622 0.14838 -0.66062
termination 0.67565 -0.70872 -0.40827 0.26729 -0.88446 -0.30085 -0.16783 0.46393 -0.2832 0.38966 -0.12086 0.33461 -0.024347 -0.20263 0.96351 -0.62348 -0.13352 -0.047864 0.17365 0.31485 -0.17942 -0.39786 -0.67245 0.92881 0.7829 0.61663 0.33745 0.30625 -0.10774 -0.82379 0.60213 0.84435 0.084432 -0.60613 -0.52998 -0.14839 -0.0037697 -0.72152 0.039453 -0.56709 0.34188 0.72075 0.080562 -0.42283 0.13831 -0.029333 0.10434 0.043909 -0.11344 -0.37452 0.74057 0.083895 -0.2624 0.11175 -0.056961 0.072693 0.48727 -1.4331 1.1554 0.435 -0.15904 -0.20269 0.51026 -0.47642 0.81102 -0.61897 -0.25476 -0.43561 -0.15564 -0.80269 -0.38358 0.2124 0.14546 -0.42801 0.43832 0.35181 0.11886 -0.1483 -0.89055 -0.48892 0.0048156 -0.40801 0.55527 -0.096164 -1.3434 0.20937 0.34007 -0.16736 0.48259 -0.1405 -0.50644 0.10355 -0.3651 0.21271 0.77231 -0.1076 0.51845 0.55647 0.02166 -0.44597
employment 0.57052 0.13877 -0.70522 0.33494 -0.34426 -1.2297 -0.79886 -0.0069138 0.2382 -0.097616 -0.2753 -0.67507 0.080479 -0.029355 0.85617 -0.42831 0.57944 0.060936 0.1088 0.34897 0.046782 -0.23887 0.25928 0.34711 -0.68888 -1.3267 0.27099 -1.053 -1.1971 -0.17555 -0.29401 0.14751 0.073919 -0.413 -0.40205 0.072337 -0.25982 0.050651 -0.25027 -0.13506 -0.45258 -0.35578 0.04202 0.59062 0.30943 -0.5681 0.011398 -0.088096 -0.12314 -1.318 0.11825 -0.43281 -0.84446 1.1807 0.33361 -0.91512 0.60086 -0.71294 1.8854 0.078951 -0.20511 -0.43751 -0.64686 -1.0367 0.83201 -0.11104 0.22363 -0.51443 1.041 0.039517 0.48206 0.3492 -0.43586 -0.68103 0.81226 0.45343 -0.19164 -0.14363 -0.65756 -0.80103 0.31959 0.60437 0.21182 -0.28882 -1.2364 -0.70716 0.51489 -0.15556 0.1663 -0.3171 0.17219 -0.49308 0.26747 -0.17877 0.41666 0.20921 0.37174 0.50943 0.47151 -0.12827
first -0.020102 0.037514 0.35363 0.16576 0.094826 0.087456 0.79498 0.20762 -0.58127 -0.077115 0.19662 -0.40312 -0.078157 0.29174 0.16982 0.0039022 0.73646 0.39023 -0.097257 -0.17307 0.63939 -0.28145 0.11622 0.67527 0.63166 -0.78246 -0.052301 -0.27931 0.46076 0.12461 -0.72262 0.73386 0.12163 0.23468 0.037115 0.12662 -0.56842 0.62871 -0.22405 0.11521 -0.57071 0.18036 0.42331 0.041353 0.36782 0.26287 0.47149 -0.83604 0.33438 -0.72676 -0.50733 0.033712 0.3284 0.86322 -0.45689 -3.1522 -0.53969 0.033392 1.5954 0.7581 -0.52425 0.61545 -0.26716 0.4432 0.95084 -0.29942 -0.0040878 0.39697 0.022105 -0.12852 -0.11692 0.1899 -0.19811 -0.4304 -0.075405 0.43592 -0.62717 -0.25134 -1.2143 -0.40294 0.51429 0.1677 -0.31839 0.38681 -1.4578 -0.43424 0.39687 -0.50085 0.48592 -0.40226 0.0056424 0.037021 -0.19116 0.31763 -0.74249 -0.097248 -0.19801 0.062608 0.28386 -0.31632
demanded 0.27183 -0.38367 -0.20197 0.44864 0.058177 0.11884 -0.64827 0.54215 0.31985 0.5255 -0.014398 0.53345 0.2243 0.15385 -0.34436 -0.022568 -0.26439 -0.30987 -1.0983 0.026552 0.68223 -0.45267 -0.15291 -0.36312 -0.10965 0.023521 -0.38783 -0.11773 0.53421 0.11844 0.74956 0.059521 -0.51245 0.37261 0.26796 0.075487 0.88816 0.029441 -0.71598 -0.021673 -0.78559 -0.2418 0.85202 0.060435 -0.064469 -0.40782 -0.13743 -0.17908 0.42885 -0.23532 0.39685 0.14708 0.090494 1.0601 -0.26459 -0.7274 0.0066228 -0.40848 1.283 0.28612 0.26023 -0.55273 -0.66279 -0.48474 0.82741 -0.62356 -0.073227 1.023 0.0093929 -0.095872 -0.045446 -0.2513 -0.42276 -0.40693 -0.078676 0.69461 -0.31755 0.1665 -1.1594 -0.052925 0.83224 -0.58891 -0.1463 -0.68216 -0.86969 -0.053428 0.58321 0.43412 0.042166 -0.33816 0.39304 -0.7955 -0.3633 -0.13931 -0.42375 -0.10514 0.1371 0.43275 0.49768 0.049376
tribute -0.23731 0.13006 -0.040098 -0.17536 0.5318 0.64495 -0.12245 0.014592 -0.86356 -0.35037 -0.15405 -0.32423 -0.13923 -0.37123 -0.18645 -0.35716 1.222 -0.45128 -0.24763 0.63246 0.33564 -0.56934 -0.69113 0.0069518 0.6031 0.35055 -0.26164 0.68032 1.2836 -0.45725 0.16226 -0.048272 0.18865 0.92442 -0.29522 0.11794 0.22378 0.49607 -0.46671 -0.47788 0.47647 0.29927 0.80946 0.74702 0.066974 -0.05842 -0.28717 -0.29052 0.081391 -0.67105 0.17996 -0.29745 0.53608 0.1822 -0.13902 -1.4886 -0.46437 0.072258 0.62156 0.27183 0.47355 0.9821 -0.14036 -0.56739 0.25687 -0.92638 0.065059 0.38176 0.099887 -0.83813 0.3497 -0.049007 -0.16751 0.063968 0.079268 0.58064 0.48531 0.15036 0.060396 -0.15462 0.32253 0.34529 1.2809 -0.36263 -0.95798 0.47464 -0.60811 -0.25245 -0.31003 -0.14472 0.14345 -0.41546 0.15962 0.3892 -0.54289 -0.65535 -0.38191 -0.26623 0.02295 0.074432
1271 0.43001 -0.59919 0.0064706 0.37584 -0.3917 0.64051 1.0909 -0.5628 0.32616 -0.77524 0.59836 -0.47686 0.37553 -0.48549 -0.0067544 -0.16578 -0.38927 -0.17979 -0.067261 -1.0338 -0.064627 0.077881 -0.0023834 0.82409 -0.12299 0.32873 -0.21521 0.089901 0.222 -0.27833 -0.7535 0.00048011 0.83809 -0.47314 -0.5011 0.14681 -0.031607 -0.15729 -0.82699 -0.075664 -0.13327 -0.67432 0.42885 -0.77135 -0.23389 -0.53299 0.21091 -0.34265 0.14935 -0.40392 -0.47364 0.21299 0.82504 0.063381 -0.68704 0.43687 0.011062 -0.64382 -1.167 -0.52614 -0.84192 0.025192 0.15467 0.65454 -0.078293 -0.41935 -0.16057 -0.44945 -0.2465 -0.013132 0.22049 0.24187 0.47932 -0.015388 -0.57781 -0.3614 0.35181 0.31218 -0.21833 0.59498 0.0097054 -0.2449 0.40314 0.17801 0.34327 1.0231 0.35557 -1.1196 0.12362 0.41802 0.052647 0.61326 0.2464 -0.051876 0.20552 -0.094099 -0.23865 -0.1503 -0.39721 -1.1352
 -0.22111 -0.37868 -0.45325 0.14185 -0.41884 -0.068733 0.9203 -0.61626 -0.5716 -0.42955 1.2049 -1.2358 -0.26185 0.088171 0.75712 -0.24336 0.46966 0.15848 -0.63489 0.040005 0.28095 0.086989 0.80209 0.74317 0.30236 -0.57191 0.65167 -0.4509 1.1676 -0.060849 -0.85457 1.012 0.6167 -0.9409 -0.59359 -0.32423 0.31153 0.97604 -0.33894 0.32657 0.32848 -1.118 -0.090404 -0.61118 0.32629 -0.61908 0.9044 -0.8888 0.0023076 0.58002 -0.71818 -0.43466 0.55749 1.1147 -0.74757 -2.8426 -0.3132 -0.72711 0.16355 0.32031 -0.26561 0.28186 -0.86369 -0.25157 1.0981 -0.2622 -0.49901 0.071966 0.20213 0.072797 -0.23135 -0.022841 0.52705 0.25267 -0.081948 -0.53206 0.39748 0.53545 -0.89259 -0.64567 0.15596 0.022857 -0.29035 0.003132 -0.8019 0.29554 0.10346 -1.2921 0.31751 0.64262 -0.3628 0.15087 0.13307 1.1898 -0.31689 0.22648 -1.0675 -0.26161 0.080567 -1.2265
72 -0.37785 0.36996 0.16366 0.23753 0.13451 0.42465 0.66323 0.2614 -1.1783 0.18637 0.97614 0.28228 -0.011886 -0.63359 0.40616 -0.14929 -0.37637 0.42324 -0.41494 0.51134 0.67078 1.0434 0.1354 0.67181 -0.41648 -0.27608 0.50618 -0.70473 0.50378 -0.46838 -0.064321 0.91015 -0.53477 0.052169 -0.10294 0.37199 0.37822 -0.22613 0.023476 0.94965 -0.58365 -0.51707 0.51222 -0.062253 0.49802 -0.41494 -0.22364 -0.51308 -0.86533 -0.16188 -0.49975 -0.58202 0.021142 0.5626 -0.44696 -1.2299 -0.60681 -0.18907 0.59224 0.4367 -0.30474 -0.26088 -0.24265 -0.16056 -0.90578 0.49424 0.57738 0.068663 -0.17784 0.058231 -0.65154 0.13454 0.076549 0.63635 0.49118 -0.094216 -0.23433 0.29128 -0.6237 -0.097376 0.43007 -0.04264 0.34585 0.18329 -0.64417 -0.070467 0.56991 -0.50918 0.27374 1.1453 0.14255 0.087376 0.2045 0.26568 -1.2453 0.45943 0.205 -0.083432 0.16261 -0.38395
part -0.3199 -0.024433 0.20789 0.16225 0.15196 0.17858 -0.13724 0.54366 0.02117 0.23395 -0.23099 -0.24552 0.16699 0.011151 -0.21812 -0.3093 0.61586 -0.10272 -0.11437 0.20891 0.32216 0.1097 0.12841 -0.094923 -0.10593 -0.19763 0.080573 -0.061984 0.042453 -0.074485 -0.38931 0.35404 0.28063 -0.33088 -0.12692 0.14309 0.36154 0.43514 -0.033155 -0.1264 -0.22033 -0.092006 0.52187 0.027293 -0.0353 0.48102 0.7839 -0.25325 0.10255 -0.21911 -0.28266 0.54783 0.38431 0.72488 -0.64801 -2.968 -0.086925 -0.78882 1.9083 0.44895 0.19248 0.94306 0.068897 0.14307 1.2094 -0.33741 0.13741 0.39818 0.19399 0.053126 0.36169 -0.45354 -0.21171 -0.012892 -0.049958 -0.099733 -0.098361 0.45214 -0.90885 0.0765 0.34954 0.28382 -0.12574 0.32786 -1.412 0.11607 -0.40668 -0.30004 0.36986 -0.15685 -0.33788 -0.44267 -0.28023 0.31825 -0.29852 0.075114 -0.070026 -0.36156 0.66558 0.29917
drive -0.56221 -0.31497 0.20601 -0.40243 0.20022 0.26494 0.061212 0.31762 0.096003 0.25409 0.18588 0.55468 -0.2988 -0.35985 0.15822 0.38339 -0.021631 0.49815 -0.67041 -0.14548 0.84311 -0.19615 0.11295 0.12947 0.45217 0.37996 -1.0082 -0.24041 0.081303 0.16028 -0.42726 1.1206 0.19115 0.3343 0.25565 0.12018 0.47188 -0.10776 0.52012 0.20464 -0.001869 -0.46858 0.12829 -0.38307 -0.35594 -0.3255 0.6857 -0.37513 0.27767 -0.31285 -0.57338 0.22632 -0.85888 0.80123 1.148 -2.4178 -0.51248 0.31688 2.0233 -0.68558 -0.055412 0.010182 0.32516 0.089902 0.38001 -0.018741 0.23112 -0.38517 0.010033 -0.3326 0.33023 -0.063656 -0.10858 -0.8579 -0.17314 -0.04339 0.19994 0.65167 -0.35658 0.050867 0.4811 0.88928 -0.53244 -0.46995 -0.87142 0.3639 0.46251 -0.40491 -0.17944 -0.13203 -0.59491 0.15511 -0.39383 -0.33325 -0.84446 -0.49779 0.35643 0.2182 0.98539 0.044881
encircle -0.49237 -0.14876 0.12761 0.59017 0.15117 0.81809 -0.33198 -0.045416 0.66795 0.62101 0.44643 0.46457 0.090254 -0.34099 -0.45037 0.29845 0.18112 -0.090349 -0.62729 -0.7287 0.37171 -0.39095 0.29481 0.041919 0.27889 -0.099199 -0.16563 -0.19311 0.44488 -0.21707 -0.26203 -0.31582 0.11756 -0.46085 -0.119 -0.3785 0.16967 -0.531 -0.059843 0.031665 0.42407 -0.5197 -1.111 0.3127 -0.028889 0.51643 -0.032943 0.85563 -0.37743 0.53861 -0.57816 0.84076 0.10783 0.27529 0.12959 -0.2612 0.31487 -0.5139 -0.43446 0.22572 -0.25702 0.32229 0.35694 0.68389 -0.061624 0.1263 0.052902 0.4059 -0.25482 -0.43525 0.25491 -1.1227 -0.2041 -0.23052 -0.098208 -0.56266 0.002308 0.36882 0.3152 0.60355 0.039004 0.16559 -0.9836 0.35815 0.20163 -0.060653 0.38191 0.69592 0.35144 0.41039 0.28072 -0.21924 0.022456 -0.6851 -0.521 -1.0753 0.0073257 0.35086 -0.31531 0.57495
dynasty 0.22158 -0.83252 0.75086 0.39203 0.19132 0.068744 0.24436 -0.87769 -0.34902 -0.18803 -0.033361 0.51367 0.75986 0.057155 -0.69582 -0.84039 0.14863 -0.88861 -0.42686 -0.598 0.59442 -0.17735 -0.46003 0.70377 0.27686 -0.46574 0.21104 -0.1387 0.41864 -0.36096 0.21924 0.59129 0.56874 -0.88152 -0.38937 -0.20753 -0.4177 -0.053899 -0.5576 -0.61949 -0.57475 0.12416 -0.10369 -0.45985 0.66774 -1.266 0.51035 0.31859 1.0889 -0.76527 -0.60017 0.11192 1.103 0.10645 -0.48219 -0.78483 -1.2487 -0.043562 -0.061129 1.2639 -0.59371 0.61426 0.64497 1.4751 1.1928 -0.056969 -0.11496 -0.59865 -0.78551 0.179 0.53342 0.42808 0.097313 -0.33773 -0.42732 -0.43357 -1.1455 -0.0043545 -0.96408 0.20384 -0.00098362 -0.1125 0.56739 0.24318 -0.13857 1.8436 -0.72803 -1.3481 0.90386 -0.46181 0.56631 0.13736 0.36068 -0.34975 -0.91193 -1.2387 -0.69327 -1.7364 0.084875 -0.47039
originally -0.1101 -0.013057 -0.23632 0.18231 0.77373 -0.088261 0.33146 0.51994 -0.18529 0.02774 0.27924 0.039533 0.71807 0.20478 0.50893 -0.51645 1.0012 0.25388 -0.5433 -0.098165 0.26569 -0.1507 0.2175 -0.18701 0.25011 -0.74231 -0.073154 -0.035812 -0.22389 0.54074 0.035707 0.73753 -0.11109 0.20999 0.31542 0.16113 0.25076 0.069852 0.19918 -0.20886 -0.0070152 -0.15586 0.091991 0.41182 0.43185 -0.45598 0.020552 -0.49307 0.65566 -0.065606 -0.24672 -0.0078795 0.7806 0.34259 -0.38335 -2.0975 -1.0005 -0.45185 0.73556 0.53072 0.2648 0.59174 -0.16416 0.053863 0.99298 -0.62681 -0.29022 0.40599 -0.18327 -0.16615 0.12767 0.10486 -0.48505 0.58101 -0.24743 -0.075181 0.43624 0.60294 -0.86679 -0.051289 -0.6014 -0.60076 -0.59485 0.026182 -1.0969 0.015964 -0.0090505 -0.90765 0.37397 0.30185 -0.60187 -0.5964 -0.14408 0.21435 -0.25142 0.09272 -0.63443 -0.31428 0.74474 -0.56691
aired -0.21897 -0.74303 0.13541 -0.43663 0.87062 -0.057371 0.51103 1.0872 -0.097541 -0.6439 0.51586 0.17659 0.39319 0.085917 0.7881 0.076963 0.23717 -0.1151 -0.42805 0.14739 0.034285 -0.32813 0.062037 0.14424 0.447 -0.40571 1.3513 1.3946 0.17188 1.4015 0.46191 0.77963 -0.034232 0.30693 -0.25048 0.68594 -0.33754 -0.1587 -0.67065 -0.025957 0.0086289 0.4327 -0.73019 1.5705 0.098942 -0.80226 -0.01171 -0.63087 0.36018 -0.74714 -1.1864 0.35918 0.82582 0.81117 -0.15129 -1.7921 -0.3072 0.22397 0.65009 0.33109 -0.19727 1.1044 -0.010733 -1.3303 0.82838 0.016408 -0.13882 0.021346 -0.6234 1.0032 0.1584 0.075412 0.11267 0.75489 -0.43462 1.0665 0.13241 0.038151 -0.81422 0.25077 -0.6192 -0.98937 0.20923 0.35538 -0.93344 -0.75655 -0.6967 0.79439 0.26837 0.3164 -0.53305 0.28962 -0.41435 0.34064 -0.37528 0.004095 -0.26154 -0.072171 0.53293 0.071768
network 0.22336 -0.18421 -0.071397 -0.80472 0.84424 -0.57496 -0.033061 0.17145 0.08937 0.34654 0.61976 -0.0063026 0.43057 -0.24731 0.39087 -0.4863 0.66784 -0.25256 -0.0021499 0.52553 -0.82149 0.02436 0.18973 -0.48478 0.2996 -0.20885 1.2862 0.81164 -0.018227 0.70471 0.59756 1.3961 -0.09566 -0.088288 0.73558 0.35778 -0.36681 -0.14787 0.096679 0.31364 0.31817 0.3915 -0.363 0.50331 -0.069912 -0.39817 0.19013 -0.31459 0.46144 -0.013419 -0.78185 0.61715 0.44001 1.0746 0.20249 -2.345 -0.18583 0.2918 2.2153 0.95487 -0.10262 -0.059725 0.36253 -0.9623 0.93018 0.19366 -0.44082 0.092627 1.2123 0.66663 0.013127 -0.40226 0.068409 -0.35992 0.047996 -0.61097 0.80076 0.28269 -0.57184 0.3707 0.49191 -0.43113 -0.36935 0.48872 -1.7749 0.21319 -0.29596 0.74195 -0.15544 0.82122 0.72183 0.27941 -0.076494 -0.24265 -0.0087666 -0.3435 0.41182 -0.56141 1.1749 0.79153
2012 0.17579 -0.42444 0.1117 -0.57639 0.81519 -0.56036 0.25119 0.77689 -0.19555 0.17633 0.62263 -0.81028 0.41187 -0.38992 -0.086875 -0.52331 0.61039 0.44042 -0.43653 0.18655 -0.38678 -0.71782 0.55778 0.96103 -0.044812 0.024165 0.82782 -0.18389 0.70595 0.34047 -0.60337 0.74431 0.01797 -0.13084 0.032038 0.053143 -0.27709 0.45478 -1.036 -0.061306 0.1326 -0.16495 0.1209 0.41214 0.2814 0.20359 -0.087217 -0.93697 -0.14628 -0.051687 -0.29902 -0.32776 0.20059 0.4523 -0.53293 -2.8853 -0.29278 -0.13728 0.88065 0.32065 -0.52496 0.54026 -0.732 -0.069348 1.1004 0.058851 -0.8159 -0.0042019 0.44979 0.10626 0.29742 0.35997 -0.49165 0.35428 -0.61328 0.30785 0.38655 0.17922 -0.81263 -0.82715 0.013178 -0.31679 0.011161 0.023276 -0.38697 -0.42808 -0.27511 -0.21262 0.55963 0.46639 -0.3554 0.046935 -0.16658 0.61911 -0.054353 0.33625 -0.19614 0.98402 0.76311 -0.84116
organized -0.21898 0.25076 -1.3123 0.043982 0.63095 0.74474 0.10818 0.3832 -0.40439 0.02045 -0.26025 -0.41621 0.49515 -0.34665 -0.19016 0.52088 0.49235 0.11308 -1.2045 -0.41316 0.22484 -0.1084 0.56056 -0.64629 -0.63916 -0.68156 -0.16412 0.050201 0.37429 0.050788 -0.61208 0.33555 0.50595 -0.11467 0.24217 -0.34171 0.13608 -0.045274 -0.35535 -0.00080728 -0.37884 -0.11985 0.015621 -0.18198 0.33884 -0.5939 0.2521 -0.025051 0.098547 -0.24862 -0.47159 0.10263 -0.057304 0.069319 -0.23512 -1.4327 0.1662 0.072738 1.5524 0.55124 -0.69686 0.60398 -0.051335 -0.35481 0.55154 -0.40114 -0.25909 0.37536 1.4103 0.48267 0.61285 -1.0198 -0.6703 0.25569 -0.0036408 -0.18378 0.13346 -0.27447 -1.0481 0.32285 0.44947 0.49483 -0.24232 0.18959 -1.2574 -0.15513 -0.57799 0.035214 -0.19474 -0.40912 -0.23777 -0.5534 -0.043236 0.4319 0.47058 -0.32183 -0.1576 -0.11349 0.77185 0.088662
expedition -1.0872 -0.70485 -0.10813 0.51406 0.037266 -0.9499 1.1941 0.066939 -1.0599 -0.638 0.79099 0.29605 -0.33192 -1.081 0.017395 -0.031039 0.94696 0.095383 -0.71244 -0.19723 0.60881 0.34652 0.17922 0.15694 -0.79561 0.16124 -1.0703 0.10981 0.72288 -1.2159 -0.93654 -0.07069 0.10289 -0.34623 -0.20083 0.14381 -0.28534 0.46809 0.41381 -0.30277 -1.0305 0.58161 0.22837 -0.042454 0.13832 0.0064071 0.050946 -0.18428 0.23853 1.0518 -0.16144 1.0863 0.29134 0.67147 0.039157 -1.1762 -0.62281 -0.68033 0.82867 0.40602 -0.13544 0.78373 0.77446 0.25088 0.954 0.073679 -1.0267 -0.16745 0.52032 0.18017 0.14828 -0.2886 0.11558 0.040964 -0.58848 0.091448 0.44829 0.65618 -1.3502 0.042512 -0.34335 1.4723 0.27964 -0.12052 -0.06368 -0.61065 0.7981 -0.59649 0.30328 -0.57105 -0.20794 -0.30946 0.83046 0.062349 -0.025029 -0.10614 -1.1007 -0.090763 -0.37182 -0.33209
early 0.12177 0.039325 -0.16448 0.27675 -0.16077 -0.21445 0.60878 -0.1537 -0.2726 -0.14869 -0.10011 -0.24658 -0.0533 0.030803 0.56856 -0.39606 0.069902 -0.44124 -0.010981 -0.059621 0.4804 -0.1213 0.08366 0.50326 0.1539 -0.54766 -0.26312 -0.50794 0.10531 0.051382 -0.37347 0.032864 -0.546 0.2274 -0.22009 -0.024541 -0.41488 -0.18315 -0.15814 -0.17042 -0.83283 0.063777 -0.0073215 0.38769 0.11179 -0.5634 0.61484 -0.49758 0.73245 -0.91129 -0.098319 0.081946 0.22271 0.7645 -0.092678 -2.6782 -0.96808 -0.45957 1.9655 0.76142 -0.51924 1.3606 0.013375 0.58349 0.88712 -0.21953 -0.065078 -0.20063 0.045578 -0.38737 -0.33361 0.05592 -0.45309 -0.57474 -0.35902 -0.1428 -0.51764 -0.049755 -0.83138 -0.20949 0.56455 -0.010332 0.030278 0.17365 -1.1197 -0.043933 -0.042669 -0.25619 -0.71626 -0.082569 0.56148 0.11156 -0.38744 0.98504 -1.2083 0.10846 -0.36772 -0.096766 0.30823 -0.15651
1776 0.16688 -0.67458 0.052698 0.42603 -0.14826 0.10752 0.88226 -0.55534 -0.29284 -0.62956 0.31242 -0.68832 -0.49176 -0.0048417 0.54745 -0.28077 0.69617 -0.056919 -0.74569 -1.3149 0.62874 -0.16801 0.54643 -0.39819 -0.37056 -0.16844 -0.81641 -0.43964 0.82892 -0.53139 0.11432 0.18074 0.38191 -0.90324 -0.80341 -0.22864 0.12794 -0.25988 0.12734 -0.37579 0.10452 0.10199 0.49943 -0.36525 -0.097498 -0.89611 0.12218 -0.68784 0.17545 0.58304 -0.54125 0.20486 0.21944 -0.14862 -0.62002 -0.60862 0.44173 -1.2908 -0.23198 0.13692 -0.25104 0.96095 -0.13104 -0.061702 0.40828 -0.70612 -0.69057 -0.24064 0.4686 -0.20562 0.048468 -0.060247 -0.25697 -0.15437 -0.47223 -0.25507 0.69411 0.15206 -1.1409 -0.29977 -0.87141 -0.78062 0.32587 0.96125 0.68601 -0.16618 0.49593 -0.98408 -0.21824 -0.020396 -0.56921 -0.6486 0.00087394 0.58738 -0.8244 -0.017386 0.23536 -0.23877 -1.0309 -0.18774
operations -0.558 -0.55267 -0.75964 -0.33584 0.29013 -1.0139 -0.12173 0.25784 -0.23057 0.6789 0.36285 -0.29353 0.90034 -0.021934 -0.36363 -0.51324 -0.045198 -0.17163 -0.19608 0.31506 0.56248 0.13655 0.38529 0.20524 -0.77374 0.34681 0.32298 0.18332 0.18163 -0.034815 -0.34961 -0.0015317 -0.41316 -0.6095 -0.17211 -0.0093474 -0.036354 -0.069339 0.33803 -0.38685 0.44457 -0.69348 0.029441 0.41044 0.35654 0.58775 -0.0071872 -0.34921 -0.13892 -0.76783 -0.063528 0.6498 -0.32201 1.1996 0.10715 -1.6625 -0.18909 -0.94642 2.3665 0.91767 -0.024163 0.28141 0.67355 -0.133 0.17725 -0.03718 -0.26453 0.2929 0.81909 1.0584 0.16462 -1.0104 -0.71596 -0.19826 0.498 -0.68346 -0.23415 0.96998 -1.0323 0.69474 0.63546 -0.034438 -0.27356 1.0331 -1.4543 0.33505 0.56747 -0.2852 -0.016452 -0.037095 -0.26922 -0.064365 -0.01237 0.30705 -0.029722 0.49382 0.32938 0.097351 0.37909 0.40566
rebellious 0.23749 -0.34478 0.81717 0.011597 -0.27298 1.4798 -0.40448 -0.28663 0.18873 0.94408 -0.40355 -0.29976 -0.038754 -0.40894 -0.35529 0.16066 -0.36851 -1.004 0.076714 0.25611 0.97839 -0.5564 0.13256 0.017288 -0.16513 -0.0003019 -0.33822 0.0091108 0.32501 0.69738 0.2753 -0.081319 0.32683 -0.95505 -0.11627 -0.64924 0.15408 -0.34245 -0.036748 -0.50438 -0.29103 0.11499 0.24541 -0.24298 -0.036051 -0.24675 0.044004 0.34368 0.69464 0.4435 -0.50747 -0.16015 -0.29043 0.25091 0.38418 -0.0069082 0.4563 -0.47825 0.3194 -0.20653 0.61486 0.59248 0.0039935 0.17355 0.68606 0.30269 0.74197 0.076202 0.051761 0.023857 0.94549 -0.70044 -0.82231 -0.19678 -0.14144 -0.14815 -0.52496 0.075066 -0.32659 -0.37652 0.048434 0.12889 0.21243 0.17561 -0.49043 -0.14393 0.22857 0.36032 -0.12087 -0.65369 -0.38005 -0.22792 -0.10606 0.76898 -0.98385 -0.063248 -1.2854 0.049147 -0.66605 0.053938
southern -0.41055 0.090581 0.83619 0.03546 0.62207 0.13999 0.22168 0.47963 -0.17305 0.90134 -0.91659 -0.28716 0.73893 0.67058 0.075663 -0.67974 0.70522 -1.3754 -0.71724 0.50368 1.3067 0.504 0.28449 0.13976 -0.23781 -0.03884 0.07076 -0.21592 0.00044046 -0.13867 -0.3391 -0.25784 0.75747 -0.25122 0.010452 -0.43676 0.27547 0.12042 -0.0062303 0.047675 -1.1395 -0.50275 0.0015897 -0.23247 0.70892 0.48086 0.78479 0.032697 0.43316 -0.042208 -0.8371 0.69847 0.036992 0.45609 -0.096309 -1.9597 -0.32724 -0.90069 2.1099 0.3444 0.35036 0.74752 0.34476 -0.51286 0.59623 0.24991 -0.49013 0.33827 -0.031357 0.3648 -0.24603 -0.33542 -0.21727 -0.35801 0.02971 -0.038308 0.27764 0.33785 -0.32452 0.56788 0.33789 -0.10077 -0.9292 0.24538 -0.3094 0.29894 -0.46845 -0.071435 0.40103 0.2157 0.97471 -0.18652 -0.68652 0.65311 -1.2355 1.112 -0.89728 0.16292 0.94826 0.25372
colonies -0.24506 0.44505 -0.026437 0.3978 -0.17499 0.29213 -0.4219 -0.032237 -0.49895 -0.61283 -0.83027 -0.12214 -0.051386 1.0941 0.11404 -0.51204 0.42269 -0.39999 -0.011424 -0.48693 0.59693 0.83217 0.35031 -0.50765 0.1827 -0.35821 0.71668 -0.78092 0.12843 0.28977 0.48717 -0.10287 -0.21627 -0.83275 0.84063 -0.016544 -0.076197 -0.30773 -0.85468 -0.74113 -0.89023 -0.5675 -0.47929 -0.10904 0.54535 -0.33858 0.53619 0.50307 0.27566 0.31066 -0.62903 0.63375 -0.089134 0.50705 0.061924 -0.19558 -0.4743 -1.1633 0.49259 0.8508 -0.25625 0.35938 0.61066 -0.3362 1.2605 0.11036 -1.0636 -0.029604 0.94796 -0.89987 0.40073 -0.079881 -0.40426 -0.73644 -0.020297 -0.45014 -0.36613 -0.11001 -0.92979 0.73366 -0.15469 -0.20163 0.070087 1.4052 -0.18847 -0.088715 0.72118 -0.70455 0.46597 0.011588 -0.43616 -0.57222 0.66413 -0.21323 -0.60527 -0.1898 -1.0049 0.022212 -0.15329 -0.54228
11 0.34773 0.17393 0.032938 -0.27259 0.31302 -0.014955 0.65907 0.22536 -0.68279 -0.14443 1.324 -0.26696 -0.27171 0.34192 0.79796 0.20007 -0.14077 0.23368 -1.1744 0.89067 0.55275 -0.18684 0.55694 0.68988 0.26989 -0.32873 0.44229 0.1565 0.29981 0.21547 0.17532 0.20959 0.16428 -0.61157 -0.7293 -0.04142 0.021128 0.21272 -0.32013 0.87651 -0.2686 -0.80184 0.85422 -0.19136 0.44473 -0.49304 -0.1687 -0.71852 -0.075905 -0.38077 -0.51141 -0.5956 -0.37154 1.1652 -0.60736 -2.3165 0.057724 -0.53218 1.8208 1.1211 -0.92039 0.86695 -0.46726 -0.16472 0.012356 0.46544 -0.41992 0.46156 0.13657 0.65032 -0.37502 -0.095343 -0.29026 0.24685 -0.023885 0.087208 0.29762 0.17818 -1.0609 -0.24686 0.57445 -0.041533 -0.27017 0.2934 -0.56349 -0.65326 0.22241 0.004566 -0.08091 0.57423 -0.14933 0.54206 -0.085969 0.030338 -0.97522 0.34897 -0.21864 -0.14029 0.29622 -0.66773
1998 0.36677 -0.068369 0.24829 -0.33754 0.86224 -0.35536 0.59744 0.35884 -0.048922 0.20773 0.57159 -0.31943 0.24418 0.19246 -0.24144 0.019347 0.25272 0.22165 -0.38719 0.18584 0.042512 -0.19868 0.51218 1.0127 0.24618 -0.14844 0.3403 -0.48191 0.29348 -0.20577 0.10112 0.53944 -0.055082 -0.26739 -0.23618 0.19406 0.32559 0.267 -0.70026 -0.12652 -0.039991 -0.12694 0.35742 -0.025494 0.38216 0.080462 0.51391 -1.1916 -0.3035 -0.98365 -0.30316 -0.23237 0.39166 0.62092 -0.23415 -2.4306 -0.31203 0.20253 1.3618 0.26723 -0.53669 0.36882 -0.41558 -0.4474 0.51969 -0.18081 -0.25426 0.25376 0.52959 0.41682 0.44124 0.45655 -0.75143 0.30237 -0.81252 -0.061855 0.21688 0.46028 -1.0819 -0.27406 0.49172 0.24303 0.077297 0.036563 -0.32041 -0.02666 0.14014 -0.36328 -0.2605 0.41306 0.076029 -0.05434 -0.10235 0.61225 -0.28794 0.35883 -0.089209 0.52056 0.3982 -0.9714
tour -0.34203 -0.20923 0.87651 -0.11719 0.57105 -0.22451 0.73823 1.3716 -0.81748 -0.22647 0.025087 0.041485 0.36496 0.14347 -0.42945 0.18873 0.71366 -0.34102 -0.18527 0.45926 0.54905 0.43009 -0.21189 0.40395 0.18539 0.03195 0.053762 -0.43025 1.289 -0.91039 -1.1156 -0.10709 -0.0014526 0.34385 0.30832 0.61298 -0.58182 0.60884 -0.87115 -0.090457 -0.31012 0.27927 0.97485 0.14128 0.29588 -0.016676 -0.11164 -0.54545 0.40926 -1.2547 -0.52941 -0.043986 -0.036148 0.19578 0.17444 -2.8785 -0.70455 0.63585 1.1974 0.8597 -0.22976 0.6199 0.74425 -0.15237 0.19457 0.28493 -0.31006 0.16533 0.35267 -0.5669 0.065117 0.23457 -0.83412 -0.014749 -0.45782 0.47962 0.73158 0.25028 -0.24398 -0.50023 0.5942 -0.082016 0.33347 0.35573 -1.0126 0.11329 -0.87003 -0.12643 -0.38089 0.55478 -1.0407 -0.02224 0.53139 -0.12254 0.49707 0.24487 -0.54171 0.58169 0.57024 0.45061
spanned 0.19456 0.43829 -0.039492 0.78321 1.0775 0.10571 0.42167 0.53528 -0.71032 0.057874 0.27435 -0.11193 0.55398 -0.063744 0.30712 -0.62489 -0.081693 0.037117 -0.1252 -0.033809 0.50822 0.53514 -0.15185 -0.57742 0.99637 -0.72479 -0.13684 0.34845 0.085951 -0.50317 0.49215 0.43763 0.39761 -0.34171 -0.71365 0.28204 -0.19815 -0.13156 -0.8995 0.5296 -0.087464 0.0018801 -0.38574 0.65697 0.23178 -0.17521 0.9278 -0.57505 0.55846 0.92029 -0.49033 -0.2106 -0.18188 1.1292 0.66756 -0.43771 -0.5412 -0.058898 0.01184 1.2187 -0.19257 1.0551 0.49575 -0.48933 -0.040762 0.20089 0.20633 -0.49056 0.33552 0.39049 0.30483 0.6556 0.53618 0.95121 0.17492 -0.93648 -0.55282 0.034433 -0.13188 0.15361 -0.020708 0.51394 0.62891 0.24225 -0.3117 0.57602 -0.14955 -0.99865 -0.29332 -0.040414 -0.22815 0.42883 -0.86162 0.021028 0.51126 -0.1682 -0.11476 0.078498 -0.31443 0.54293
five 0.062482 0.47966 0.11041 -0.32933 0.48119 0.45071 0.53119 0.86901 -0.97004 0.099613 0.74502 0.11981 0.10476 0.60236 0.20251 -0.19277 -0.19874 -0.055986 -0.73683 0.45396 0.97334 0.022636 -0.095826 0.34307 0.73047 -0.87593 -0.095241 -0.38745 -0.23327 0.30393 0.15926 -0.018173 -0.19423 -0.34158 0.14226 0.080426 -0.27403 0.12203 -0.49623 0.55136 -0.59616 -0.1993 0.76316 -0.30328 0.49749 0.20581 -0.15059 -0.77498 -0.25081 -0.13317 -0.69645 -0.78776 -0.23693 1.2415 -0.073454 -2.3672 -0.096282 -0.13515 1.9153 1.3775 -0.53319 0.81572 0.036566 0.36214 0.22786 0.40366 0.21622 0.48993 0.094843 0.023101 -0.2485 0.24044 -0.10915 -0.06291 0.087199 0.42677 -0.58573 -0.47301 -0.96921 -0.089705 1.0737 0.22502 -0.28669 0.25863 -1.2812 0.0069472 0.12606 -0.23873 0.14965 0.25225 -0.067922 0.29653 -0.47425 -0.40843 -1.3266 0.22926 -0.57478 0.20152 0.43435 -0.28099
shows -0.26585 0.35893 0.24728 -0.26824 0.3007 -0.19184 -0.20221 0.52789 -0.35183 -0.39516 0.098116 -0.4435 0.44084 -0.18019 0.46637 0.72477 0.23954 0.094946 0.25719 0.71888 -0.029968 -0.34672 -0.020193 -0.44627 0.32477 -0.42742 0.56825 -0.062457 -0.078566 -0.1671 0.20098 0.35495 -0.025135 0.45489 0.27887 0.39284 0.18475 -0.50753 -0.68225 -0.22582 -0.11283 0.028548 -0.50978 0.61676 -0.39409 -0.57343 -0.36523 -0.51419 0.11999 -0.76306 -0.20414 -0.18586 0.17465 0.93445 0.17097 -2.5221 -0.36556 -0.24607 0.98222 0.54516 -0.37576 1.3055 0.1158 -0.35384 0.79138 0.4727 0.28822 -0.27539 0.15642 0.50285 0.1578 -0.23361 -0.26962 0.42735 0.40051 0.15372 0.37689 0.025002 -0.77892 -0.19403 -0.032782 -0.08254 -0.0028757 -0.13645 -1.4557 -0.84458 -0.43336 -0.14471 -0.053987 -0.20893 0.034513 0.068818 0.066841 0.050257 -0.51969 -0.37152 -0.3806 -0.59178 0.81356 0.52991
six 0.1868 0.48615 0.14036 -0.22788 0.36962 0.29139 0.68973 0.82878 -1.0137 0.051575 0.81633 0.024318 0.27533 0.67548 0.21911 -0.11828 -0.2596 -0.026127 -0.69185 0.36611 0.93554 -0.0072643 -0.077144 0.27191 0.72478 -0.7637 -0.27153 -0.30844 -0.20987 0.36736 0.096938 -0.083448 -0.30201 -0.40234 0.14543 0.11158 -0.10803 0.064628 -0.48731 0.6458 -0.61257 -0.16146 0.76102 -0.15831 0.49263 0.22909 -0.086601 -0.76468 -0.11761 -0.085433 -0.73426 -0.63558 -0.25082 1.257 0.0423 -2.3747 -0.15201 -0.26526 1.8613 1.3124 -0.51698 0.72193 -0.010869 0.30401 0.21871 0.5261 0.064165 0.59967 -0.11962 0.097601 -0.17018 0.24066 -0.16661 0.0063404 0.1565 0.63381 -0.48512 -0.3649 -0.9497 -0.10469 0.94985 0.31109 -0.14915 0.34305 -1.2423 0.081163 0.30592 -0.13143 0.17677 0.26631 -0.19122 0.28689 -0.44501 -0.34727 -1.1783 0.25153 -0.42459 0.23973 0.6312 -0.37602
one -0.22557 0.49418 0.4861 -0.4332 0.13738 0.50617 0.26058 0.30103 -0.091486 0.10876 0.3058 0.051028 0.22303 0.054236 0.068838 -0.24701 0.32689 -0.082203 -0.28866 0.3734 0.73804 -0.040969 0.040201 0.11384 0.69987 -0.49745 -0.06755 -0.42599 -0.10725 -0.010697 -0.01479 0.55976 0.3064 0.053053 0.058034 0.32756 -0.37233 0.46513 0.14285 -0.085003 -0.45476 0.19773 0.6383 -0.31148 0.10858 0.31557 0.36682 -0.35135 -0.48414 -0.33235 -0.33816 -0.39678 0.1908 1.3513 -0.39044 -2.8795 -0.14276 -0.087754 1.7713 0.99332 -0.14129 0.94389 0.050897 0.47373 0.86387 -0.16162 0.67199 0.52344 0.14438 -0.055194 -0.34669 -0.20742 0.18907 -0.19845 0.34862 0.10121 -0.092119 -0.66258 -1.0582 -0.11803 0.70171 0.077776 -0.50546 0.032243 -1.6176 -0.29302 -0.061748 -0.32473 0.3439 -0.44698 0.085689 0.13295 -0.1807 -0.11854 -0.82985 0.13784 -0.34359 -0.45744 0.49646 0.34906
script 0.31907 0.21814 0.15425 -0.59775 0.24135 0.34188 -0.2796 -0.24854 0.043859 0.1618 -0.14539 -0.029369 0.51903 0.040556 -0.27252 0.49035 -0.17909 -0.2939 0.82966 0.35521 -0.25539 -0.1675 -0.30337 0.018722 0.5448 -0.58704 -0.090658 0.05417 -0.40637 -0.27872 -0.19459 0.92523 -0.19497 -0.81056 0.095945 0.024233 -0.10696 -0.37171 0.21101 -0.20465 -0.40347 0.71724 -0.72567 0.59495 -0.041003 -0.30488 -0.86141 -0.77937 0.10316 -0.28661 -0.084315 0.322 0.78432 0.64228 -0.13965 -1.6437 -0.74533 0.047191 0.5333 -0.15436 0.33982 1.5515 -0.5371 -0.11582 0.93898 -0.70875 0.46157 0.7503 -1.0343 0.09004 -0.1618 1.058 0.57184 -0.13263 0.056075 0.10382 -0.82593 0.93568 -0.38738 -0.10726 -1.1536 -0.49329 -0.89985 -0.5771 -1.5999 1.0105 0.1886 -1.064 -0.53598 -0.060596 0.30748 -0.026025 -0.3591 -0.036655 0.25793 -0.19541 -0.29198 -0.16136 -0.54645 0.74335
bought 0.91794 0.0026731 -0.38189 0.13376 0.20946 -0.35102 0.58522 0.14066 0.28295 -0.16 0.83268 0.30569 0.26648 -0.17471 0.081298 -0.70042 0.61627 0.37464 0.17716 -0.08386 0.30522 0.61985 0.20101 -0.1329 -0.072432 -0.62495 -0.33218 -0.39493 -0.65916 0.26609 0.6933 1.3159 -0.42803 -0.29301 0.1099 0.61506 0.45193 0.1072 0.14075 -0.73542 0.57091 -0.62983 0.005593 -0.53487 -0.048004 0.33484 -0.27365 -0.02012 0.68334 -0.94031 -0.28711 0.65526 0.61278 0.013994 -0.34137 -1.8805 -1.081 -0.082864 1.1943 -0.084052 0.94807 0.96084 -0.44387 0.31798 -0.056278 -0.57094 0.49741 0.72676 0.30794 0.22293 -0.13404 0.18269 -0.21369 -0.039103 -0.53574 -0.004358 -0.031115 0.065978 -1.3821 0.59292 0.774 -0.10076 -0.047565 0.34615 0.10483 -0.39304 0.10155 -0.4062 -0.18669 -0.069442 -0.27001 -0.71091 0.87588 -0.61362 -1.2198 -0.11533 -0.062922 0.30951 0.62378 -0.17686
2005 0.43248 -0.38103 0.27117 -0.39056 0.8121 -0.49746 0.52346 0.52208 -0.065734 0.33644 0.46618 -0.54012 0.31662 -0.085973 -0.2066 -0.15484 0.2989 0.12871 -0.39344 0.44565 0.06073 -0.498 0.44836 0.98435 0.13947 -0.27206 0.50711 -0.46424 0.42549 0.17339 -0.11533 0.41268 -0.051886 -0.069123 -0.178 0.11099 0.0053813 0.47512 -0.83769 -0.024248 -0.11944 -0.18982 0.32696 0.28031 0.37772 0.056268 0.22883 -0.98972 -0.1379 -0.59074 -0.2713 -0.37337 0.30072 0.80249 -0.53799 -2.6689 -0.30076 -0.13766 1.1246 0.38588 -0.24499 0.4317 -0.53805 -0.37245 0.75919 -0.065582 -0.52216 0.099148 0.58708 0.14966 0.52149 0.5353 -0.61759 0.25371 -0.77494 0.19503 0.32367 0.416 -0.95835 -0.35199 0.48927 0.068401 0.05807 0.18867 -0.6397 -0.3152 0.11875 -0.4449 0.084972 0.25357 -0.045555 -0.14341 -0.37193 0.43283 -0.039264 0.35556 -0.1273 0.5364 0.78675 -0.94535
spent 0.19742 0.50812 -0.43072 -0.076864 0.59891 0.40507 0.23417 0.78549 -0.51428 0.14076 0.53878 -0.27628 -0.35868 -0.11477 -0.053582 -1.1782 0.57552 0.016235 0.084873 0.19422 0.12842 1.0971 -0.058749 0.11463 -0.45228 -0.23797 -0.36799 -0.36833 0.15167 0.17054 -0.21167 0.294 -0.11859 -0.26502 -0.37454 0.50034 -0.57174 0.38547 0.091217 0.22701 -0.9138 -0.38795 0.48946 0.14637 0.078625 0.1614 0.046073 -0.6598 0.70814 -0.67125 0.35626 -0.90295 0.2493 1.1429 -0.30711 -1.9644 -0.26173 -0.83081 0.7798 1.1214 0.31106 0.93907 -0.47915 -0.25467 0.12124 0.032404 0.57396 0.29529 0.13775 0.59484 0.087054 -0.18148 -0.19239 0.41495 -0.58714 0.27632 -0.32912 0.034815 -1.039 0.23406 0.60104 0.74602 -0.25446 0.30223 -0.91729 0.34694 0.26992 -0.11876 -0.89325 -0.32057 -0.071224 -0.13755 0.6164 -0.43021 -0.93145 -0.33411 0.012318 0.46724 0.89627 -0.4363
years 0.42215 0.6307 -0.1291 -0.13564 0.027991 0.040876 0.40969 0.30895 -0.34683 0.18925 0.33076 0.12862 0.15791 0.28442 0.17781 -0.67706 0.32368 -0.10471 -0.5876 0.2144 0.1563 0.58578 0.18894 0.44344 0.49721 -0.41477 -0.053675 -1.0574 0.17635 -0.15017 0.30718 0.19948 -0.15068 -0.24098 -0.61483 0.57655 -0.17564 0.088882 -0.44189 -0.30435 -0.80766 -0.12871 0.46206 -0.097681 -0.014938 -0.076952 0.75957 -1.0992 0.28323 -0.61529 -0.26492 -1.1732 0.16747 1.5833 0.1703 -2.5473 -0.30474 -0.61114 1.5383 0.77721 -0.3246 1.0506 -0.28259 -0.0034328 0.63225 0.19016 0.55973 -0.13783 0.46362 0.20712 0.35268 0.081224 -0.51583 0.08999 -0.55038 -0.33437 -0.21391 -0.2848 -1.3404 -0.075459 0.9061 0.11474 -0.011783 0.67302 -1.3786 0.077233 -0.10002 -0.69415 -0.50691 -0.4123 0.00076566 0.011298 -0.20379 0.19438 -0.97726 0.11681 -0.59319 0.10446 0.18539 -0.47671
various -0.49297 0.2752 -0.80131 0.26926 0.99942 0.21687 -0.58925 0.089434 -0.47161 -0.09534 0.020152 -0.80302 0.60894 0.54874 0.090659 -0.05054 0.37754 0.049866 -0.47367 0.18486 -0.057358 -0.39049 0.39504 -0.29281 -0.45404 -0.86351 0.42128 -0.2282 -0.16796 0.6814 -0.065765 0.21618 -0.62611 -0.39768 0.11709 0.55839 -0.0086545 -0.17774 -0.60781 -0.21112 -0.6316 -0.13935 -0.28142 0.019121 -0.11791 0.10677 -0.46474 0.01648 -0.26065 -0.029701 0.063333 0.46482 0.17023 0.65027 0.38269 -1.6277 0.3127 -0.31413 1.5816 0.78071 -0.54155 1.71 0.12714 0.38656 0.88454 -0.26135 -0.047377 -0.38153 0.98745 -0.071359 -0.34679 -0.090094 0.1021 -0.18233 0.17389 0.11143 -0.29457 -0.21193 -0.83082 0.23943 0.95363 0.064688 0.35618 0.24718 -1.7764 0.41506 -0.49373 -0.38019 -0.16014 -0.14376 -0.56503 -0.08372 -0.37465 0.018586 -0.71158 -0.024712 -1.1489 -0.40395 1.4321 0.20582
states 0.13815 0.45166 0.93858 0.055307 0.70642 -0.54046 -0.23845 0.4287 0.044248 -0.22925 -0.35244 -1.2327 0.014078 0.3902 -0.022401 0.063482 0.93077 0.18331 -1.0044 -0.3925 0.75232 0.50908 1.021 0.36036 -0.32886 0.20715 0.61499 -0.62382 0.69708 0.025825 0.31019 0.57879 0.014539 -0.16507 0.23301 0.43865 0.17361 -0.30823 -0.2958 -0.0056279 -1.5188 -0.32979 0.18574 0.10105 0.21442 -0.68405 0.7238 -0.43453 -0.14812 -0.6115 0.024181 0.24927 0.20014 0.95541 -0.0049571 -2.3214 0.42327 -1.0557 1.7521 0.8185 -0.071669 0.022392 0.64796 -0.14929 0.71763 -0.00068196 -0.40566 1.2262 0.35112 0.25473 0.19905 -0.46895 -0.27762 0.26085 0.39509 0.45209 0.19065 -0.40421 -1.253 0.19878 0.8517 -0.15268 -0.63545 0.47758 -1.0593 -0.073282 -0.0039082 -0.17523 0.07036 -0.80366 -0.74478 -0.3666 -0.41988 -0.31086 -1.0702 0.51695 -0.16042 -0.36675 0.26479 -0.21382
pre -0.00058319 0.091452 -0.099459 0.23086 -0.79883 0.15228 0.2977 0.43321 -0.75578 0.81358 0.001021 -0.065887 0.13919 0.16358 0.63249 -0.079971 -0.0066518 -0.1103 0.11809 0.0070434 -0.063152 0.04107 0.057841 0.39236 -0.23383 -0.34172 0.01917 -0.28608 -0.24638 -0.48332 -0.022643 -0.47396 -0.1126 0.27716 0.47996 -0.36598 -0.067305 -0.19852 -0.30688 0.25765 -0.27734 -0.26144 0.42785 0.082643 0.32039 -0.147 -0.071036 -0.43283 0.081509 -1.4486 0.11073 0.062366 0.64766 -0.18432 -0.26355 -1.7128 0.17576 0.10624 1.8304 -0.067546 -0.063677 0.69312 -0.017156 -0.63139 0.15445 -0.0048777 -0.33448 -0.19996 -0.46833 -0.53136 0.45567 0.2018 -0.29476 0.18141 -0.98501 -0.023286 -0.19566 -0.28227 -0.8775 -0.038492 0.82243 -0.39714 0.14736 0.32584 -1.3809 -0.27997 -0.18268 0.13544 0.089564 -0.020236 0.067474 0.53328 0.1705 0.18829 -0.38644 -0.38911 0.6905 0.014201 0.37922 0.043266
variety -0.62101 0.57837 -0.55624 0.29583 0.55339 -0.038977 -0.019593 0.024722 -0.46434 0.019804 -0.65643 -0.83065 0.13186 0.2857 0.26713 0.2541 0.16002 0.29282 0.0042304 0.48991 -0.38483 -0.3022 0.20515 -0.75189 -0.098842 0.10696 0.48888 -0.18933 -0.58672 0.32694 -0.36505 0.49568 -0.33137 -0.3821 0.63908 0.73698 -0.027399 -0.11663 -0.38197 -0.33349 0.011615 -0.32129 -0.58942 0.25548 0.16914 0.18557 -0.3293 -0.1948 -0.20247 -0.14197 0.041103 -0.0094138 0.093804 0.32128 0.21274 -1.4599 0.16029 -0.013223 1.4829 0.3507 -0.14354 1.4591 0.012734 -0.25172 1.0413 -0.74023 0.30352 -0.56121 0.8061 0.093061 -0.36407 0.059998 -0.061578 0.18515 0.15372 0.31383 -0.33439 -0.11222 -0.25794 0.39964 0.87209 -0.43707 0.017158 -0.043609 -1.2395 -0.21506 -0.15324 -0.15722 -0.46536 0.22226 -0.34739 -0.26292 -0.12793 -0.082869 -0.66416 0.14321 -1.2195 -0.8977 1.3736 0.43262
actors 0.71404 0.53361 -0.12003 -0.21657 -0.084629 -0.0057003 -0.90297 -0.050155 -0.64798 -0.59673 -0.36621 -0.93481 0.45652 0.11472 -0.18638 -0.32695 0.22323 0.40009 0.33646 0.97748 -0.062611 -0.25903 0.32044 -1.1164 0.7914 -0.6838 0.04167 -0.22529 0.54372 -0.23754 0.099468 0.43235 -0.20505 -0.65519 0.60517 -0.33898 0.54662 0.41581 -0.13562 0.013479 -0.14006 0.68227 -0.67724 0.78538 0.39059 -0.54144 -1.0558 -0.37257 -0.25727 -0.15876 -0.60532 -0.17054 -0.08427 1.0601 0.50023 -1.2453 -0.57778 -0.12753 0.064121 0.064407 -0.18881 2.19 -0.18446 0.11507 0.44487 -0.34963 0.8433 0.61703 -0.17318 0.20246 -0.077008 -0.054363 -0.5086 -0.19804 0.17608 -0.39292 -0.071317 -0.068701 0.25266 -0.7479 -0.30951 -0.47638 0.27703 -0.46147 -2.4616 0.070022 -0.40698 0.5037 0.00055274 -0.8391 -0.044261 -0.32943 -0.38244 -0.48236 -0.36915 0.37367 -0.11442 -0.06573 0.60925 0.31265
attached -0.83058 0.07766 -0.044144 -0.075507 0.45494 0.054938 -0.70513 -0.086861 0.057909 0.28725 0.37745 -0.069551 0.70366 0.95438 0.21557 -0.24644 0.11632 -0.18982 -0.040057 -1.1177 -0.11689 -0.15545 -0.003882 -0.36072 0.39241 -0.18999 -0.46885 0.17311 0.2393 0.29423 0.14033 0.26678 0.13689 -0.050454 0.72985 0.17487 0.048574 0.098177 0.4926 0.10861 0.53031 -0.23757 0.57635 -0.42911 -0.20108 0.099016 -0.136 1.118 -0.27992 -0.35538 0.19351 0.24918 -0.029696 0.80425 -0.21167 -1.394 0.16742 -0.70505 1.426 0.58923 0.18092 0.8928 0.39398 1.1052 0.31445 -0.21055 -0.060798 0.54298 0.30067 -0.10536 0.45543 -0.12849 0.67514 0.029719 0.42786 0.43728 0.55238 0.35919 -0.4141 -0.11503 -0.55767 -0.17923 -0.54135 0.043243 -0.99176 -0.087259 0.36558 -0.40048 0.086533 -0.17767 -0.72027 -0.16417 0.29932 -0.021349 0.14078 -0.41101 0.08255 -0.65315 0.7827 -0.42624
different -0.34193 0.69984 -0.062688 0.047838 0.047413 0.24105 0.024697 0.12202 -0.35063 0.29241 -0.22644 -0.39201 0.60407 0.15422 0.30936 -0.025072 -0.1786 0.23244 -0.50474 0.22489 0.14623 -0.29867 0.32731 -0.38622 -0.26867 -0.69163 0.68051 -0.47513 -0.17694 0.50551 0.29676 0.58204 -0.59029 -0.81686 0.66714 0.35653 -0.19997 -0.029561 -0.45303 -0.40534 -0.16662 -0.43672 -0.037496 -0.093976 -0.65491 0.083421 -0.3024 -0.057909 -0.49842 -0.36909 0.15595 0.014922 0.20995 0.9027 0.33943 -2.1148 0.58562 0.17891 1.5874 0.75156 -0.39343 1.8272 0.10343 0.17748 0.97696 -0.04394 0.025977 0.017788 0.29202 -0.092493 -0.33282 -0.13279 0.23068 -0.42664 0.77047 -0.054062 -0.151 -0.87587 -0.32381 -0.1296 0.14491 -0.1037 -0.61138 0.0012623 -1.7917 0.44908 -0.28168 -0.8932 -0.33155 -0.20541 -0.53719 0.12541 -0.65429 -0.26308 -0.71282 0.10556 -1.5133 -0.43555 0.83887 0.31641
roles 0.052127 -0.20391 -0.41878 0.19798 0.36781 0.069745 -0.63069 -0.20452 -0.56858 0.14515 -0.32496 -0.74148 0.09298 1.1943 -0.019715 -0.20799 0.096496 0.46207 0.44152 1.1075 0.27717 -0.68228 0.1659 -0.38375 0.031388 -0.39517 0.44027 -0.32579 0.26547 0.65021 0.14555 0.12551 0.065381 -0.84334 0.096723 0.017739 0.43901 0.12595 -0.36134 0.060934 0.053167 0.35416 0.11816 0.80169 0.60249 0.33255 -0.39547 -0.36795 -0.52845 -0.34274 -0.4921 -0.098054 0.19536 1.4859 0.75359 -1.5274 0.10802 -0.25411 0.13382 0.63921 -0.42761 1.4341 0.22345 0.051373 0.78792 -0.52241 0.51192 -0.16152 0.20863 1.0298 0.12867 -0.63012 -0.20073 -0.040443 -0.12328 -0.60653 -1.1681 0.067162 0.53566 -0.63044 -0.34992 -0.26636 0.81615 0.14323 -2.3775 -0.097584 -0.69467 -0.28614 -0.48743 -0.66203 -0.46783 -0.077801 0.0058625 0.20873 0.020998 0.49678 -0.65197 -0.11345 0.49107 0.62166
match -0.27317 0.024643 0.60197 0.10075 -0.91521 0.7941 0.49028 1.0164 -1.1178 -0.032037 0.25623 -0.51983 -0.4331 0.06694 0.41573 0.33878 0.23057 0.51842 -0.084796 -0.10219 0.60061 -0.4014 0.91522 0.71851 1.0078 -0.15015 0.41868 -0.054578 0.50173 -0.32182 -0.95489 0.24317 -0.19197 -0.46285 0.58726 -0.65883 -1.0506 0.47506 -1.2134 -0.20094 0.079418 -0.59471 0.61967 -0.71872 0.26772 0.066436 0.46299 -0.37937 0.29214 -1.0325 0.045195 0.29274 0.1608 1.0881 0.38886 -2.6157 -0.76293 -0.032362 0.73747 0.82365 -0.71791 0.067317 -0.64385 0.31325 0.040896 -0.18515 -0.27176 0.82445 -0.38766 -0.51122 -0.03015 0.20942 0.4966 -0.20688 0.5043 0.29664 -0.16568 -0.62829 -0.19411 0.66545 1.0351 -0.40515 -0.45383 -0.39954 -1.4527 -0.69831 -1.4688 0.70537 -0.38682 0.24483 -0.65284 0.31179 0.044428 0.62893 0.2476 0.06764 0.014793 0.73582 0.19831 0.20071
