players -0.91399 0.084152 0.064889 0.38138 0.1012 -0.41253 -1.0374 0.58694 -1.0811 0.41565 0.75995 0.58594 -1.0692 0.28048 1.0978 -0.022174 0.50837 -0.011568 -0.78902 -1.234 -1.1572 0.31983 0.42662 0.52228 -0.28263 -1.1629 0.38899 -0.57561 -0.30536 -1.0698 3.4031 1.297 0.40442 -0.50792 0.86177 0.7706 0.48023 0.49316 -0.42102 -0.86115 -0.013608 0.074204 0.036231 1.1018 0.13154 0.20627 -0.0029658 0.65953 -0.72998 -0.19931
initially 0.64888 -0.64598 0.41867 -0.61359 0.068349 0.31676 -0.89873 0.29417 -0.54814 -0.14435 0.60681 0.068002 -0.11629 -0.46931 0.27107 0.215 -0.39332 0.18017 -0.54557 -0.24288 0.40611 0.14821 0.35613 -0.00091511 0.1099 -1.4342 0.23458 -0.024834 -0.48962 0.11296 2.6564 -0.56353 0.23691 -0.90936 0.24974 -0.4239 0.41675 0.17995 -0.65409 -0.29582 0.021462 -0.18129 -0.11619 -0.31339 -0.10319 -0.57022 -0.72757 -0.070468 -0.22631 0.087007
provoked 0.30364 -0.58073 -0.6304 -0.44129 -0.51585 0.65481 0.61427 0.89609 -0.6243 0.55448 -0.54209 -0.66495 -0.0043137 -0.4306 0.51552 -0.31249 -0.14985 -0.49785 -0.75817 -0.21232 0.43232 0.15155 -0.35371 -0.33471 0.43606 -1.3906 0.19881 0.33678 0.14464 1.1084 1.1891 -0.0065136 0.19837 -0.9645 -1.2956 -0.20995 -0.30514 -1.3253 -0.70084 0.073463 -0.0059196 0.56955 -0.53972 0.031947 1.0406 0.22168 -0.45848 0.8578 -0.45795 -0.61118
curiosity 0.47167 0.79629 -0.43202 -0.66755 0.90153 -0.11843 -0.17459 0.076012 0.23615 1.275 0.23997 0.15663 0.085768 -0.55468 0.53126 0.11141 0.25618 0.86743 -0.55825 -0.77475 0.38044 1.0433 -0.40731 0.037886 1.2445 -0.69242 -0.87369 0.4116 0.96574 0.75776 0.63947 0.6175 0.21382 -1.2664 -0.59164 -0.03376 -1.1181 -0.2589 0.20939 -0.35686 0.87872 -0.27225 -0.48969 0.99276 0.53426 -0.094948 0.42129 0.61842 0.26634 -0.69499
due 0.52529 0.25014 -0.29891 -0.003927 -0.68551 0.41819 -0.096241 0.42622 0.09777 -0.12757 0.77646 0.052267 -0.22046 -0.44999 0.84733 0.75829 -0.5126 -0.46022 -0.68956 -0.20814 0.26289 -0.54675 0.27619 -0.37804 0.085518 -1.0566 0.16707 0.25964 0.39742 1.4921 3.7574 0.093004 0.26742 -0.82988 0.19037 0.040906 0.52393 -0.023492 -0.32684 -0.12868 -0.81991 -0.049887 -0.16289 -0.073079 -0.34803 -0.1901 -0.080237 0.23164 0.21708 -0.35911
to 0.68047 -0.039263 0.30186 -0.17792 0.42962 0.032246 -0.41376 0.13228 -0.29847 -0.085253 0.17118 0.22419 -0.10046 -0.43653 0.33418 0.67846 0.057204 -0.34448 -0.42785 -0.43275 0.55963 0.10032 0.18677 -0.26854 0.037334 -2.0932 0.22171 -0.39868 0.20912 -0.55725 3.8826 0.47466 -0.95658 -0.37788 0.20869 -0.32752 0.12751 0.088359 0.16351 -0.21634 -0.094375 0.018324 0.21048 -0.03088 -0.19722 0.082279 -0.09434 -0.073297 -0.064699 -0.26044
their 0.41519 0.13167 -0.0569 -0.56765 0.49924 0.21288 -0.81949 0.32257 -0.065374 -0.055513 0.11837 0.36933 -0.46424 -0.072383 0.068214 0.0014523 -0.07322 -0.65668 0.11368 -0.91816 0.029319 0.38103 0.34032 -0.21496 -0.26681 -1.6509 -0.71668 -0.41272 0.48465 -0.62432 4.1939 1.4292 -0.45902 -0.51709 0.2626 0.51086 -0.23999 -0.06962 -0.4561 -0.48333 -0.39544 -0.53831 -0.070727 0.54496 0.2351 -0.18746 -0.2242 -0.11806 -0.34499 -0.86949
race -0.65295 0.41716 -0.18996 1.1856 -0.058602 0.84315 -0.75376 0.026361 -0.1327 -0.8641 -0.34734 -1.363 -1.049 -0.33016 1.0228 -0.372 0.32135 0.21091 -1.7135 -1.5031 -0.5127 -0.14772 -0.21789 0.62638 1.001 -1.5693 -0.23567 -0.238 -0.029894 0.62624 2.3002 0.68448 -1.3347 -0.11154 0.14985 -1.2623 -0.24938 1.0384 -0.9126 -0.69074 -0.57282 -0.54585 -0.22937 0.62965 -0.34503 -0.41869 0.49086 -0.67952 0.9101 -0.1719
, 0.013441 0.23682 -0.16899 0.40951 0.63812 0.47709 -0.42852 -0.55641 -0.364 -0.23938 0.13001 -0.063734 -0.39575 -0.48162 0.23291 0.090201 -0.13324 0.078639 -0.41634 -0.15428 0.10068 0.48891 0.31226 -0.1252 -0.037512 -1.5179 0.12612 -0.02442 -0.042961 -0.28351 3.5416 -0.11956 -0.014533 -0.1499 0.21864 -0.33412 -0.13872 0.31806 0.70358 0.44858 -0.080262 0.63003 0.32111 -0.46765 0.22786 0.36034 -0.37818 -0.56657 0.044691 0.30392
but 0.35934 -0.2657 -0.046477 -0.2496 0.54676 0.25924 -0.64458 0.1736 -0.53056 0.13942 0.062324 0.18459 -0.75495 -0.19569 0.70799 0.44759 0.27031 -0.32885 -0.38891 -0.61606 -0.484 0.41703 0.34794 -0.19706 0.40734 -2.1488 -0.24284 0.33809 0.43993 -0.21616 3.7635 0.19002 -0.12503 -0.38228 0.12944 -0.18272 0.076803 0.51579 0.0072516 -0.29192 -0.27523 0.40593 -0.040394 0.28353 -0.024724 0.10563 -0.32879 0.10673 -0.11503 0.074678
the 0.418 0.24968 -0.41242 0.1217 0.34527 -0.044457 -0.49688 -0.17862 -0.00066023 -0.6566 0.27843 -0.14767 -0.55677 0.14658 -0.0095095 0.011658 0.10204 -0.12792 -0.8443 -0.12181 -0.016801 -0.33279 -0.1552 -0.23131 -0.19181 -1.8823 -0.76746 0.099051 -0.42125 -0.19526 4.0071 -0.18594 -0.52287 -0.31681 0.00059213 0.0074449 0.17778 -0.15897 0.012041 -0.054223 -0.29871 -0.15749 -0.34758 -0.045637 -0.44251 0.18785 0.0027849 -0.18411 -0.11514 -0.78581
press -0.47559 0.59191 -0.0036768 0.59487 -0.203 -0.78632 -0.92919 -0.17557 0.0079159 -0.88082 -0.61542 -0.0094559 -0.62884 -0.17575 0.78539 0.12645 -0.45861 -0.84154 0.1882 -0.072123 0.93554 0.67691 0.91796 0.22855 0.23493 -1.657 -0.377 0.2731 -0.687 -0.014572 2.6045 -0.30978 -0.31292 -0.88876 -1.0727 -0.13627 -0.11805 -0.22841 -0.028016 0.40617 0.86576 0.85138 -0.18297 -0.7882 0.4903 0.1963 -0.567 0.85609 0.31344 -0.077916
subsequently 0.1673 -0.62144 -0.16515 -0.53601 -0.30108 0.51191 -0.86108 0.421 -0.33341 -0.4652 0.96045 0.58333 -0.43877 -0.54736 0.24431 0.034082 -0.67051 0.0014888 -0.62818 0.29816 0.73955 -0.064884 0.66431 -0.20632 -0.22564 -1.3277 0.20143 -0.3557 -0.72563 0.069955 2.2452 -0.96108 0.11568 -1.1103 0.12865 0.17559 0.78525 0.36271 -0.40257 -0.19043 0.068778 -0.56465 -0.36324 -0.28563 -0.63852 -0.40137 -0.80892 -0.78975 -0.18125 -0.56495
expressed 0.5482 0.92524 -0.26877 0.27431 0.77692 0.06705 0.26964 0.5683 -0.4872 -0.043845 0.36942 0.29362 -0.0054861 -0.46612 0.015478 0.23632 -0.21128 -0.63503 0.59776 -0.64837 -0.10891 0.52247 0.36814 -0.80253 0.82734 -1.5163 0.18691 0.16472 -0.83906 0.73297 2.4965 0.8047 -0.12664 -1.1574 -0.51336 -1.1499 -0.21901 -0.54871 -0.6017 0.44271 -0.049381 0.45402 -0.5264 -0.56635 0.72899 0.083549 -1.0874 1.3355 -0.20664 -0.12731
some 0.92871 -0.10834 0.21497 -0.50237 0.10379 0.22728 -0.54198 -0.29008 -0.64607 0.12664 -0.41487 -0.29343 0.36855 -0.41733 0.69116 0.067341 0.19715 -0.030465 -0.21723 -1.2238 0.0095469 0.19594 0.56595 -0.067473 0.059208 -1.3909 -0.89275 -0.13546 0.162 -0.4021 4.1644 0.37816 0.15797 -0.48892 0.23131 0.23258 -0.25314 -0.19977 -0.12258 0.1562 -0.31995 0.38314 0.47266 0.877 0.32223 0.0013292 -0.4986 0.5558 -0.70359 -0.52693
surprise 0.43138 0.2556 -0.0054598 0.2672 0.41846 -0.30282 -0.42898 1.2554 -0.37419 0.42207 -0.38164 -0.45101 -0.24843 -0.18889 0.85612 -0.15808 0.13082 -0.77788 -1.0247 -0.47486 0.054011 -0.1516 -0.18829 -0.36845 0.44512 -1.571 -0.55777 0.21816 0.26315 0.18359 2.0894 0.68849 -0.16336 -0.1216 0.038419 -0.302 0.06687 0.21847 -0.47899 -1.1706 0.093452 0.28611 -0.55597 -0.65429 0.66782 0.04971 -0.0052173 0.7006 0.32465 0.24523
that 0.88387 -0.14199 0.13566 0.098682 0.51218 0.49138 -0.47155 -0.30742 0.01963 0.12686 0.073524 0.35836 -0.60874 -0.18676 0.78935 0.54534 0.1106 -0.2923 0.059041 -0.69551 -0.18804 0.19455 0.32269 -0.49981 0.306 -2.3902 -0.60749 0.37107 0.078912 -0.23896 3.839 -0.20355 -0.35613 -0.69185 -0.17497 -0.35323 0.10598 -0.039303 0.015701 0.038279 -0.35283 0.44882 -0.16534 0.31579 0.14963 -0.071277 -0.53506 0.52711 -0.20148 0.0095952
side 0.20712 0.45525 -0.59307 -0.37613 0.082234 0.22413 -0.31312 0.71027 -0.61976 -0.49796 0.13477 0.0056405 -0.77043 -0.19784 -0.70032 0.23177 0.815 -0.061393 -0.73146 -0.40748 -0.52122 0.052144 0.010133 0.68707 -0.21358 -1.5289 0.53722 1.1833 -0.022483 -0.55043 3.5116 0.5666 0.25898 -0.065076 0.34411 0.40766 0.25558 0.43896 -0.22385 -0.82314 0.51137 -0.13294 -0.16608 -0.23841 -0.12116 0.43584 0.013572 -0.14499 0.5076 -0.75084
was 0.086888 -0.19416 -0.24267 -0.33391 0.56731 0.39783 -0.97809 0.03159 -0.61469 -0.31406 0.56145 0.12886 -0.84193 -0.46992 0.47097 0.023012 -0.59609 0.22291 -1.1614 0.3865 0.067412 0.44883 0.17394 -0.53574 0.17909 -2.1647 -0.12827 0.29036 -0.15061 0.35242 3.124 -0.90085 -0.02567 -0.41709 0.40565 -0.22703 0.76829 0.60982 0.070068 -0.13271 -0.1201 0.096132 -0.43998 -0.48531 -0.5188 -0.3077 -0.75028 -0.77 0.3945 -0.16937
not 0.55025 -0.24942 -0.0009386 -0.264 0.5932 0.2795 -0.25666 0.093076 -0.36288 0.090776 0.28409 0.71337 -0.4751 -0.24413 0.88424 0.89109 0.43009 -0.2733 0.11276 -0.81665 -0.41272 0.17754 0.61942 0.10466 0.33327 -2.3125 -0.52371 -0.021898 0.53801 -0.50615 3.8683 0.16642 -0.71981 -0.74728 0.11631 -0.37585 0.5552 0.12675 -0.22642 -0.10175 -0.35455 0.12348 0.16532 0.7042 -0.080231 -0.068406 -0.67626 0.33763 0.050139 0.33465
as 0.20782 0.12713 -0.30188 -0.23125 0.30175 0.33194 -0.52776 -0.44042 -0.48348 0.03502 0.34782 0.54574 -0.2066 -0.083713 0.2462 0.15931 -0.0031349 0.32443 -0.4527 -0.22178 0.022652 -0.041714 0.31815 0.088633 -0.03801 -1.8212 -0.50917 -0.097544 -0.08953 0.050476 3.718 -0.16503 -0.078733 -0.57101 0.20418 0.13411 0.074281 0.087502 -0.25443 -0.15011 -0.15768 0.39606 -0.23646 -0.095054 0.07859 -0.012305 -0.49879 -0.35301 0.05058 0.019495
" 0.25769 0.45629 -0.76974 -0.37679 0.59272 -0.063527 0.20545 -0.57385 -0.29009 -0.13662 0.32728 1.4719 -0.73681 -0.12036 0.71354 -0.46098 0.65248 0.48887 -0.51558 0.039951 -0.34307 -0.014087 0.86488 0.3546 0.7999 -1.4995 -1.8153 0.41128 0.23921 -0.43139 3.6623 -0.79834 -0.54538 0.16943 -0.82017 -0.3461 0.69495 -1.2256 -0.17992 -0.057474 0.030498 -0.39543 -0.38515 -1.0002 0.087599 -0.31009 -0.34677 -0.31438 0.75004 0.97065
they 0.70835 -0.57361 0.15375 -0.63335 0.46879 -0.066566 -0.86826 0.35967 -0.64786 -0.22525 0.09752 0.27732 -0.35176 -0.25955 0.62368 0.60824 0.34905 -0.27195 -0.27981 -1.0183 -0.1487 0.41932 1.0342 0.17783 0.13569 -1.9999 -0.56163 0.004018 0.60839 -1.0031 3.9546 0.68698 -0.53593 -0.7427 0.18078 0.034527 0.016026 0.12467 -0.084633 -0.10375 -0.47862 -0.22314 0.25487 0.69985 0.32714 -0.15726 -0.6202 -0.23113 -0.31217 -0.3049
had 0.60348 -0.52096 0.40851 -0.37217 0.36978 0.61082 -1.3228 0.24375 -0.5942 -0.35708 0.39942 0.031911 -1.0643 -0.52327 0.71453 0.063384 -0.46383 -0.34641 -0.72445 -0.13714 -0.19179 0.72225 0.6295 -0.8086 -0.037694 -2.0355 0.10566 -0.038591 -0.23201 -0.29627 3.3215 0.032443 0.085368 -0.40771 0.45341 -0.099674 0.44704 0.5422 0.18185 0.17504 -0.33833 0.31697 -0.025268 0.095795 -0.25071 -0.47564 -1.0407 -0.15138 -0.22057 -0.59633
expected 0.75231 0.016437 0.90861 0.15883 0.154 -0.58219 -0.66016 0.068855 -0.10327 -0.1327 0.13106 -0.57297 -0.026791 -0.13023 0.94727 1.0802 -0.16297 -0.77721 -0.38655 -0.83849 0.45062 -0.40128 0.11282 -0.8071 -0.03594 -1.1959 0.39782 -0.11803 -0.56312 0.6788 3.6006 0.94536 -0.34436 -0.026178 0.30608 -1.0147 0.17467 0.24028 0.048675 -0.48288 -0.95961 0.41725 0.036905 -0.59706 -0.13813 0.083673 -0.17355 0.76521 -0.28484 0.31663
. 0.15164 0.30177 -0.16763 0.17684 0.31719 0.33973 -0.43478 -0.31086 -0.44999 -0.29486 0.16608 0.11963 -0.41328 -0.42353 0.59868 0.28825 -0.11547 -0.041848 -0.67989 -0.25063 0.18472 0.086876 0.46582 0.015035 0.043474 -1.4671 -0.30384 -0.023441 0.30589 -0.21785 3.746 0.0042284 -0.18436 -0.46209 0.098329 -0.11907 0.23919 0.1161 0.41705 0.056763 -6.3681e-05 0.068987 0.087939 -0.10285 -0.13931 0.22314 -0.080803 -0.35652 0.016413 0.10216
won -1.5561 0.86241 0.14604 1.1389 -0.16875 0.68905 -0.64142 0.40618 -0.88795 0.065865 -0.099475 -0.86429 -1.1493 -0.42725 0.75917 -0.68994 0.79301 0.015027 -1.6869 -0.24158 -0.54559 -0.0021012 0.39753 -0.46364 -0.095394 -1.4212 -0.2692 -0.909 -1.2531 -0.2427 2.274 1.0078 -0.31668 0.4283 0.18199 -0.70904 0.10949 1.2528 -0.24527 -1.3725 -0.11136 -0.082122 -0.043902 -0.52759 -0.73033 0.20293 -0.82448 -0.60593 -0.061551 -0.48898
1980 -0.95531 0.56627 -0.1049 -0.21613 -0.8084 0.44471 -0.84955 -0.32217 -0.33901 0.001242 0.45185 -0.37318 -0.46871 -0.13676 1.1602 -0.50428 -0.24438 0.59126 -1.3156 0.88704 0.38044 -0.073039 0.39769 -0.35672 -0.32359 -1.2112 -0.30881 -0.55056 -0.39592 0.63453 1.8576 -0.61209 -0.52053 -0.5676 -0.23186 -0.079462 0.55604 0.21312 0.012983 -0.34787 -0.77985 -0.31059 -0.034093 -0.80751 -1.0318 0.35335 -0.54771 -0.76246 -0.46673 -0.21148
500 -0.14548 0.21982 1.5501 0.13923 0.57127 -0.49722 -0.55028 -0.74681 -0.089278 -0.31067 -0.47691 -1.4359 0.39791 -1.1801 1.0159 -0.62059 -0.18538 0.76966 -1.4272 -1.1087 0.53647 -0.090189 -0.049104 -0.31182 -0.15679 -0.42423 0.084916 -1.0201 -0.37419 0.0081056 2.9001 0.097996 -0.26524 0.95035 0.58648 -0.33384 0.047424 -0.25466 0.090657 -0.02235 0.015039 -0.2895 1.0146 0.48252 -0.049127 -0.2365 -0.058725 -0.12011 -0.38297 -0.57571
of 0.70853 0.57088 -0.4716 0.18048 0.54449 0.72603 0.18157 -0.52393 0.10381 -0.17566 0.078852 -0.36216 -0.11829 -0.83336 0.11917 -0.16605 0.061555 -0.012719 -0.56623 0.013616 0.22851 -0.14396 -0.067549 -0.38157 -0.23698 -1.7037 -0.86692 -0.26704 -0.2589 0.1767 3.8676 -0.1613 -0.13273 -0.68881 0.18444 0.0052464 -0.33874 -0.078956 0.24185 0.36576 -0.34727 0.28483 0.075693 -0.062178 -0.38988 0.22902 -0.21617 -0.22562 -0.093918 -0.80375
award -1.3086 1.7375 -0.57947 0.39603 0.54224 0.41411 -0.6104 -0.65784 1.0299 0.58311 0.29289 0.76647 0.23736 0.26949 0.61541 -1.1809 0.84402 0.59988 -1.0476 -0.16932 0.69944 0.12318 -0.41059 -1.0214 0.023593 -1.3111 -1.7193 -1.2015 -1.9113 -0.5664 1.8896 0.4123 -0.36942 -0.74746 -0.22967 0.19631 0.52465 0.35923 0.045232 -1.1562 0.20787 0.55651 -0.8668 -0.8587 -1.3831 -0.33113 -0.46826 0.11572 -0.42546 0.45634
and 0.26818 0.14346 -0.27877 0.016257 0.11384 0.69923 -0.51332 -0.47368 -0.33075 -0.13834 0.2702 0.30938 -0.45012 -0.4127 -0.09932 0.038085 0.029749 0.10076 -0.25058 -0.51818 0.34558 0.44922 0.48791 -0.080866 -0.10121 -1.3777 -0.10866 -0.23201 0.012839 -0.46508 3.8463 0.31362 0.13643 -0.52244 0.3302 0.33707 -0.35601 0.32431 0.12041 0.3512 -0.069043 0.36885 0.25168 -0.24517 0.25381 0.1367 -0.31178 -0.6321 -0.25028 -0.38097
13 -0.3621 0.46437 0.7222 0.08879 0.23619 0.57173 -0.83356 -0.074103 -0.70206 -0.61332 -0.1731 -0.74031 -0.55957 -0.31816 0.9025 -0.83951 -0.66156 -0.50576 -1.576 0.56337 0.38436 0.057226 1.0995 0.029828 -0.73869 -0.58223 0.77768 -0.95961 0.029649 -0.16321 3.1217 0.15407 -0.14229 0.16998 0.89442 -0.14808 0.61581 0.1464 0.43159 0.033338 -0.46611 -0.39823 0.855 -0.66452 -0.55664 0.47087 -0.24652 -0.58024 0.24493 -0.061341
victories -0.58843 0.48397 0.34263 0.71143 -0.3909 0.36162 -0.4594 0.91023 -0.6727 -0.1377 -0.91526 -1.0348 -1.295 -0.47361 0.058856 -1.438 0.15569 -0.5939 -1.505 -0.62165 -1.2447 -0.51304 0.35501 -0.7881 -0.082488 -0.71966 -1.0609 -0.96216 0.017483 0.071206 1.9815 1.1366 -0.20958 0.082995 0.84835 -0.088713 0.024512 1.2209 -1.1051 -0.60051 -0.66558 -0.56691 -0.10687 0.29397 -0.7434 0.52663 -0.56707 0.038674 -0.42195 -0.55856
during 0.29784 -0.018422 -0.71891 -0.4651 -0.45661 -0.0042153 -0.74598 0.34662 -0.51781 -0.5877 0.18398 -0.36903 -0.52225 -0.14082 0.83446 -0.26962 -0.89364 -0.11813 -1.3076 0.475 0.52815 -0.021974 0.61869 -0.65362 -0.14298 -1.6466 -0.05305 -0.17046 0.17048 0.75756 3.5832 0.13775 -0.37811 -0.48736 0.0069906 0.59913 0.31404 0.30734 -0.42397 0.35383 -0.97151 0.16082 -0.63666 -0.20449 -0.070846 -0.32219 -0.049254 -0.41865 -0.6899 -0.54908
eight 0.0691 0.42247 0.67768 0.22944 0.40694 0.60352 -0.74431 0.25769 -0.24504 -0.46178 -0.52454 -0.91074 -0.49691 0.52518 0.59525 -1.0125 -0.1745 -0.15636 -1.3133 -0.20655 -0.036517 0.17894 0.76015 -0.16871 -0.52895 -0.8503 0.46335 -0.67872 -0.39183 -0.4092 3.5699 0.55358 0.076693 0.38853 1.1011 0.53138 0.49286 0.31955 -0.18245 0.014887 -0.85835 -0.19661 0.6663 0.1232 -0.046825 0.19542 -0.38691 -0.10834 -0.33741 -0.79467
seasons -0.80718 1.0475 -0.74983 0.025195 -0.76949 -0.19972 -1.8147 0.15319 -1.1814 -0.10856 -0.16099 0.10833 -1.049 0.10732 1.2125 -0.58389 0.018616 0.22375 -1.7422 0.50499 -0.85531 -0.40899 1.0047 0.075574 -0.77087 0.13204 0.014231 0.054181 0.70462 -0.0090434 2.5459 1.1982 0.75287 -0.35346 1.0667 0.96933 0.040924 1.0242 -0.025274 -0.4898 -1.2975 -0.58561 -0.45313 0.24296 -1.1353 0.4475 0.18596 0.023698 -0.58226 0.28484
victors 0.31483 -0.34498 0.05534 -0.09549 0.15042 -0.051856 0.68696 0.73366 -0.75893 -0.042761 -0.41547 -0.28241 -0.89282 -0.029609 0.14324 -0.28942 0.47137 -0.56161 -0.36341 0.05809 -0.6262 -0.5057 0.56428 0.12534 -0.2304 -0.068817 -0.94262 -0.18713 0.094346 -0.034909 -0.12156 1.0972 -0.30129 -0.12703 -0.35061 -0.10645 0.090321 0.17905 -1.0447 -0.82564 -0.081523 -0.84711 0.00055487 0.20288 -0.43823 0.84064 -0.63156 -0.098069 0.13258 -0.91186
in 0.33042 0.24995 -0.60874 0.10923 0.036372 0.151 -0.55083 -0.074239 -0.092307 -0.32821 0.09598 -0.82269 -0.36717 -0.67009 0.42909 0.016496 -0.23573 0.12864 -1.0953 0.43334 0.57067 -0.1036 0.20422 0.078308 -0.42795 -1.7984 -0.27865 0.11954 -0.12689 0.031744 3.8631 -0.17786 -0.082434 -0.62698 0.26497 -0.057185 -0.073521 0.46103 0.30862 0.12498 -0.48609 -0.0080272 0.031184 -0.36576 -0.42699 0.42164 -0.11666 -0.50703 -0.027273 -0.53285
contest -1.0544 0.17442 -0.61171 0.84652 -0.18051 0.83898 -0.10609 0.49791 -0.040437 0.38875 -0.53082 -0.99765 -0.17308 0.36782 0.88101 -0.58343 0.27638 0.12945 -0.77052 -0.63414 0.65267 -0.095162 0.56087 0.60212 -0.019852 -1.3975 -0.53862 -0.30054 -0.38275 -0.19634 2.0036 0.39643 -1.2495 -0.5768 -0.15113 -0.14352 0.07366 0.75881 -0.85613 -1.1205 -0.17962 -0.039498 -1.0858 0.059687 -0.5739 -0.15127 0.064081 -0.41143 0.25715 0.025177
retain -0.22623 0.18538 0.39647 0.55607 0.77691 0.11102 0.087103 0.60799 -0.13299 -0.20944 0.5124 0.25042 0.063016 -0.26331 -0.4412 0.97715 0.70423 -0.31327 0.53181 -0.85855 -0.27325 -0.42632 -0.34881 -0.12066 -0.6736 -0.83596 -0.2873 -0.86519 0.043632 0.23955 2.2128 0.85599 -0.62458 -0.39236 0.33044 0.074091 -0.32497 0.4641 -0.62051 -1.1754 0.32748 -0.30939 0.075224 0.56294 -0.6233 0.020049 -0.66695 0.12012 -0.30619 -0.092334
championship -1.6398 0.67066 -0.52054 1.8938 -0.62694 -0.24374 -0.6693 0.72426 -0.57842 -0.73022 0.47189 -0.55049 -2.1217 -0.20928 0.97964 -0.10349 0.67957 0.54492 -2.1914 -0.59415 -0.61477 -0.58172 0.28259 0.53686 -0.77456 -1.0507 -0.6455 -0.5435 -0.65596 -0.4155 2.1558 0.9926 -0.72329 0.062054 0.75527 -0.17231 0.15207 0.78698 -0.52967 -1.6436 -0.70235 -1.3254 -0.26715 -0.064496 -0.5358 0.5662 0.34684 -0.42908 0.075721 -0.59188
is 0.6185 0.64254 -0.46552 0.3757 0.74838 0.53739 0.0022239 -0.60577 0.26408 0.11703 0.43722 0.20092 -0.057859 -0.34589 0.21664 0.58573 0.53919 0.6949 -0.15618 0.05583 -0.60515 -0.28997 -0.025594 0.55593 0.25356 -1.9612 -0.51381 0.69096 0.066246 -0.054224 3.7871 -0.77403 -0.12689 -0.51465 0.066705 -0.32933 0.13483 0.19049 0.13812 -0.21503 -0.016573 0.312 -0.33189 -0.026001 -0.38203 0.19403 -0.12466 -0.27557 0.30899 0.48497
an 0.36143 0.58615 -0.23718 0.079656 0.80192 0.49919 -0.33172 -0.19785 0.13876 0.16804 0.12557 -0.24494 -0.092315 0.35135 -0.024396 -0.31713 0.071206 0.37087 -0.82027 0.21193 -0.052153 0.29928 -0.49494 -0.12546 -0.012394 -2.2174 -0.082666 0.15184 0.050396 0.61229 3.7305 -0.93152 -0.28716 -0.48056 0.060682 0.058104 0.42065 -0.046598 0.083503 -0.23819 0.38828 0.36926 -0.44066 0.075673 -0.050556 -0.42269 -0.21577 0.39362 0.36523 0.36077
advocate -0.90568 0.045471 -0.66214 -0.92491 0.1268 0.50345 0.016536 -0.20854 0.69282 0.36681 -0.10928 -0.039085 0.27495 -0.091972 -0.78872 -0.56768 0.58896 -0.082603 0.75603 0.19777 -0.14918 0.33272 -0.87888 -0.00028276 0.16454 -1.8378 0.25705 -0.90744 -0.33503 1.0719 1.8214 -0.30226 -0.68954 -0.92692 -0.85948 -0.66453 -0.12684 0.085637 -0.18328 -0.1462 0.060849 0.27326 -0.28726 0.32397 0.49825 -0.16415 -0.95037 -0.27648 0.014303 1.0672
increased 0.056967 0.036951 0.8027 -0.60235 -0.15719 0.6519 0.15744 -0.7587 0.81027 0.37264 0.81025 -0.68912 0.12498 -1.1833 0.18283 0.19986 -0.48307 -0.31669 -0.4739 -0.54838 0.56868 -0.73739 0.087191 -0.75855 -0.62431 -0.82797 0.39979 -0.31445 0.4165 1.3801 3.65 1.0065 0.92891 -0.59157 0.098898 -0.57141 -0.32251 -0.027871 -0.020106 0.22017 -0.69621 0.15183 0.35161 -0.19007 -0.15439 -0.59024 -0.16544 0.29957 -0.13177 0.071388
ethnic -0.33111 -0.65991 -0.39224 0.36107 0.84744 1.4241 0.27872 -0.30693 -1.1792 -0.29833 0.38681 -2.114 0.41104 -0.80644 0.39162 -0.28581 0.34854 -0.19694 1.0745 0.14845 -0.68051 0.48131 0.26679 0.85511 -0.27571 -0.72943 -0.72222 -0.92204 0.40182 0.28607 3.3207 0.40329 -0.84896 -0.51785 -0.31555 0.34001 -1.6559 -1.1848 -0.71563 1.189 -1.0504 0.63528 0.34995 -0.50873 0.23682 -0.29396 -0.4633 0.62681 -0.89229 -1.7823
representation -0.20719 0.11347 -0.49214 0.39233 1.4081 0.82689 1.1333 -0.61064 -0.20473 0.048441 0.38069 -0.57424 0.63459 -0.070283 -0.64948 -0.2235 0.58412 -0.29591 0.5911 -0.7849 0.22794 -0.28525 -0.3881 0.46859 -0.36201 -0.21102 -0.64189 -0.49785 -0.52665 0.46768 2.4874 -0.22922 -0.6919 -1.3096 0.055609 -0.2409 0.28794 -0.031702 -0.71991 -0.225 0.29945 -0.19948 -0.22336 0.55697 -1.7273 -0.11378 -0.14065 0.52961 0.80661 -0.27559
entertainment 0.15187 0.3633 -0.15752 1.7183 -0.036201 -0.6266 -0.82745 -1.4026 0.30428 0.93535 -0.09377 0.42817 -0.58424 0.70388 0.34788 0.35925 -0.063438 0.95047 -0.56722 -0.11368 1.5856 0.86903 -0.13039 0.73254 -0.97935 -0.089085 -1.1901 -0.15959 0.15745 -0.12398 2.6573 0.40352 0.6004 -0.60241 -0.85478 0.21268 -0.3709 -0.72046 -0.33718 -0.50779 0.60019 -0.0011334 -0.74018 0.36289 -0.49323 0.30096 -0.70062 -0.52201 -0.284 1.1457
industry -0.52915 -0.67793 0.015123 0.97008 -0.37311 -0.0070348 -1.0761 -0.90088 0.77681 0.40085 0.38089 0.28874 -0.060781 0.50261 0.35329 0.33612 0.30798 0.59823 0.54213 -0.97372 1.5111 -0.41307 -0.76211 -0.37469 0.02518 -1.4714 -0.83896 -0.35724 -0.026749 0.72309 3.521 -0.18569 0.67068 -0.052258 -0.66455 -0.29726 -0.97687 0.49211 0.53109 -0.087831 -0.85146 0.16847 0.30176 -0.017128 0.69863 0.23545 -0.89876 0.53365 0.20891 0.2713
2001 -0.20808 0.15543 0.43313 0.29175 -0.38998 0.2216 -0.96475 -0.57093 0.089177 0.03206 0.20457 -0.55757 -0.99732 -0.30656 1.34 -0.19643 -0.56457 0.013656 -1.055 0.81931 0.49625 -0.21102 0.56594 -0.27317 -0.8461 -1.2022 -0.27645 -0.48451 -0.63505 0.49525 2.6164 -0.2795 -0.28284 -0.41341 0.089042 -0.22273 0.41992 0.1093 -0.27387 -0.69286 -0.63294 -0.39295 0.078838 -0.82271 -0.64855 0.058628 -0.43451 -0.17567 0.022405 -0.19712
founded -0.10367 0.47765 -0.76437 -0.27793 -0.12207 0.026217 -1.4495 -0.68846 -0.43576 -0.15594 0.9492 0.31441 -0.31041 -0.50166 -0.28441 -0.2319 -0.15995 0.71832 -0.29315 1.1847 0.72227 -0.0076296 -0.35632 0.54718 -0.62013 -0.95285 -0.53873 -1.3422 -1.0291 0.3868 2.2367 -0.93821 -0.38727 -0.50337 -0.52789 -0.46681 -0.34497 0.32709 0.71062 0.5232 0.2363 -0.76443 -0.50437 -0.40581 -0.36858 0.45655 -1.0393 -1.2717 -0.52613 -0.016877
her 0.13403 0.89178 -0.76761 -0.64184 0.86204 1.3122 -0.64018 0.82067 0.32783 0.021457 -0.095194 0.40825 -0.63602 -0.018275 0.69708 -0.29531 -1.1912 -0.23897 0.34341 -0.33196 0.23702 1.8364 0.12295 -0.18624 0.86503 -2.636 -0.7791 0.203 0.18985 -0.79897 2.9882 0.44336 -0.28367 -0.19588 0.061875 0.38558 -0.027622 0.71847 0.17156 -1.2168 0.081636 0.17293 -0.31718 -0.37039 0.18977 -0.89175 0.18492 -1.6251 0.039134 -0.10279
own 0.27848 0.079579 -0.10584 -0.38162 0.46071 0.56455 -0.7193 -0.22662 0.12271 0.24965 -0.13608 0.65377 -0.63547 0.010398 0.056358 -0.12872 -0.033681 -0.1146 0.33459 -0.64033 0.41771 0.43189 -0.18595 -0.11354 0.080351 -1.7492 -1.037 -0.37701 0.38214 -0.24203 3.5389 0.46803 -0.41399 -0.5427 -0.21175 0.48245 -0.34914 0.15805 -0.2137 -0.50219 0.24979 -0.22019 -0.28683 0.43822 -0.34483 -0.0015556 -0.27295 -0.096195 -0.071975 -0.22772
production 0.35808 -0.52533 -0.080425 0.10165 -0.47567 0.53815 -0.6731 -1.0525 0.76994 1.1221 1.0075 0.26246 -0.29171 -0.23487 0.83308 0.18155 0.35651 0.97671 -0.47373 -0.88687 1.6075 -0.8328 0.025867 -0.7759 -0.28627 -0.51853 -0.42263 0.14499 0.6292 0.45936 3.5133 -0.35411 0.38744 -0.085173 0.30017 0.10935 -0.055825 0.70916 -0.032329 0.037709 -0.50488 0.13524 -0.10868 -1.8467 0.11001 0.062888 -0.049938 0.0070335 -0.74211 0.78561
company 0.62583 -0.57703 0.41163 0.86812 -0.083097 0.26555 -1.48 -0.38792 0.42727 0.1168 0.7839 0.81352 -0.78763 -0.6544 -0.099214 0.20658 -0.73315 0.86418 -0.26917 -0.93792 1.919 -0.17473 -0.61905 -0.5035 -0.9341 -1.6755 -0.79399 -0.32003 -0.067678 -0.12344 3.2909 -0.43151 0.3879 0.38733 -0.018419 -0.98191 -0.53189 0.39866 0.89452 -0.40963 0.58922 -0.52377 0.27893 -0.25766 -0.30457 -0.066305 -1.1221 0.21582 -0.15586 0.64018
producing 0.26517 -0.14691 0.26885 0.043854 -0.28419 0.83055 -0.46615 -0.70761 0.83596 1.3861 0.42383 -0.31198 0.35917 -0.11675 0.47673 -0.28563 0.4466 1.2885 -0.17008 -0.88354 0.72317 -0.58396 0.87426 -0.2471 -0.13532 -0.45781 -0.1236 0.15018 0.55178 0.0668 2.9536 -0.42062 0.39747 -0.3942 0.29684 0.51393 -0.45332 0.95677 -0.31406 0.070468 0.015771 -0.045477 -0.0062494 -0.77052 0.31193 0.35228 -0.29369 0.17051 -0.97966 -0.14734
short 0.08226 0.52026 -0.13314 -0.78449 -0.2366 0.58779 -0.4191 -0.39373 0.054773 0.012971 -0.62161 0.23175 -0.43722 0.499 0.39791 -0.28424 -0.051524 -0.32952 -0.88485 -0.35463 0.20174 -0.1279 0.61101 -0.31412 0.40172 -1.2991 -0.072569 0.61494 0.21407 0.032626 3.4835 -0.11963 0.45864 0.47906 0.22729 0.022899 0.22242 0.53241 -0.86963 -0.45325 -0.19527 0.35825 -0.08619 -0.0019633 -0.40885 -0.43347 0.66171 -0.022696 -0.34519 0.26502
film 0.06912 0.22159 -0.66613 -0.14061 0.063365 0.41747 -0.21723 -1.0401 0.026069 1.3382 -0.083642 0.66324 -0.45989 0.95883 1.3185 -0.62523 0.56153 0.65288 -1.2364 0.29692 1.238 0.80621 0.40967 0.39945 0.57983 -1.3658 -1.6764 0.069718 -0.59634 -0.63117 2.5894 -0.56915 0.46879 -0.9249 -0.44629 0.42283 0.17637 -0.014459 -0.75358 -0.9785 0.023075 1.2227 -0.17517 -1.5743 -0.9535 -0.10959 0.24517 -0.93551 -0.20943 0.67333
's 0.23727 0.40478 -0.20547 0.58805 0.65533 0.32867 -0.81964 -0.23236 0.27428 0.24265 0.054992 0.16296 -1.2555 -0.086437 0.44536 0.096561 -0.16519 0.058378 -0.38598 0.086977 0.0033869 0.55095 -0.77697 -0.62096 0.092948 -2.5685 -0.67739 0.10151 -0.48643 -0.057805 3.1859 -0.017554 -0.16138 0.055486 -0.25885 -0.33938 -0.19928 0.26049 0.10478 -0.55934 -0.12342 0.65961 -0.51802 -0.82995 -0.082739 0.28155 -0.423 -0.27378 -0.007901 -0.030231
for 0.15272 0.36181 -0.22168 0.066051 0.13029 0.37075 -0.75874 -0.44722 0.22563 0.10208 0.054225 0.13494 -0.43052 -0.2134 0.56139 -0.21445 0.077974 0.10137 -0.51306 -0.40295 0.40639 0.23309 0.20696 -0.12668 -0.50634 -1.7131 0.077183 -0.39138 -0.10594 -0.23743 3.9552 0.66596 -0.61841 -0.3268 0.37021 0.25764 0.38977 0.27121 0.043024 -0.34322 0.020339 0.2142 0.044097 0.14003 -0.20079 0.074794 -0.36076 0.43382 -0.084617 0.1214
festival 0.17065 1.2623 -2.1242 0.14221 -0.3333 -0.84285 -0.83376 -0.20529 0.60344 1.1898 -0.013218 -0.97553 0.7157 0.29146 0.84126 -0.29098 0.71692 0.20009 -1.7232 0.094415 1.7642 -0.43244 -0.15975 0.98804 -0.18872 -0.30919 -1.2829 -0.064791 -1.0656 -0.83344 2.3353 0.89541 -0.43822 -0.26197 -0.4558 -0.40602 0.58042 -0.017001 -0.34027 0.084437 -0.33856 0.14877 -1.2542 -1.2765 0.29295 0.6578 0.27177 -1.0808 -0.36989 0.019058
order 0.59594 0.027426 -0.37212 -0.43777 0.90033 -0.10551 0.3488 0.34644 0.11622 -0.46675 0.40657 1.0254 -0.072136 -0.12719 0.20944 0.22438 -0.32991 -0.89753 0.061887 -0.78079 0.55576 -0.72526 -0.32109 -0.090179 -0.49251 -1.4597 -0.19504 -1.1512 0.4673 0.13954 3.3605 0.096328 -1.2275 -0.45464 0.2279 0.2145 0.50552 -0.40703 -0.2411 0.15025 0.063791 -0.34117 0.22175 0.25812 -0.397 0.48599 -0.17694 -0.37738 0.18143 -0.27109
further 0.80098 -0.081569 0.04832 -0.35544 -0.455 0.25976 0.24341 0.34395 0.076992 -0.2199 0.090662 0.14281 -0.60038 -0.85329 0.1191 0.51099 0.023563 -1.1101 0.0073212 -0.33359 0.92229 -0.35138 0.30701 -0.60216 0.33895 -1.1713 0.20029 -0.17076 0.14416 0.49189 3.7796 0.22838 0.24394 -0.83413 -0.046216 -0.1401 -0.071935 -0.044768 -0.4761 -0.13331 -0.54621 -0.38734 0.32713 -0.42657 -0.0025027 -0.095912 0.24283 0.68612 0.11917 -0.34875
campaign 0.18605 -0.52757 0.1689 -0.20537 -0.69671 0.38071 -0.85097 -0.48986 0.20386 -0.49999 -1.6093 -0.78429 -0.61771 -0.52793 0.16998 -0.95378 0.047318 -0.21942 -0.090783 0.2105 0.20687 -0.26425 0.33384 -0.57424 -0.2762 -2.3502 -0.21173 -0.1509 0.15407 0.36454 2.6407 0.66609 -1.4985 -0.76757 -1.0709 0.049101 -0.76387 0.24441 -1.0476 -0.97318 -0.31209 0.20546 -1.0702 -0.43902 0.095622 -0.36801 -0.60426 0.079569 0.08343 0.46081
niece 0.64921 1.0824 -0.37714 -0.52423 0.85992 1.173 -0.49917 0.62601 -0.39527 -0.28115 -0.085819 0.79177 -0.039306 -0.38345 0.69961 -0.36064 -1.1219 -0.13003 0.74889 0.74821 -0.28196 1.0999 -0.37026 0.20918 0.71448 -1.3201 -0.51529 -0.54878 -0.093548 -0.0684 -0.085695 0.015073 -0.061573 0.50358 0.65985 0.077624 -0.32022 0.44208 0.39937 -0.3754 0.066006 0.69722 0.091393 -0.52 0.14379 -0.55694 -0.29798 -1.7896 0.30053 0.13736
who -0.19461 -0.051277 0.26445 -0.57399 1.0236 0.58923 -1.3399 0.31032 -0.89433 -0.13192 0.21305 0.29171 -0.66079 0.084125 0.76578 -0.42393 0.32445 0.13603 -0.29987 -0.046415 -0.74811 1.2134 0.24988 0.22846 0.23546 -2.6054 0.12491 -0.94028 -0.58308 -0.32325 2.8419 0.33474 -0.33902 -0.23434 0.37735 0.093804 -0.25969 0.68889 0.37689 -0.2186 -0.24244 1.0029 0.18607 0.27486 0.48089 -0.43533 -1.1012 -0.67103 -0.21652 -0.025891
also 0.352 0.25323 -0.097659 0.26108 0.12976 0.33684 -0.73076 -0.42641 -0.22795 -0.083619 0.52963 0.34644 -0.32824 -0.28667 0.24876 0.22053 0.019356 -0.015447 -0.18319 -0.29729 0.11739 -0.071214 0.41086 0.013912 -0.17424 -1.5839 -0.051961 -0.18115 -0.76375 -0.17817 3.749 -0.045559 0.10721 -0.51313 0.25279 -0.051714 0.31911 0.28 -0.19937 0.17819 0.018623 0.47641 -0.15655 -0.38287 0.26989 -0.011186 -0.7244 0.036514 -0.011489 -0.025882
were 0.73363 -0.74815 0.45913 -0.56041 0.091855 0.33015 -1.2034 -0.15565 -1.1205 -0.5938 0.23299 -0.46278 -0.34786 -0.47901 0.57621 -0.16053 -0.26457 -0.13732 -0.91878 -0.65339 0.05884 0.61553 1.2607 -0.39821 -0.26056 -1.0127 -0.38517 -0.096929 -0.11701 -0.48536 3.6902 0.30744 0.50713 -0.6537 0.80491 0.23672 0.61769 0.030195 -0.57645 0.60467 -0.63949 -0.11373 0.84984 0.41409 0.083774 -0.28737 -1.4735 -0.20095 -0.17246 -1.0984
patrons 0.24785 0.34515 -0.20129 -0.90274 0.57894 -0.62553 -0.45748 0.49306 -0.4519 0.49162 -0.29837 -0.20392 1.0006 0.28272 0.26126 -0.028823 0.1796 0.27366 0.086815 -1.1339 0.9903 0.36675 -0.49995 1.145 -0.44621 -0.55342 -0.30174 -0.36573 -0.16115 -0.27349 1.1548 1.0042 0.15324 -0.45978 0.012556 0.35251 -0.0065863 0.05128 -0.22797 0.089177 0.52343 0.41728 -0.086886 1.2437 0.21371 -0.23937 -0.89704 -0.85709 -0.20556 -0.25906
she 0.060382 0.37821 -0.75142 -0.72159 0.58648 0.79126 -0.72947 0.68248 -0.12999 -0.22988 0.11595 0.22427 -0.44679 -0.11515 1.0334 -0.088019 -0.78531 0.34305 -0.11457 -0.11905 0.45883 1.6333 0.68546 0.22308 1.0099 -2.6332 -0.52128 0.25665 0.023468 -0.82616 3.1084 0.27219 -0.29227 -0.47259 -0.12297 -0.13545 0.11192 0.86438 0.33121 -0.96616 -0.044785 -0.06674 0.0030367 -0.33905 0.017784 -0.58499 -0.005014 -1.257 -0.060723 0.42247
trained 0.43771 -0.73958 0.12275 -1.1466 0.11891 -0.43912 -0.80399 0.5446 0.018541 -0.4712 0.96008 0.051942 -0.022358 0.25711 -0.37339 -0.33304 0.45172 1.3534 -0.78091 -0.40605 -0.51032 0.99158 0.3443 0.36031 -0.15085 -1.5655 -0.3132 -1.2108 -0.73743 0.083283 1.8616 0.044435 -0.42668 -0.9375 0.86999 0.83407 0.063085 0.96116 -0.1358 -0.097297 0.17601 0.043733 0.51949 0.36973 1.1022 -0.83647 -0.36895 -0.3443 -0.91035 0.51517
performed 0.37507 0.055727 -1.1894 -0.58752 -0.52855 0.56694 -0.67384 0.52796 0.11074 0.66516 0.78674 0.12105 -0.11667 0.56226 0.33153 -0.43778 -0.039387 -0.14075 -0.75785 -0.43409 0.64261 0.56562 0.52038 -0.048349 0.27635 -0.20938 -1.1487 -0.61853 -0.79138 -0.86931 2.829 -0.16812 0.36433 -0.58635 0.41103 0.371 1.6462 0.39874 -0.39308 0.20952 -0.4735 -0.20673 -0.65032 -0.59985 0.060959 -0.59356 -0.062549 -1.0465 -1.0649 0.90862
received -0.054145 0.7298 0.0016229 -0.44068 0.15912 0.53178 -0.70194 0.15198 0.13031 0.16476 0.24064 -0.027987 0.44239 -0.7943 0.6058 -0.85314 -0.90057 -0.030576 -0.67777 -0.023208 0.61149 0.33867 0.53693 -0.93423 -0.35544 -1.595 -0.18236 -0.64329 -1.1814 -0.1561 2.7987 0.2176 -0.18034 -0.60257 0.53631 0.077195 0.83558 0.29713 0.20219 -0.41437 0.46622 0.40304 -0.26113 -0.25432 -0.74666 -0.5893 -0.72256 0.64339 -0.26776 0.13484
positive -0.0059413 0.40832 -0.18948 0.065421 0.74167 0.22779 0.24173 -0.30151 0.57019 1.4285 0.91254 -0.24819 -0.5144 -0.45145 0.65873 0.22534 0.069283 -0.63613 -0.37512 -0.71696 -0.26886 0.24897 0.85338 -0.034713 0.70211 -1.0485 -0.047045 0.49249 -0.32887 0.46197 3.1416 0.34515 0.50527 -1.2355 -0.0802 -1.2293 0.30693 0.54456 -0.76737 -0.41378 0.0023722 -0.36266 -0.22198 -0.10685 0.84275 -0.45616 0.14056 1.2755 0.63156 0.42812
reviews -0.6566 0.21749 -0.011594 -0.51513 -0.75638 -0.35941 -0.63249 -0.71178 0.57673 1.1085 -0.91024 -0.0093571 0.00061359 0.22406 0.70737 -1.2546 -0.36074 -0.85815 -0.13743 -0.57019 0.75477 0.62275 1.1783 0.15618 0.09476 -0.2314 -1.071 0.10883 -0.96228 0.08513 2.445 -0.46245 1.0393 -1.0539 0.13699 -0.17034 0.70524 0.2095 -0.59139 -0.96424 0.68525 0.2321 0.2237 -0.019374 -0.45837 0.51949 -0.11205 1.1678 -0.015746 0.99739
from 0.41037 0.11342 0.051524 -0.53833 -0.12913 0.22247 -0.9494 -0.18963 -0.36623 -0.067011 0.19356 -0.33044 0.11615 -0.58585 0.36106 0.12555 -0.3581 -0.023201 -1.2319 0.23383 0.71256 0.14824 0.50874 -0.12313 -0.20353 -1.82 0.22291 0.020291 -0.081743 -0.27481 3.7343 -0.01874 -0.084522 -0.30364 0.27959 0.043328 -0.24621 0.015373 0.49751 0.15108 -0.01619 0.40132 0.23067 -0.10743 -0.36625 -0.051135 0.041474 -0.36064 -0.19616 -0.81066
contemporary -0.58218 0.88358 -1.1715 -0.30961 0.098075 0.099865 -0.64788 -1.0695 -0.82092 1.0872 0.31196 -0.15933 0.30598 0.46817 -0.060339 -0.44523 0.17167 -0.13951 -0.21349 -0.060343 0.62362 0.65932 -0.54189 0.67774 0.55589 -0.43757 -1.9468 -0.64253 -0.34379 -0.073999 2.5497 -0.81383 0.87073 -1.1326 -0.2342 -0.095437 -0.19967 0.2708 -0.91324 0.27728 0.72878 -0.030478 0.55308 -0.19065 0.059677 0.84018 -0.0011548 -0.13171 -0.62839 -0.11001
critics -0.43596 -0.44217 0.25668 -0.83746 -0.77858 0.13541 -0.22796 -0.16042 -0.55356 1.4138 -0.75025 -0.061766 0.020103 0.19154 0.28261 -0.40356 0.76164 -0.59595 0.014889 -0.61042 0.11018 0.23968 0.31386 -0.17117 0.30315 -2.1549 -1.0819 0.088324 -0.90376 -0.22457 2.2606 -0.10933 0.44474 -1.4117 -0.92978 -0.60401 -0.016917 -0.19479 -1.0516 -0.80601 -0.054464 0.73898 0.0075762 0.3017 0.087256 0.3126 -1.1068 0.9059 -0.16397 -0.041912
declared 0.1529 -0.52317 -0.030243 -0.063635 0.23444 -0.094194 -0.40907 0.54402 -0.23609 -0.41929 0.14897 -0.30258 -0.15822 -0.29776 0.68314 0.26843 -0.088099 -0.37293 -0.1026 0.68582 -0.6435 -0.045742 0.28639 -0.42521 -0.16561 -1.8022 0.066681 0.080905 -0.17292 0.56799 2.0784 -0.49612 -1.2116 -0.49334 -0.41065 -0.54153 0.85086 -0.1734 -0.63759 -0.18099 -0.65717 0.019519 -0.24724 -0.42744 -0.82251 0.35154 -1.7094 -0.10769 0.17986 -0.10646
track -0.5766 0.69654 0.49146 0.38409 -1.0432 -0.12099 -0.90199 0.2188 0.75566 -0.045751 0.15682 -0.28909 -1.0413 0.36776 0.32386 -0.059158 0.40947 0.44467 -0.33767 -1.1014 0.088749 -0.030303 0.081839 0.70906 0.62805 -1.0229 -0.3072 0.37111 0.13485 -0.45636 3.1465 -0.38698 -0.071594 -0.11769 0.3742 -0.13576 0.85811 0.15304 -0.74506 -0.53697 -0.30526 -0.77774 -0.093377 -0.059172 -0.14357 -0.70415 0.68059 -0.56472 -0.011936 -0.11661
strongest -0.33316 -0.048549 0.252 0.42518 0.3728 0.12248 0.26777 0.34904 -0.19781 0.74482 0.11897 -0.81014 0.018787 0.33063 -0.27682 -0.4008 0.17037 -0.29498 -0.60015 -0.32108 -0.84702 -0.5298 -0.23455 -0.29976 -0.017373 -1.0328 -0.79779 -0.045599 -0.087225 0.6676 2.2617 0.39279 0.50855 -0.73124 -0.1735 -0.53341 -0.18363 -0.24417 -1.2562 -0.85256 -0.51154 0.024448 -0.25273 -0.43284 0.25181 0.46874 -0.59061 0.58656 -0.050504 0.15735
song -0.9166 0.76511 -0.66093 -0.023052 -0.30395 0.43062 -0.68179 0.22567 -0.24149 1.4429 0.32787 0.63891 -0.17775 0.30394 0.69253 -0.55565 0.0094356 -0.38895 -0.097069 -0.11433 0.046024 0.43038 1.1194 0.50138 1.3218 -0.62171 -1.7675 0.10778 -0.28412 -1.1248 3.2459 -0.91298 0.35381 0.75976 -0.081547 -0.43563 1.1399 -0.73743 -0.87067 -0.58185 0.11249 -0.19434 -1.174 -1.6072 0.2563 -0.39698 0.02561 -1.2757 -0.54513 0.37287
on 0.30045 0.25006 -0.16692 0.1923 0.026921 -0.079486 -0.91383 -0.1974 -0.053413 -0.40846 -0.26844 -0.28212 -0.5 0.1221 0.3903 0.17797 -0.4429 -0.40478 -0.9505 -0.16897 0.77793 0.33525 0.3346 -0.1754 -0.12017 -1.7861 0.29241 0.55933 0.029982 -0.32417 3.9297 0.1088 -0.57335 -0.17842 0.0041748 -0.16309 0.45077 -0.16123 -0.17311 -0.087889 -0.089032 0.062001 -0.19946 -0.38863 -0.18232 0.060751 0.098603 -0.07131 0.23052 -0.51939
a 0.21705 0.46515 -0.46757 0.10082 1.0135 0.74845 -0.53104 -0.26256 0.16812 0.13182 -0.24909 -0.44185 -0.21739 0.51004 0.13448 -0.43141 -0.03123 0.20674 -0.78138 -0.20148 -0.097401 0.16088 -0.61836 -0.18504 -0.12461 -2.2526 -0.22321 0.5043 0.32257 0.15313 3.9636 -0.71365 -0.67012 0.28388 0.21738 0.14433 0.25926 0.23434 0.4274 -0.44451 0.13813 0.36973 -0.64289 0.024142 -0.039315 -0.26037 0.12017 -0.043782 0.41013 0.1796
demonstrates 0.13189 0.16267 -0.61912 0.12865 0.63328 -0.0674 0.72321 -0.078301 0.66775 0.74315 0.14747 -0.010172 -0.31126 -0.5227 -0.082864 0.0035634 0.26692 -0.059985 0.49834 -0.093133 -0.034484 0.20492 -0.42113 -0.5721 0.88893 -0.76669 -0.78241 0.095203 0.23309 0.074963 1.15 0.020735 -0.088308 -1.0715 -0.28048 -0.4644 -0.29998 0.21086 -0.75059 -0.38818 -0.087883 -0.51076 -0.27 -0.21211 -0.0054333 0.0091972 0.41886 0.93638 -0.15381 0.40598
influence 0.049016 0.10807 -0.68528 -0.59994 0.21985 0.45658 0.35681 0.16825 -0.50199 0.97609 0.50565 0.61737 -0.15835 -0.21853 -0.52359 0.30294 0.41257 -0.65539 0.38405 -0.32176 0.35391 -0.3305 -0.079139 -0.1394 0.013261 -1.9856 -1.1093 -0.62688 0.033888 0.76465 2.6771 0.17514 0.25776 -1.6085 -0.36065 -0.31746 -1.4575 0.14075 -0.7438 0.28237 -0.27751 0.58816 -0.24603 0.13851 -0.16518 -0.089261 -0.32016 0.019058 -0.44417 -0.60475
glam -1.3669 -0.16315 -0.60145 -0.32176 -1.117 0.20155 0.30801 -0.13782 -1.1696 1.6739 0.63246 -0.70257 -0.024275 1.0301 0.38849 0.71295 0.81791 0.27098 0.21837 -0.016415 -0.0050936 0.42046 -0.63995 0.69091 -1.2439 -0.077657 -1.6451 0.61967 0.063661 -0.040539 0.16856 -0.92858 0.31374 0.45421 -0.32705 0.28648 0.22091 -1.1493 -0.11137 -0.64946 0.015035 0.51296 -0.14159 -0.23342 0.33162 -0.8434 0.038297 -1.0178 -0.9767 -0.43265
rock -0.6467 0.98998 -0.14379 -0.0030598 -0.65467 0.34059 -1.2852 0.11048 -0.49889 1.2157 -0.095013 -0.34539 0.24915 0.97027 -0.35134 0.16942 1.2763 0.17731 -0.90689 -0.48622 -0.022703 0.50465 0.12796 0.68351 -0.082664 -0.37146 -1.7035 0.61838 0.23596 -0.48299 3.1793 -1.5458 0.38759 0.19475 0.056217 0.023157 0.20685 -1.3984 0.29874 -0.59099 -0.097955 -0.075545 -0.7386 -0.3112 0.40171 -0.093312 -0.10007 -1.2259 -0.79443 -0.4614
directed 0.23988 -0.36074 -0.31082 -0.28242 -0.15468 0.63703 -0.0089707 -0.9758 -0.33153 0.35403 -0.19501 1.0461 -0.94467 0.48464 0.72593 -0.84282 0.99884 0.21718 -0.68679 0.20334 0.96364 0.63489 0.56652 0.010921 0.40589 -0.95682 -0.10436 -0.42622 -0.81248 -0.38794 2.0795 -0.72079 0.16201 -1.1967 -0.56031 0.4743 0.28283 -0.43966 -0.51532 0.24924 0.050044 1.475 -0.27937 -1.5964 -0.24108 -0.29403 -0.12705 -0.76277 -0.36353 1.0236
documentary 0.14329 0.82677 -0.62576 0.21436 -0.12466 0.51419 -0.55183 -0.75644 0.80694 0.83883 -0.59599 -0.13699 -0.35684 1.1898 1.0858 -0.93831 0.38014 0.31825 -0.90637 0.53891 1.0755 1.3849 0.46602 0.21062 0.68374 -0.78348 -1.6574 0.073912 -0.29202 -0.13385 1.6995 -0.69517 -0.20653 -1.2306 -0.65197 0.6238 0.27659 -0.1262 -0.839 -0.49909 0.31168 0.49847 -0.37719 -0.82094 -0.53088 -0.16751 0.25949 0.049949 -0.38922 0.48096
( -0.24978 1.0476 0.21602 0.23278 0.12371 0.2761 0.51184 -1.36 -0.6902 -0.66679 0.49105 0.51671 -0.027218 -0.52056 0.49539 -0.097307 0.12779 0.44388 -1.2612 0.66209 -0.55461 -0.43498 0.81247 0.40855 -0.094327 -0.622 0.36498 -1.0038 -0.77693 -0.22408 3.6533 -0.52004 -0.57384 0.72381 -0.24887 -0.14347 0.69169 -0.51861 1.0806 0.20382 1.1045 0.31045 0.60765 -0.64538 -0.60249 0.60803 0.34393 -0.79411 0.15177 0.45779
1972 -0.95028 0.44669 -0.59466 -0.083077 -0.85908 0.5948 -0.78597 -0.51968 -0.33109 -0.40816 0.39593 -0.1996 -0.58366 -0.060241 0.67092 -0.35635 -0.22396 0.6657 -1.2615 0.92944 0.60576 0.050329 0.34597 -0.36046 -0.34344 -1.2014 -0.096948 -0.54188 -0.32705 0.22635 1.7553 -0.78572 -0.9535 -0.60507 -0.11061 0.0015253 0.67615 0.29881 -0.20628 -0.15334 -0.62306 -0.62909 0.002715 -0.73523 -0.93219 0.38668 -0.35853 -0.6611 -0.59611 -0.11629
) -0.28314 1.0028 0.14746 0.22262 0.0070985 0.23108 0.57082 -1.2767 -0.72415 -0.7527 0.52624 0.39498 0.0018922 -0.39396 0.44859 -0.019057 0.068143 0.45082 -1.2849 0.68088 -0.48318 -0.45829 0.85504 0.47712 -0.16152 -0.74784 0.40742 -0.97385 -0.7258 -0.17232 3.8901 -0.46535 -0.61925 0.63584 -0.20339 -0.080612 0.64959 -0.51208 0.91193 0.036208 1.0099 0.18802 0.59359 -0.61313 -0.66839 0.67479 0.40625 -0.6959 0.14553 0.37339
about 0.89466 0.36604 0.37588 -0.41818 0.58462 0.18594 -0.41907 -0.46621 -0.54903 0.02477 -0.90816 -0.48271 -0.050742 -0.74039 1.4377 -0.01974 -0.2384 0.43154 -0.6612 -0.41275 0.25475 0.93498 0.81404 -0.17296 0.61296 -1.8475 -0.27616 0.27701 0.42347 -0.11599 3.6243 0.12306 -0.023526 -0.24843 -0.22376 -0.53941 -0.62444 -0.27711 0.49406 0.020234 -0.2346 0.44512 0.53397 0.66654 -0.093662 -0.035203 -0.064194 0.55998 -0.66593 0.12177
band -0.77245 0.21817 -0.40049 -0.52816 -0.46087 0.58611 -1.5542 0.54177 -0.28788 0.92261 1.0989 0.25979 -0.32883 0.79634 -0.23009 -0.22104 0.45758 0.01364 -0.63597 -0.60617 -0.084844 0.2725 0.39152 0.63984 -0.49816 -0.17932 -1.418 -0.029052 -0.074864 -0.60293 3.0585 -0.84752 0.10378 -0.15262 0.023318 0.095483 0.73301 -1.6128 -0.075601 -0.68264 0.075109 -0.56855 -1.6178 -1.0405 0.36042 -0.37588 0.027557 -1.2064 -1.3964 0.16595
around 0.77604 0.22584 0.45044 -0.70814 0.14959 -0.76201 -0.59769 -0.37123 -0.49107 -0.81828 -0.61185 -0.96962 -0.02998 -0.26391 0.69513 0.38294 0.067117 0.42452 -1.2652 -0.54603 0.65743 0.30119 0.63752 0.40919 0.29723 -1.1203 0.1117 0.49074 0.43661 -0.40743 3.6976 0.3907 0.10636 -0.035762 -0.4579 0.19091 -0.38336 0.060834 0.20348 0.60765 -0.19867 0.21351 0.31352 0.472 -0.23803 -0.12381 0.43955 -0.97437 -0.78565 -0.8177
this 0.53074 0.40117 -0.40785 0.15444 0.47782 0.20754 -0.26951 -0.34023 -0.10879 0.10563 -0.10289 0.10849 -0.49681 -0.25128 0.84025 0.38949 0.32284 -0.22797 -0.44342 -0.31649 -0.12406 -0.2817 0.19467 0.055513 0.56705 -1.7419 -0.91145 0.27036 0.41927 0.020279 4.0405 -0.24943 -0.20416 -0.62762 -0.054783 -0.26883 0.18444 0.18204 -0.23536 -0.16155 -0.27655 0.035506 -0.38211 -0.00075134 -0.24822 0.28164 0.12819 0.28762 0.1444 0.23611
time 0.02648 0.33737 0.065667 -0.11609 0.41651 -0.21142 -0.69582 0.2822 -0.36077 -0.13822 0.012094 0.086227 -0.84638 0.057195 1.1582 0.14703 -0.0049197 -0.24899 -0.96014 -0.3038 0.23972 0.21058 0.40608 0.17789 0.55253 -1.6357 -0.17784 -0.45222 0.45805 0.14239 3.7087 0.40289 -0.4083 -0.29304 0.030857 -0.15361 0.10607 0.63397 0.12397 -0.25349 -0.10344 0.0069768 -0.17328 0.35536 -0.46369 0.15285 0.41475 -0.3398 -0.23043 0.19069
accidentally 0.45683 -1.0785 0.8937 -0.45628 0.59431 1.0618 -0.74423 0.86275 0.3981 -0.35863 0.47304 0.28156 -0.3079 0.47247 0.36317 -0.093063 -0.67941 0.26734 -0.8386 -0.077347 0.11632 0.62658 0.495 -0.0082906 1.0774 -1.72 0.54155 0.72296 1.0875 -0.83966 0.96496 -0.77504 0.010311 -0.04748 -0.09244 0.9633 0.25055 -0.20653 0.37318 -0.04512 0.31155 0.34786 -0.08539 -0.25533 0.68992 -0.47065 0.28727 -0.6808 0.38498 -0.62126
swears 0.054743 -0.42783 -0.098514 -0.25558 0.89139 0.031346 0.59467 0.72735 -0.47593 0.46452 -0.18309 0.64925 -0.12205 -0.25984 0.3684 0.66458 -0.25695 0.096857 0.70303 0.16681 -0.13596 0.72691 0.12617 -0.021564 0.32208 -0.85956 -0.0089083 -0.050352 0.4621 -0.20528 -0.68778 0.85306 -1.2136 0.48825 -0.18279 -0.078566 -0.15811 -0.50884 -0.012881 -0.71052 0.14871 0.35376 -0.81359 -0.20341 -0.10865 0.20644 -0.30458 -0.39366 0.22146 -0.11162
again -0.11008 -0.42842 0.023023 -0.66241 -0.011844 -0.21112 -0.77791 0.82479 -0.70825 -0.22962 0.14064 0.30398 -1.1173 -0.18641 0.82667 0.44993 -0.11678 -0.47856 -0.94898 -0.14977 0.19157 0.10528 0.66893 0.02207 0.52699 -1.9035 0.18775 0.26756 0.48347 -0.28322 3.1586 0.44772 -0.34549 -0.31892 -0.16631 -0.22289 0.26832 0.4367 -0.20443 -0.61761 -0.41918 -0.22599 -0.47885 -0.40102 -0.37106 0.24178 0.1351 -0.81978 -0.041543 -0.30139
filed -0.018111 -0.48998 0.039832 1.223 -0.064751 0.97506 -0.65473 0.59848 0.19106 -0.46486 -0.54645 -0.10028 -0.23217 -0.55799 1.0629 -0.54729 -1.4316 -0.92281 0.40787 -0.61326 0.9322 0.30581 -0.26139 -0.39321 -1.2954 -1.8117 0.012267 -0.49196 -0.86876 -0.76876 1.7949 -1.0667 -0.40497 -0.47038 -0.19908 -0.93827 0.43171 -1.1943 0.63 -0.51395 0.050097 0.053083 0.25257 0.67521 -0.47057 -0.28903 -1.139 0.21274 -0.12432 -0.024222
lawsuit -0.016271 -0.664 -0.22183 1.3369 -0.20519 1.3465 -0.11196 0.44394 0.28561 0.37982 -0.65144 -0.12123 -0.39203 -1.0456 1.127 -0.2833 -0.67128 -0.45487 0.06822 -0.59843 0.62778 0.23048 -0.6906 -0.56102 -1.0149 -2.2269 0.15834 -0.4235 -0.26522 -0.62782 1.6591 -1.0009 -0.55684 -0.66797 -0.49392 -0.89614 0.12549 -1.2193 0.4744 -1.1634 -0.0099581 -0.15623 0.16686 0.8356 -0.21898 -0.26173 -0.85172 0.43744 -0.22247 0.32263
against -0.61258 -0.81097 -0.18426 0.33997 -0.22861 0.53968 0.29663 0.51186 -0.80497 0.12117 -0.34306 -0.35708 -1.1692 -0.90632 0.1854 -0.43402 0.2754 -0.92921 -1.2241 0.50564 -0.46115 -0.15904 0.32354 -0.38564 -1.0403 -2.6112 0.84161 -0.59595 0.28015 -0.24324 3.2053 0.64918 -0.45331 -0.42506 -0.19658 -0.018363 -0.045932 -0.11967 -0.64881 -0.75525 -0.14162 0.088434 0.41846 0.14613 0.39816 0.52819 -0.795 0.014036 0.17373 -0.67675
unlawful 0.075836 -0.86536 -0.84114 0.41179 0.32782 0.58073 1.3569 0.3288 0.85609 0.49565 0.11208 0.1002 0.31469 -0.48606 0.5505 -0.91951 -0.13615 -0.30918 -0.27971 -0.020974 0.58818 0.088553 0.07749 -0.028622 -0.84304 -1.0565 0.81278 -0.85113 1.6825 0.39779 1.2635 -0.51703 -1.0773 -0.92412 -0.20308 -0.012293 0.76948 -0.96398 -1.1129 0.79038 -0.060816 -0.50871 0.65061 1.4941 -0.26111 -1.6772 -0.88571 0.32648 0.76262 0.58367
termination 0.55913 0.068037 -0.639 0.19611 -0.54209 1.2341 0.55065 0.8048 0.50966 0.29562 0.29379 0.3162 0.36624 -0.72122 0.43378 -0.024235 -1.0045 -0.66835 0.14511 -0.015781 0.30821 -0.62277 -0.71789 -0.3024 -0.459 -0.56073 0.1668 -0.45856 0.57738 0.13489 1.3577 -0.17251 -0.39705 0.26238 0.17721 -0.60835 1.0706 -1.4564 0.11167 -0.057148 -0.039345 -0.54528 -0.50898 1.0061 -0.65895 -0.9236 0.47881 1.0399 -0.34547 0.66012
employment -0.73268 -0.16814 -0.021392 -0.44703 0.43612 0.062936 -0.84959 -0.37469 0.48222 -0.50184 0.48781 -0.5912 0.42833 -0.83294 0.77424 -0.028964 -0.22436 -0.47664 1.2367 -0.53144 0.74971 -0.093846 -0.88798 -0.18677 -0.21976 -0.27755 0.31697 -0.70994 0.36289 1.328 2.9527 0.24721 0.30495 -1.168 -0.16541 -0.2128 -0.42573 0.0086532 0.3659 -0.52441 -0.93096 -0.75345 0.54979 -0.0083313 -0.10104 -1.2601 -0.044719 0.79673 0.58669 0.95154
first -0.14168 0.41108 -0.31227 0.16633 0.26124 0.45708 -1.2001 0.014923 -0.22779 -0.16937 0.34633 -0.12419 -0.65711 0.29226 0.62407 -0.57916 -0.33947 -0.22046 -1.4832 0.28958 0.081396 -0.21696 0.0056613 -0.054199 0.098504 -1.5874 -0.22867 -0.62957 -0.39542 -0.080841 3.5949 -0.16872 -0.39024 0.026912 0.52646 -0.022844 0.63289 0.62702 -0.22171 -0.45045 -0.14998 -0.27723 -0.46658 -0.44268 -0.43691 0.38455 0.1369 -0.25424 0.017821 -0.1489
demanded 0.24615 -0.41474 0.15382 -0.58346 0.14883 -0.037797 0.15672 0.81223 -0.45846 -0.035254 -0.10477 -0.30973 0.044098 -0.36805 0.50245 0.13694 -0.020409 -0.57523 0.76941 -0.50267 0.54606 0.44519 -0.17597 -0.6223 -0.35407 -1.7256 0.44438 -0.17733 -0.41983 0.05842 2.2626 -0.089085 -1.2338 0.12578 -0.081519 -0.39307 0.62588 -0.79809 -0.50031 0.076004 0.12533 0.23803 0.23064 -0.21544 -0.0063414 -0.78713 -1.115 1.0645 -0.12411 -0.39685
tribute -0.10753 1.5178 -0.58848 -0.3005 0.23487 0.0050341 -0.73805 0.41913 -0.21133 0.62513 -0.4199 0.40428 0.072256 -0.12075 0.75693 -0.77359 -0.2063 -0.075456 -0.07446 -0.40298 -0.038721 0.66084 -0.42799 -0.89542 0.4568 -0.56926 -1.2915 -0.29695 -0.28979 0.0090872 1.7133 0.28519 -0.23045 0.27511 -0.11145 0.47344 0.84634 -0.52896 -0.8248 -0.43952 0.20548 0.35905 -1.1046 -0.89961 0.13289 0.12032 -0.93016 -0.47668 -1.0991 -0.028488
1271 -0.26254 -0.27692 -0.41988 0.1506 -1.092 -0.39024 0.9707 -0.36636 -0.70922 -0.19197 -0.61148 0.098885 0.39627 -1.1579 0.33675 -0.14231 -0.82474 -0.001567 -0.36517 1.4742 0.422 -1.5126 1.1844 -0.59381 0.56843 0.13637 0.46417 -0.77805 0.063433 0.32106 -0.37588 -0.65516 -0.48329 1.1892 0.15358 -0.17633 0.31247 1.4385 -0.33879 1.0147 -0.11081 -0.40627 -0.32727 0.75071 -0.53325 -0.24408 0.45381 -1.2391 -0.024109 -0.33526
– -0.40021 1.1588 -0.2725 -0.30557 -0.46696 0.86918 -0.19708 -0.44243 -1.4547 -0.61888 0.5152 -0.020313 -0.59574 -1.0868 0.27791 -0.57716 0.035757 0.094733 -2.0245 1.1334 0.0014826 -1.1038 1.0638 0.53233 -0.098775 -0.68183 0.011563 -1.0107 -0.060055 0.44082 2.8185 -0.74337 -0.28635 -0.59679 0.48103 -0.38556 0.81596 1.0313 0.29824 0.50702 0.48308 -0.66891 -0.11014 -0.56998 -1.1782 0.84289 0.23318 -1.1728 0.085665 0.10832
72 -0.25178 0.45536 1.2622 -0.12877 0.078811 0.25175 -0.31659 -0.31626 -0.15596 0.18529 -0.49211 -1.1015 -0.36173 0.030794 0.17586 -0.76182 -0.2236 -0.075432 -1.0614 0.2315 -0.6201 1.0008 1.0336 -0.36595 -0.24064 -0.16359 0.44599 -0.40212 -0.36755 0.11367 2.2107 -0.11062 0.1921 1.0131 0.88326 -0.92861 0.79193 0.55483 0.54026 0.099433 -0.33539 -0.25129 1.2962 0.24369 -0.70333 0.68266 -0.88723 -0.23816 0.17479 0.14196
part 0.70504 0.18255 -0.75188 0.0039397 -0.053423 0.29625 -0.42377 -0.013111 0.16573 -0.43932 0.07506 -0.16262 -0.26635 -0.40453 -0.098246 0.14215 0.34546 0.3634 -0.40502 0.3591 0.37462 -0.33984 -0.24689 0.33546 -0.36193 -1.7587 -0.72343 0.14269 -0.099759 -0.16071 3.6203 -0.25283 -0.24719 -0.53168 -0.050993 0.017225 -0.12073 -0.021644 -0.36179 -0.086212 -0.32108 -0.16623 -0.2044 -0.46124 -0.85036 0.16189 -0.14281 -0.13137 -0.41208 -0.092147
drive 0.021706 -0.031553 1.2017 -0.33133 -0.43952 -0.091586 -0.94755 -0.4564 0.59854 0.5455 -0.87627 -0.51095 -0.88343 -0.31626 -0.51718 -0.044612 0.3896 0.36602 -0.13686 -0.65133 0.078033 -0.2325 -1.1512 0.2373 0.27838 -1.513 0.48321 -0.10623 1.1215 -0.45096 2.9153 0.18543 -0.85901 0.33001 0.5974 0.11189 -0.099407 -0.15986 -0.17952 -0.097396 -0.10677 0.16816 -0.72836 -0.16249 -0.23042 0.18382 0.74292 -0.63151 0.12095 -0.11623
encircle 1.2085 -0.88127 0.7361 -0.26974 0.009312 -0.5359 0.4683 0.86173 -0.74964 -0.49701 -0.20646 -0.44418 0.26081 0.21348 -1.1222 0.75115 1.0025 -0.14113 0.17564 0.12204 0.17367 -0.68634 -0.32242 0.05379 -0.32827 -0.0071613 -0.088921 0.11581 0.90212 -1.4029 0.037624 0.21171 -0.56541 -0.16593 -0.65696 0.80387 -0.47595 -0.084032 -0.30572 0.045374 0.23628 -0.53807 0.60116 -0.54899 0.24292 -0.15119 0.23329 -0.68662 -0.28374 -0.62758
dynasty -0.15775 0.046114 -0.40103 0.93723 0.3144 -0.81451 0.16002 0.2194 -1.637 -0.52037 -0.23417 0.77015 -0.18089 0.013439 -0.011276 0.2566 -0.87913 -0.42336 0.17112 1.664 -0.1754 -1.6394 -0.0029813 -0.77398 0.64952 -1.1382 -1.8623 -1.5527 -0.50808 0.13619 1.8238 -1.3485 0.39317 1.3953 0.4387 0.19407 -0.60824 1.0189 -1.04 0.86608 -0.98193 -0.081997 -0.5814 0.74298 -0.41989 -0.012208 -0.38493 -1.6601 -1.0619 -1.2859
originally 0.39412 0.17873 -0.21449 -0.22319 -0.012222 0.49202 -1.2514 -0.50971 -0.50093 -0.41025 0.22244 0.28108 0.18738 -0.15194 0.308 0.16518 -0.19439 0.40343 -0.77432 0.13808 0.46411 -0.43263 0.11902 0.31906 -0.2308 -0.95852 -0.31232 0.027761 -0.43675 -0.41435 2.758 -1.3052 -0.039308 -0.39566 0.40152 -0.056871 0.91734 -0.063019 -0.55171 0.0027279 0.14853 -0.39083 -0.33635 -0.40341 -0.60666 0.0046943 -0.49593 -0.78026 -0.34293 0.0017581
aired 0.18586 0.21172 -0.13257 1.0059 -0.35038 0.41394 -0.94647 -0.37441 -0.22778 -0.026361 -0.4518 -0.32391 -0.25614 1.0739 1.2784 -0.2174 -1.4976 0.29682 -1.2304 1.128 1.4036 0.6093 2.2268 1.1499 -0.10624 -0.41114 -0.41445 0.59225 0.046239 0.042988 1.9318 0.20838 0.063329 -0.71094 -0.73065 -0.042005 0.62484 -0.7067 -1.6955 -0.40012 0.2427 -0.012281 -1.3498 -0.84655 -0.84411 0.0091641 -0.38434 0.12566 -0.13918 0.77829
network 0.94202 0.32452 1.3349 1.2618 -0.60987 0.17688 -0.98035 -0.94766 0.94922 0.018239 0.43821 0.032159 -0.61533 0.96995 -0.53302 0.30519 -0.59687 0.8847 -0.042054 0.63582 0.78829 0.15285 0.1341 1.3646 -0.4106 -1.1363 -0.067727 -0.30198 0.20933 -0.11849 3.4181 0.40527 0.31088 -0.93624 -0.9202 0.27555 -0.31572 -0.38106 -0.69214 0.084005 0.7193 0.048203 -0.61741 0.39509 -0.64324 -0.1699 -0.59826 0.25268 -0.18159 0.58189
4 -0.35209 0.82956 0.80144 0.48082 0.46673 0.63659 -0.26424 -0.30305 -0.72852 -0.52154 -0.17715 -0.53938 -0.23303 -0.26814 0.72069 -0.66766 -0.60444 -0.2251 -1.681 0.42743 0.38901 -0.6295 1.3271 0.37583 -0.58972 -0.40539 0.90764 -0.61069 0.37251 -0.34913 3.4705 0.1807 -0.35839 0.65343 0.35501 -0.37921 0.69662 0.25318 0.66238 -0.4278 0.34738 -0.56578 0.6209 -1.1136 -0.50829 1.1522 0.15462 -0.84043 0.37147 0.44275
2012 -0.66285 0.77312 0.0097657 0.5739 -0.61578 0.16859 -1.1578 -0.35501 0.2507 -0.1666 0.76235 -0.24595 -0.52504 -0.10052 1.1672 -0.093335 -0.070071 0.31558 -1.2893 0.38349 0.79752 -0.60922 0.56834 0.37517 -0.56518 -0.59131 0.058874 -0.53764 -1.1302 0.12728 2.548 0.11493 -0.61045 -0.83878 0.012946 -0.088662 1.0397 0.26223 -0.45004 -1.0377 -0.31869 -0.7796 -0.8059 -1.2899 -0.98714 0.16393 -0.1698 -0.44642 0.24022 0.40364
organized 0.25492 -0.22538 -0.97374 -0.2037 0.00015641 -0.25323 -0.47834 -0.3014 -0.055734 -0.58523 -0.20296 -0.58009 -0.313 0.22255 0.098111 -1.1074 0.3617 0.3121 -0.098455 -0.027228 0.79251 -0.38732 0.099861 0.63185 -0.79187 -1.0496 -0.16888 -0.88343 -0.50433 -0.0085831 2.5334 0.12988 -0.78313 -1.4829 -0.93478 0.2457 -0.31104 0.17165 -0.61998 0.63804 -0.60855 -0.53892 -0.25668 -0.031549 0.52366 -0.31836 -0.67914 -0.38751 -0.25549 0.037615
expedition 1.2139 0.38666 -0.071216 -0.29753 -0.63445 -0.36274 -2.0751 0.37117 0.49874 -1.4763 0.34266 0.46008 0.23405 -0.076365 -0.34812 -0.89835 0.67813 0.0030223 -1.9097 0.33814 0.28041 -0.16116 0.26079 -0.73011 1.0771 -0.68431 -0.98361 -0.95436 -0.095287 0.67039 0.89029 -0.64805 -1.5898 -0.28574 0.48939 -0.035216 -0.9655 0.68635 -0.46823 0.22288 -0.17257 -0.61647 0.57331 -0.97894 -0.82437 -0.78624 0.48335 -0.23655 0.1676 -0.58402
early 0.35948 -0.16637 -0.30288 -0.55095 -0.49135 0.048866 -1.6003 0.19451 -0.80288 0.157 0.14782 -0.45813 -0.30852 0.03055 0.38079 0.16768 -0.74477 -0.88759 -1.1255 0.28654 0.37413 -0.053585 0.019005 -0.30474 0.30998 -1.3004 -0.56797 -0.50119 0.031763 0.58832 3.692 -0.56015 -0.043986 -0.4513 0.49902 -0.13698 0.033691 0.40458 -0.16825 0.033614 -0.66019 -0.070503 -0.39145 -0.11031 0.27384 0.25301 0.3471 -0.31089 -0.32557 -0.51921
1776 -0.067288 -0.21944 -0.81968 -1.0622 -0.011089 -0.0637 -0.80775 0.23544 -1.0451 -1.1178 -0.11807 0.12668 0.4074 -0.48379 -0.41892 -0.59832 -0.88019 -0.51071 -1.0905 0.71623 0.55677 -0.6754 0.43178 -0.36248 -0.29275 -0.098392 -0.44458 -0.75226 0.60478 0.56677 0.056238 -0.94939 -1.5245 -0.24331 0.14417 -1.0073 -0.27403 -0.019287 -0.10622 0.44417 -0.034202 -0.99307 0.12004 -0.78144 -1.1766 0.82475 -0.00987 -0.93882 -0.59947 0.082735
operations 1.1591 -1.1999 0.072653 0.58819 -0.29679 -0.51001 -0.49371 0.017692 1.0616 -1.0094 0.52709 0.2727 -0.84104 0.093769 -0.7347 -0.15335 -0.098236 0.4887 -0.64312 0.22995 1.0776 -0.26086 -0.24341 -0.62283 -1.2898 -1.1614 -0.060444 -0.5854 0.83077 0.38283 3.4401 -0.045679 -0.28183 -0.34913 0.10207 0.426 -0.40933 -0.19524 -0.054891 0.66443 -0.49009 -0.23305 0.44956 -0.70954 -0.093103 -0.57026 -0.17424 0.5907 -0.54211 0.99565
rebellious -0.216 -0.91495 -0.60678 -0.92425 0.39999 0.47596 0.41423 1.0074 -1.3628 0.46336 0.19922 -0.58657 0.74499 0.18269 -0.83712 -0.15726 -0.1933 0.13382 0.44847 0.5303 -0.83422 0.78086 0.15427 0.77374 -0.35199 -1.0682 -0.26233 -0.49696 0.54089 0.37531 1.041 0.090617 -0.34311 -0.28094 0.60837 0.28887 -1.1409 -0.77378 -0.64271 -0.42858 -0.66002 0.31232 0.086215 -0.33137 0.41949 -0.32788 -0.30538 -0.79494 -0.36135 -0.15961
southern 0.51257 -0.041552 -0.69431 0.51292 -0.67821 -0.38744 -0.72136 0.49718 0.25563 -0.98405 -0.022843 -1.475 0.75516 -0.68126 -0.99421 0.21458 0.23655 0.61341 -0.88823 0.91171 -0.62251 0.022469 -0.074472 0.77746 -0.31118 -1.8815 -0.15067 0.39978 0.040089 -0.037724 3.4443 -0.2935 -0.044281 0.11398 0.47431 -0.092505 -1.1266 -0.43603 -0.097254 0.80732 -0.78934 0.78961 0.59111 -1.0429 -0.053713 0.64187 -0.3844 -0.25182 -0.47089 -0.6333
colonies 1.0232 -0.4815 -1.2952 -0.57179 0.0051605 0.6138 -0.72842 -0.18358 0.11575 -0.99407 0.82277 0.66481 1.6331 0.32662 -0.48101 0.48863 0.44012 -0.82008 -0.40774 0.57118 -0.30888 -0.85024 0.31067 0.40145 -0.69481 -0.2057 0.1666 -0.89921 0.12109 0.79369 1.6393 -0.40716 -0.51193 -0.018888 -0.30385 -0.04543 -0.87965 -0.19065 -0.74634 -0.36031 -0.3766 -0.5039 1.0871 0.60337 0.086605 0.72577 -0.54526 -1.1307 -0.44372 -1.1662
11 -0.0047106 0.46296 0.87505 0.18773 0.37032 0.32862 -0.68445 -0.1021 -0.60829 -0.68495 -0.3885 -0.73203 -0.75156 -0.019643 1.0193 -0.83106 -0.86078 -0.5189 -1.6472 0.58928 0.48874 0.08151 1.0576 -0.091711 -0.6949 -0.84728 0.69352 -0.81753 0.32879 -0.05099 3.1735 0.33699 -0.22713 -0.13429 0.68441 -0.13128 0.49707 -0.0211 0.29666 0.11316 -0.56051 -0.39635 0.89816 -0.58908 -0.3922 0.62689 -0.23227 -0.30857 0.34812 0.035355
1998 -0.34754 0.30878 0.22932 0.45494 -0.51916 0.23823 -0.85196 -0.49933 0.021442 -0.014074 0.22998 -0.45874 -0.88966 -0.34324 1.5218 -0.16212 -0.41015 0.16188 -0.95228 0.62372 0.49159 -0.30271 0.37862 -0.2758 -0.78844 -1.1539 -0.13399 -0.4272 -0.50507 0.41362 2.5532 -0.16204 -0.45165 -0.28422 -0.028118 -0.32845 0.34177 0.22686 0.04965 -0.71354 -0.76094 -0.3926 -0.020315 -0.86794 -0.74409 0.30734 -0.37553 -0.16956 -0.11915 0.070809
tour 0.19086 1.1069 -1.034 0.73168 -1.0908 -0.37548 -1.4178 0.68071 0.81567 -0.1901 0.0076726 -0.62928 -1.0682 0.33907 1.3072 -0.31096 0.24359 -0.027208 -0.86928 -0.31525 -0.0042566 0.5195 -0.1194 0.49353 0.2449 -0.70088 -0.68048 -0.214 -0.81563 0.087816 2.7756 0.71952 -0.52033 0.93049 0.28794 -0.1446 0.70052 0.45729 -1.0526 -0.86324 -0.45749 -0.57036 -0.22817 -0.61889 0.30703 -0.10808 0.22655 -0.36935 -0.59172 -0.10713
spanned 0.062442 0.98842 -0.24812 -0.063443 -0.31193 0.87251 -0.23447 -0.32206 0.089303 0.24508 -0.72633 -0.59599 -0.91185 0.6987 0.2819 -1.4367 -0.11484 0.58506 -0.7088 0.67575 0.14738 0.29909 0.4215 -0.19615 -0.0098585 0.4597 0.033755 -0.238 0.039685 0.87617 1.4422 -0.34304 1.2418 0.0086347 -0.024457 0.48108 -0.6901 0.6894 -0.74263 0.89886 -0.90786 -0.0035323 0.059757 0.71283 -2.1318 -0.36059 0.26951 -0.72535 -1.4628 -0.90955
five 0.21127 0.36828 0.49602 0.1788 0.43289 0.54778 -0.87517 -0.0041254 -0.27834 -0.40703 -0.50086 -0.68307 -0.53653 0.45692 0.79462 -0.73291 -0.053002 -0.30099 -1.0922 -0.15156 -0.04084 0.1819 0.75583 -0.09576 -0.52397 -0.95095 0.36684 -0.67003 -0.36539 -0.42036 3.9139 0.46919 0.048142 0.49178 1.0773 0.41012 0.37403 0.3022 -0.042142 0.15053 -0.90656 -0.027023 0.60757 0.29086 -0.22531 0.1413 -0.35703 -0.088937 -0.2961 -0.72497
shows 0.079654 0.78386 -0.13076 0.15505 0.20137 0.29517 -0.7638 -0.78499 0.20597 0.2997 -0.23401 -0.39232 -0.15761 0.43687 0.86791 -0.098061 -0.29782 -0.19469 -0.54432 -0.27898 0.65206 0.31559 0.67627 0.46314 0.12583 -0.83649 -1.398 0.28385 0.24323 -0.1781 2.8787 0.43399 0.27244 -1.1603 -0.29066 0.1242 0.18668 -0.21057 -0.86041 -0.49999 -0.19055 0.21498 -0.54196 -0.3615 0.075854 -0.24653 0.21675 -0.1175 -0.098727 0.57669
six 0.29281 0.31322 0.58541 0.044983 0.38666 0.60109 -0.87665 0.09606 -0.19744 -0.49457 -0.41672 -0.75916 -0.6508 0.52929 0.6589 -0.79883 -0.1297 -0.28493 -1.2256 -0.22497 -0.011196 0.2396 0.77621 -0.14746 -0.62975 -0.93334 0.55396 -0.54297 -0.3178 -0.30144 3.8218 0.45976 -0.07032 0.44685 1.1156 0.41392 0.50005 0.19087 -0.14513 0.046651 -0.7588 -0.15138 0.56228 0.16382 -0.22547 0.11267 -0.32517 0.061608 -0.37181 -0.66733
one 0.31474 0.41662 0.1348 0.15854 0.88812 0.43317 -0.55916 0.030476 -0.14623 -0.14273 -0.17949 -0.17343 -0.49264 0.26775 0.48799 -0.29537 0.18485 0.14937 -0.75009 -0.35651 -0.23699 0.1849 0.17237 0.23611 0.14077 -1.9031 -0.65353 -0.022539 0.10383 -0.43705 3.781 -0.044077 -0.046643 0.027274 0.51883 0.13353 0.23231 0.25599 0.060888 -0.065618 -0.15556 0.30818 -0.093586 0.33296 -0.14613 0.016332 -0.24251 -0.20526 0.07009 -0.11568
script -0.079704 -0.78329 -0.55625 -0.55688 0.24804 0.3023 -0.58685 -0.71331 -1.2566 0.44748 -0.2807 1.0736 0.14481 0.44119 0.80361 -0.00067121 0.065709 -0.11161 0.50722 0.3346 0.1062 -0.053536 0.3745 0.33447 1.263 -0.79264 -1.1153 0.28316 -0.50417 -1.2869 2.2871 -1.4599 0.29779 -0.061897 0.14952 0.9014 0.26888 0.18002 -0.60989 -0.40562 0.41055 0.95194 -0.62886 -0.39845 -1.0689 0.050588 1.3269 0.61427 -0.73288 0.25362
bought 0.59821 -0.15459 0.674 -0.080294 0.37136 -0.028539 -2.1284 -0.53344 -0.661 0.15149 0.34121 0.61214 0.032028 -0.67961 0.79515 0.71061 -0.57689 0.70937 -0.6443 -0.29644 1.47 -0.11826 -0.25701 -0.022693 -1.0631 -1.213 -0.29367 0.11232 0.32683 -0.42163 1.8765 -0.40758 0.32243 0.73791 0.40511 -0.48087 -0.43446 0.55777 0.54097 -0.7269 0.75141 -0.15108 0.33418 0.18428 -0.17316 -0.12599 -1.1201 -0.72907 -0.30319 -0.13933
by 0.35215 -0.35603 0.25708 -0.10611 -0.20718 0.63596 -1.0129 -0.45964 -0.48749 -0.080555 0.43769 0.46046 -0.80943 -0.23336 0.46623 -0.10866 -0.1221 -0.63544 -0.73486 -0.24848 0.4317 0.092264 0.52033 -0.46784 0.016798 -1.5124 -0.19986 -0.43351 -0.59247 0.18088 3.5194 -0.7024 0.23613 -0.68514 -0.37009 -0.080451 0.10635 -0.085495 -0.18451 0.29771 0.18123 0.53627 -0.1001 -0.55165 0.098833 -0.12942 -0.82628 -0.4329 -0.10301 -0.56079
2005 -0.33854 0.39887 0.22765 0.34652 -0.46044 0.38299 -0.9621 -0.54493 0.10269 0.059242 0.3796 -0.57905 -0.79231 -0.45271 1.449 -0.23389 -0.38032 0.060819 -1.0736 0.65273 0.63926 -0.32676 0.46754 -0.10834 -0.68612 -0.90865 -0.14354 -0.43087 -0.89886 0.41376 2.7849 -0.10392 -0.3586 -0.39932 0.11262 -0.26657 0.70077 0.046691 -0.22089 -0.77965 -0.63496 -0.4385 -0.14833 -1.0149 -0.75551 0.094623 -0.35704 -0.045597 0.097708 -0.050081
spent 0.28681 0.26895 0.3791 -0.86514 -0.002394 0.010623 -1.573 0.099974 -0.15125 -0.14757 -0.43285 -0.21576 -0.29636 -0.21449 1.0176 -0.42976 -0.14856 0.59007 -0.39525 0.22247 0.72853 0.74201 0.5497 -0.46731 -0.011142 -1.2581 0.4749 -0.23408 0.0644 0.010221 2.4398 0.37342 -0.026013 -0.3801 0.24874 0.42417 -0.34505 1.1761 0.44794 -0.20664 -0.53945 0.041905 0.28422 0.12295 -0.31201 -0.36482 -0.55809 -0.3814 -0.6557 0.094295
years 0.16962 0.4344 -0.042106 -0.63324 -0.1278 0.53668 -1.0662 -0.32629 -0.50079 0.10247 -0.021968 -0.35105 -0.64153 -0.42454 1.3836 -0.13543 -0.24754 0.22156 -0.65563 0.44424 0.17017 0.35816 0.56379 -0.48044 -0.14765 -1.629 -0.31308 -0.47217 0.02659 0.47603 3.4619 0.12069 -0.045344 -0.47303 0.28569 -0.077584 -0.16447 0.7181 0.2617 -0.16841 -1.245 -0.076188 0.17493 0.24507 -0.63801 -0.21096 -0.49918 -0.50108 -0.7704 -0.32234
various 0.59264 0.3766 -0.64819 0.18271 -0.44598 0.65659 -0.41701 -0.83011 -0.24806 -0.28898 0.070582 0.58327 0.26729 0.080826 -0.10431 -0.44883 -0.035616 0.043761 0.18386 -0.85268 0.99932 -0.16784 0.95587 0.36208 -0.46497 -0.35273 -0.75402 -1.0632 -0.39113 -0.30549 3.9562 0.18577 0.19335 -1.4006 0.4429 1.0472 -0.38225 -0.076239 -0.88012 0.76031 -0.23448 -0.11477 0.32162 0.52306 0.34978 0.074759 -0.20336 0.1826 -0.49827 -0.70865
states -0.42093 0.045655 0.1135 0.34526 0.09715 0.42206 -0.34718 0.010904 0.61307 -0.5734 0.29023 -0.21015 0.14544 -0.31479 0.16471 0.059054 0.16791 -0.58768 -0.063237 0.084685 0.21251 -0.5246 0.46017 -0.044725 -0.20827 -2.3662 0.37637 -0.68911 0.020944 -0.17156 3.3658 -0.10865 -0.49856 -0.84937 -0.15947 -0.92705 -0.3499 0.29612 -0.96039 -0.13339 -0.47849 -0.057402 1.3791 -0.68087 -0.29211 0.79177 -0.7364 0.13431 -0.79519 0.19546
pre 0.26318 0.055605 -0.25071 -0.004784 -0.20655 -0.2168 -0.33329 -0.30542 0.12155 0.39984 -0.40387 -0.82618 -0.017275 0.077742 0.75285 0.32591 -0.73418 -0.6304 -0.5395 0.17132 0.33444 0.080619 -0.055464 -0.40968 -0.57142 -0.86444 -0.6135 -0.13361 0.13163 0.52885 2.5179 0.62638 -0.74453 0.20142 0.1932 -0.13021 0.42708 0.25843 -0.36733 -0.63503 -0.36465 -0.16329 -0.085794 0.47481 0.38848 0.029355 0.28723 0.67125 -0.10134 0.045852
with 0.25616 0.43694 -0.11889 0.20345 0.41959 0.85863 -0.60344 -0.31835 -0.6718 0.003984 -0.075159 0.11043 -0.73534 0.27436 0.054015 -0.23828 -0.13767 0.011573 -0.46623 -0.55233 0.083317 0.55938 0.51903 -0.27065 -0.28211 -1.3918 0.17498 0.26586 0.061449 -0.273 3.9032 0.38169 -0.056009 -0.004425 0.24033 0.30675 -0.12638 0.33436 0.075485 -0.036218 0.13691 0.37762 -0.12159 -0.13808 0.19505 0.22793 -0.17304 -0.07573 -0.25868 -0.39339
variety 0.43784 0.55515 -1.1082 0.37826 -0.22835 0.62634 -0.61409 -1.1956 0.23109 0.29388 -0.071578 0.38679 0.7898 -0.12328 0.046669 -0.23262 0.22744 0.50755 -0.079393 -1.0463 0.33264 -0.29872 0.753 0.3996 -0.35845 -0.17672 -0.81419 -0.095748 0.24744 -0.14554 3.3523 -0.076747 0.35936 -1.004 0.42559 0.71583 -0.60274 0.40066 -0.68286 0.20261 0.13653 0.34091 0.076268 0.30675 0.82212 0.20942 0.046 0.28025 -0.46049 0.50672
actors 0.048182 0.32547 -0.46063 -0.56611 0.4486 0.72944 -0.28728 -0.025179 -1.0341 0.76424 0.053966 0.62754 0.12715 1.2807 0.64908 -0.26082 1.2511 0.29219 -0.12547 -1.0759 0.55467 1.0733 0.25467 0.9064 0.21102 -0.38245 -0.75224 -0.83134 -0.74241 -0.6712 2.1061 0.87459 0.63479 -1.2035 0.497 0.63403 -0.086837 -0.34447 -0.89269 -0.53693 -0.35413 1.5192 0.11379 -0.50224 -0.24514 -0.65863 -0.067186 -0.57343 -1.1836 0.78785
attached 0.25371 0.17862 0.38679 -0.59138 0.90291 0.49861 0.31311 -0.15251 0.457 -1.2467 0.47207 0.49782 0.21138 0.89 -0.87915 0.46607 -0.64227 0.36424 0.17 -0.81557 0.32389 -0.66926 -0.10658 -0.086986 -0.083863 -1.3742 -0.21513 0.70008 0.16965 -0.47744 2.3157 -0.20571 -0.018608 -0.16991 0.062562 0.83787 0.77996 0.14202 -0.45598 -0.10554 0.55605 -0.49124 -0.060273 0.32167 0.030796 -0.18831 0.24019 -0.61839 -0.13136 -0.4839
different 0.50113 0.41569 -0.29695 0.10243 0.41572 0.70124 -0.20413 -0.95497 -0.63545 -0.086705 0.32744 0.29916 -0.068226 0.21065 0.052 0.10911 0.069841 0.023721 0.076539 -1.2528 -0.25439 -0.053507 1.0071 0.71453 0.21825 -0.49822 -1.0179 -0.34392 0.17144 -0.55879 4.0882 0.17536 0.1053 -1.294 0.70787 0.18151 -0.13555 0.32992 -0.85925 0.56715 -0.28607 -0.072084 0.39025 0.77524 -0.019722 0.2923 0.32779 0.16057 -0.50284 0.052809
roles 0.55794 0.035019 -1.1301 -0.35829 0.25967 1.254 0.55346 -0.031982 -0.62068 0.12724 0.071818 0.91408 -0.61231 0.84955 -0.10144 -0.63815 0.27459 0.60725 0.24325 -0.29162 0.3211 0.60858 0.58647 0.65719 -0.24896 -0.624 -0.80975 -0.8603 -0.51708 -0.055356 2.6055 0.63261 0.84814 -1.2081 0.91928 0.8775 -0.31365 0.0013889 -1.3119 -0.42065 -0.91256 0.77477 -0.15833 -0.66546 -0.54086 -0.51033 0.043347 -0.47744 -0.59423 1.123
match -0.62319 -0.13879 -0.83695 1.1739 -0.14304 -0.11148 0.40331 1.337 -0.20643 0.064769 0.15115 -0.43794 -1.5546 -0.51902 1.1771 -0.29629 0.18794 -0.82506 -1.7333 -0.41505 -0.44335 0.024533 0.44603 0.38377 0.13602 -1.2569 0.69812 -0.029317 -0.18377 -0.42167 3.0513 1.1309 0.31189 0.13244 0.15756 0.61074 0.96499 1.3011 -0.66769 -1.4835 0.59339 -0.023404 -0.17871 -0.011882 0.04262 0.95606 0.40541 -0.14034 0.29359 -0.56378
title -1.2383 0.99487 -0.73677 1.0773 0.2541 0.081738 0.17186 0.59812 -0.43664 0.029587 0.28811 0.42254 -1.4255 -0.41574 1.1129 -0.41529 -0.057627 -0.23211 -1.256 0.051955 -0.69603 -0.58391 0.041078 0.29438 0.034322 -1.7282 -1.19 -0.8353 -0.54406 -0.16701 2.5351 0.080653 -0.41849 0.30913 0.21878 0.047821 0.54864 0.89808 -1.0174 -1.5964 0.48255 -0.5546 -0.2438 -0.022622 -0.91066 0.14962 0.1453 -0.97966 0.20244 -0.36069
overall -0.77035 0.23113 0.47465 -0.0032038 1.0655 0.036634 -0.17746 -0.35708 0.98643 -0.2299 0.39912 -1.041 -1.0304 -0.0080582 0.074117 -0.6249 -0.010692 -0.91988 -0.73391 -0.59632 -0.44334 -1.0104 -0.25965 -0.56379 -0.10893 -0.57078 -0.55997 -0.29173 0.095502 0.78789 3.095 1.0829 0.48567 -0.44009 0.17506 -0.5821 0.14549 1.0084 -0.33227 -0.77597 -0.86809 -0.86802 0.22511 -0.69789 -0.55879 0.21181 0.53787 0.48676 0.59386 0.73648
effects 0.98945 -0.31652 -0.52394 -0.089734 -0.94933 0.91296 0.74632 -0.80421 0.42568 1.6794 0.72628 0.49676 0.11228 0.10631 0.51549 0.43636 0.06363 -0.39336 -0.71547 -0.8791 0.0056115 -0.1645 0.11813 -0.78464 0.1326 -0.50888 -1.0202 -0.075611 0.81836 0.74424 3.0349 0.34461 0.5777 -2.0507 -0.13199 0.65731 0.0032534 -0.21802 0.25378 -0.14271 -0.78739 0.85794 0.29273 0.010018 0.60313 0.23384 0.69762 0.36959 -0.12151 0.56734
limited -0.061722 -0.074371 -0.15627 0.43372 -0.38931 0.29033 -0.45171 -0.37957 0.94583 0.1332 0.49167 0.38953 -0.10343 -0.48895 -0.16574 0.56248 0.062213 0.047265 -0.19571 -0.60337 0.74894 -0.064744 -0.11763 -0.23311 -0.42756 -0.69373 -0.079577 -0.40539 0.38083 0.35624 3.5015 0.019065 0.3616 -0.23501 0.44803 0.1469 0.43162 -0.0215 -0.98909 -0.28153 0.13792 -0.36376 -0.0050393 0.31229 -0.72839 -0.016576 -0.45736 0.53253 -0.28756 0.22147
rains 0.4807 -0.6874 0.21182 -0.18029 -2.2046 -0.87707 -0.21401 1.511 0.62746 -0.029386 -0.32027 -0.69512 1.2062 -0.93651 0.56839 0.39619 -0.086996 -0.60984 -0.73006 -0.46378 -0.38752 -0.36319 1.3503 -1.049 1.2459 0.09003 0.026281 0.99986 1.0558 0.9187 2.7956 0.083804 0.8987 0.11486 -0.12698 0.85041 0.097669 -0.47405 0.61763 0.47643 -1.8173 1.1871 -0.1734 -1.3166 0.4888 0.37603 -0.29068 -0.73097 0.16378 -0.55276
largely 0.36522 -0.88733 -0.1771 -0.54038 0.11879 0.34509 -0.91414 -0.052995 -0.35864 0.17668 0.016672 -0.72569 0.13071 -0.21021 0.13728 0.17659 0.20992 -0.30793 0.16063 0.01743 -0.087522 0.014944 -0.12905 0.020592 -0.033293 -1.0186 -0.33031 0.3833 0.39753 1.1675 3.2659 -0.72443 0.78555 -0.98949 -0.14668 0.043675 -0.52936 0.39787 -0.97602 -0.32919 -0.7345 -0.14745 -0.15059 0.60457 -0.70379 -0.070021 -0.91365 0.17351 -0.26552 -0.58785
beneficial 1.2264 0.23673 -0.98273 0.80843 0.41084 0.6261 0.45308 0.010029 0.33989 0.93958 0.79066 0.75717 0.605 -0.30134 -0.63132 0.7419 0.61478 -0.17036 0.76663 -0.16053 -0.096757 -0.28421 0.56417 -0.45385 0.47443 0.019002 0.57547 -0.25491 0.98056 0.29236 2.2002 0.69567 0.15176 -0.83279 -0.061826 -0.87412 -0.69531 1.0941 -0.65494 -0.024177 -0.84036 -1.2659 0.5862 0.47202 0.63809 -0.020289 -0.59088 0.70398 0.38927 1.0223
mitigating 1.0228 0.0019686 -0.79677 -0.048306 0.59916 0.98533 2.0563 0.34085 0.75856 0.80665 -0.25428 0.41815 -0.099936 -0.10267 0.73842 0.49503 0.94846 -1.2069 0.21307 -0.8287 0.31681 -0.27838 0.1622 -0.9111 0.44052 -0.019406 0.013458 0.010833 0.70156 0.62943 0.086724 0.60303 0.4091 -2.5493 1.1877 0.12795 0.32238 -0.1553 -0.13044 0.32132 -1.8431 0.379 0.86542 0.34522 -0.22179 0.012574 0.48465 1.0395 1.2198 0.39756
severe 0.57009 -0.10439 -0.43519 -0.46397 -1.7036 1.3301 1.2215 0.75271 0.54012 -0.10586 0.27148 -0.20061 0.097992 -0.66055 0.41108 0.33529 -0.77294 -0.53566 -0.44652 -0.10772 -1.0243 -0.014923 0.21404 -0.91945 0.36981 -1.3379 -0.16918 0.20179 0.78479 1.5781 3.2156 0.46095 1.2052 -0.78336 -0.30769 0.64627 0.6108 -0.53126 0.74464 0.0073183 -1.3488 0.67217 0.45956 0.26021 1.0666 0.32051 -0.1837 0.23585 0.14673 0.18859
drought -0.33153 0.22338 -0.51388 0.40727 -1.7321 -0.001406 -0.071636 0.49685 1.2796 0.073781 -0.13374 -0.50327 0.22312 -0.94363 1.0926 -0.012104 0.35931 -0.3504 -0.3845 0.82183 -1.686 -0.78163 0.1298 -1.1785 0.48024 -0.47884 0.38792 -0.041559 1.2619 1.5951 2.5753 0.60826 0.39647 0.39912 -0.24605 1.2488 -0.55668 0.2993 0.83571 -0.12058 -2.0117 0.23152 0.072356 0.13795 0.57238 0.61066 0.23533 0.29491 -0.20523 -0.64847
evidence 1.1182 -0.25381 -0.016499 0.17412 0.69814 0.60216 0.069199 0.32019 0.69222 0.21431 0.0011718 -0.058173 -0.40991 -0.7996 0.78448 0.26738 -0.10453 -1.1884 -0.013479 -0.57117 0.069635 0.27026 0.81334 -0.79053 -0.040134 -2.0424 -1.1481 0.15604 0.091564 -0.16136 2.4623 -1.5448 -0.15729 -2.208 0.53367 0.028101 0.10668 0.3566 -0.15142 -0.18061 0.019917 -0.0037435 0.44897 0.78918 0.50414 -0.50421 -0.12283 1.1159 0.22771 -0.93075
conquered 0.86898 -0.61857 0.088376 -0.48524 -0.025327 -0.74671 -0.096596 0.58358 -1.2369 -0.5319 0.69473 0.046206 -0.28941 -1.0575 -0.2081 1.0629 0.57851 -0.37739 -0.73842 1.5949 -0.78455 -0.51202 0.36169 0.14418 0.82468 -0.86194 -1.1181 -0.70008 0.20201 0.12551 0.92999 -0.1009 0.22903 0.19823 -0.11931 -0.080057 -0.79903 0.59118 -1.2194 0.71735 -0.25268 -0.14665 0.52727 -0.13746 -0.89668 0.22545 -0.48598 -1.291 -0.85927 -1.4148
4th -0.68737 0.011934 0.14727 -0.030782 0.90012 -1.0013 0.094623 0.42673 0.24213 -1.7293 -0.20944 -0.28651 -0.53437 -0.63691 -0.51235 -0.6897 -0.71206 -0.79418 -1.3101 0.14867 0.26818 -1.2789 -0.25936 0.012882 -0.32092 -0.76206 -1.422 -1.4347 -0.75828 0.4521 1.8532 -0.26675 -0.23249 0.30165 1.2704 0.045305 0.53193 0.1581 -0.38396 -0.47264 0.051109 -0.488 -0.1954 -1.1888 -0.15444 1.0644 1.0131 -0.79831 0.39953 0.13696
century 0.42373 0.07564 -1.1661 -0.94059 0.47112 -0.34774 -0.91326 -0.52053 -0.42224 -0.012656 -0.12034 0.16164 -0.29226 -0.22875 0.029715 -0.20729 0.24263 -0.74336 -0.67894 0.50366 0.13175 -0.66325 -0.93767 -0.036856 0.5709 -1.1115 -1.631 -0.72303 -0.12268 0.82252 3.0946 -1.228 0.64149 0.093082 0.22482 0.1489 -0.24321 0.94718 -0.59528 0.60007 -0.28403 -0.091914 0.22169 0.2975 -0.31769 1.3584 -0.13378 -1.1394 -0.31153 -1.3144
champion -1.9159 1.0796 0.24332 1.8538 -0.13691 0.47247 -0.46517 0.9396 -0.27573 -0.22224 0.90494 -0.31801 -2.0171 -0.037777 1.1155 -0.3905 0.98565 0.12626 -1.5546 -0.416 -1.6988 -0.012479 -0.21559 -0.038084 0.64387 -1.8098 0.064928 -0.92187 -0.73749 0.053487 1.605 0.53539 -0.1642 0.60776 -0.12477 -0.43682 -0.074933 1.7582 -0.37392 -1.2926 0.12977 -0.090068 0.49745 -0.28761 0.55375 0.068843 -0.34886 -1.4297 -0.032107 -0.43507
103rd -0.75346 -1.2268 0.25579 -0.79322 0.67863 -1.6782 0.69911 0.12289 1.0802 -0.50425 -0.50861 -0.98931 -0.64336 1.0606 -0.91358 -0.65113 -0.62023 -0.17335 -0.51401 0.089695 0.50761 -0.83481 -0.51982 -0.19443 -0.49845 -0.066967 -0.29016 -0.13791 -0.87148 0.35233 -0.32022 0.44491 0.37488 0.11247 -0.15532 0.011205 0.71826 0.57058 -0.386 -0.37808 -0.56574 -0.31567 -0.86003 -0.22449 -0.60266 1.1784 0.77194 -0.89771 -0.42017 0.036133
are 0.96193 0.012516 0.21733 -0.06539 0.26843 0.33586 -0.45112 -0.60547 -0.46845 -0.18412 0.060949 0.19597 0.22645 0.032802 0.42488 0.49678 0.65346 -0.0274 0.17809 -1.1979 -0.40634 -0.22659 1.1495 0.59342 -0.23759 -0.93254 -0.52502 0.05125 0.032248 -0.72774 4.2466 0.60592 0.33397 -0.85754 0.4895 0.21744 -0.13451 0.0094912 -0.54173 0.18857 -0.64506 0.012695 0.73452 1.0032 0.41874 0.16596 -0.71085 0.14032 -0.38468 -0.38712
barred -0.32021 -0.58036 -0.052779 -0.10847 0.079659 0.027056 -0.43746 0.14474 0.22519 -0.42789 0.31871 -0.51725 0.04652 0.49026 0.74715 0.44496 -0.26093 -0.16184 0.33832 -0.44748 0.57334 0.35104 0.23603 0.4135 -0.78974 -1.4032 1.0931 0.19338 -0.49271 -0.033655 1.2796 -0.020535 -0.50175 -0.83107 -0.24056 -0.17491 0.52697 0.037809 -1.3237 0.10363 -0.41679 0.034554 0.47959 1.0708 -0.29146 -0.81257 -1.09 0.023294 -0.27555 -0.80287
membership -0.2466 0.89564 -0.048209 -0.62159 0.50642 0.45836 -0.17727 -0.05611 0.13698 -0.29091 0.81417 -0.55628 0.061481 0.26788 0.47344 0.23383 -0.0084004 -0.17213 0.86648 -0.14684 0.16675 -0.96844 -0.29819 0.54305 -1.1161 -1.1828 0.19576 -0.48741 -1.058 0.35211 2.6078 0.90407 -0.94862 -0.37891 -0.5503 -0.99074 -0.085751 -0.15932 -0.70581 -0.48893 -0.43097 -1.0598 0.057735 0.2916 -0.93751 -0.60746 -0.40686 0.87531 -0.59887 -0.55661
major 0.2492 0.37003 -0.12283 0.9356 -0.33465 0.10462 -0.60417 0.25293 0.19677 -0.20179 -0.17339 0.012523 -0.949 0.0035561 -0.097554 -0.42411 0.31734 -0.22621 -0.50354 -0.040819 0.50298 -0.95244 -0.38308 -0.19784 -0.57981 -1.3302 -0.53875 -0.80585 -0.096609 0.66551 3.8168 0.11813 0.63227 -0.45213 0.25649 0.25151 -0.20992 0.049896 -0.18808 0.56178 -0.8935 0.19163 -0.27082 -0.3413 0.20608 0.27465 -0.59125 0.60125 -0.12151 0.15024
political -0.18487 0.35358 -0.29294 0.059937 0.32308 0.46764 0.4192 -0.059661 -0.82141 -0.03429 -0.85105 -0.32167 -0.77291 0.71382 -0.29762 -0.42115 0.74985 -0.29343 0.54737 0.064255 0.22616 0.41474 0.31489 -0.12544 0.068857 -2.1554 -0.54948 -0.4876 -0.12131 1.5164 3.4728 0.086922 -0.8999 -1.3314 -1.1665 -0.093826 -1.4962 -0.11004 -0.4412 -0.023172 -0.68365 0.46017 -0.65618 0.54213 -0.31278 -0.1489 -0.58983 0.59261 0.024439 -0.40234
parties 0.3215 -0.24613 -0.46952 0.13853 0.1013 0.72639 -0.056441 0.17746 -1.154 -0.15891 -0.57427 -0.73113 -0.23344 0.74365 -0.072829 -0.010908 0.7259 -0.60433 0.89994 -1.0886 0.6091 0.3788 0.84396 0.67094 -0.61123 -0.71885 -0.12183 -0.52056 -0.49384 0.51497 3.481 1.0864 -1.6776 -0.34368 -0.50651 -0.59329 -0.29436 -0.35125 -1.0887 0.14839 -0.74644 -0.14836 -0.64278 0.44149 -0.44652 0.050501 -1.5753 0.38031 0.18685 -0.7237
businesses 0.60368 -0.88534 0.78255 0.11335 -0.2703 -0.034863 -1.1517 -0.41252 0.13352 0.25751 -0.090055 -0.21679 0.24874 -0.2921 -0.19175 0.21267 0.11233 0.087779 0.98463 -0.91491 1.5423 -0.49178 -0.70581 0.38725 -0.84906 -0.59936 -0.15053 -0.73423 0.67479 -0.20243 3.4724 0.83882 1.029 -0.36327 -0.25548 -0.095337 -0.98193 0.10744 0.24484 -0.00048485 -0.6881 -0.4544 1.0211 0.5582 0.19303 0.041684 -1.2312 0.066155 0.081333 0.34269
other 0.64756 0.16 0.029191 0.35118 0.089119 0.61115 -0.66362 -0.51724 -0.46521 -0.08845 0.0502 0.26329 0.12407 0.043832 0.17283 0.01317 0.14168 -0.15827 -0.10427 -0.9307 0.21646 -0.10753 0.62087 0.36761 -0.48144 -1.28 -0.55152 -0.72023 -0.17097 -0.47993 4.0165 0.47054 0.093614 -0.86341 0.50881 0.33353 -0.35962 -0.16648 -0.31803 0.49003 -0.36697 0.32051 0.70932 0.62878 0.70128 0.1302 -0.73769 0.10325 -0.30964 -0.44213
employers -0.43016 -0.96967 0.1845 -0.9787 -0.1624 0.43078 -0.67073 0.46542 -0.12142 -0.48426 0.4154 -0.41898 0.67673 -0.21224 0.75951 -0.046978 0.3602 -0.24986 1.2419 -1.4323 0.50468 -0.42551 -0.84091 0.67229 -0.80864 -0.96202 0.25657 -0.90347 -0.13642 0.090242 2.261 0.96371 -0.060521 -0.3235 -0.32364 -0.49263 -0.31084 -0.55126 0.78052 -0.59317 -0.54827 -0.46079 1.1188 0.96961 0.28272 -1.058 -0.5351 1.2654 0.11488 0.73894
use 0.36404 -0.16619 0.28584 -0.17042 -0.42253 0.43921 -0.2348 -0.89034 0.063375 0.37835 0.41151 0.72865 0.72612 -0.081949 -0.18455 0.58287 -0.055214 0.19534 -0.022018 -1.2055 0.47209 -0.53655 0.17969 0.056589 -0.19033 -1.7427 -0.19718 -0.44248 0.85523 -0.51624 3.7482 -0.094815 -1.1104 -0.73457 0.36396 0.62193 0.35603 0.14707 -0.42021 0.16994 0.74747 0.14756 0.41393 0.80217 0.58067 0.10242 0.1147 0.40129 -0.086234 0.045505
so 0.60308 -0.32024 0.088857 -0.55176 0.53182 0.047069 -0.36246 0.0057018 -0.37665 0.22534 -0.13534 0.35988 -0.42518 0.071324 0.77065 0.56712 0.41226 0.12451 0.1423 -0.96535 -0.39053 0.34199 0.56969 0.031635 0.69465 -1.9216 -0.67118 0.57971 0.86088 -0.59105 3.7787 0.30431 -0.043103 -0.42398 -0.063915 -0.066822 0.061983 0.56332 -0.22335 -0.47386 -0.47021 0.091714 0.14778 0.63805 -0.14356 -0.0022928 -0.315 -0.25187 -0.26879 0.36657
called 0.65388 0.34707 -0.46744 0.23541 0.042322 0.25035 -0.2481 -0.52545 -0.20402 -0.0016557 0.045543 0.40545 -0.12725 0.37255 0.091869 0.24375 0.31824 0.13457 -0.021341 -0.080923 -0.17935 -0.33615 0.20144 0.29788 -0.1721 -1.7568 -0.57082 0.29939 -0.31451 -0.15088 3.1091 -0.68082 -0.9945 -0.3575 -0.36599 -0.21774 0.39993 -0.54434 -0.1259 0.29761 -0.042689 0.35754 -0.67812 -0.16238 0.44334 0.095137 -0.47481 -0.12054 0.1405 0.3396
sect 0.86864 -0.58531 -0.16324 -0.018251 1.68 0.53875 0.33555 -0.58216 -0.16988 1.0542 0.30674 -1.3778 -0.1981 0.035152 -0.34511 0.4441 -0.1445 0.30927 0.041844 1.3065 -0.31369 0.12295 -0.10516 1.1491 -0.73125 -1.3498 -0.56501 -0.69073 -0.87273 -0.3654 0.87722 -1.3342 -0.70288 0.010188 -0.092167 -0.82631 -0.24566 -0.9574 -0.21952 1.2628 -0.48757 -0.83334 -0.77045 1.3659 1.634 -0.15345 -0.64351 -0.30904 -0.36317 -1.3553
filters 0.062543 -0.66925 1.0025 0.0020723 -1.121 0.090869 0.5463 -1.4128 0.5059 0.81025 0.47373 0.32989 0.96349 0.27796 -0.42279 0.7413 -0.31346 -0.29663 0.16002 -1.7944 0.23285 -0.85948 0.57162 0.077836 -0.23542 -0.032243 0.13904 0.42663 0.93266 -0.34182 1.1169 -0.061138 -0.61866 -1.3345 -0.63375 0.51838 0.38785 0.39513 0.2611 0.66071 1.3017 0.8712 -0.05196 1.2152 -0.11601 0.44163 0.47174 -0.46009 0.31595 -0.17209
expose 0.34303 -0.18794 0.20775 -0.18413 -0.41408 0.52156 0.62056 0.25742 0.37441 0.022596 -0.50132 0.56716 -0.54018 0.2108 0.26028 0.084997 0.56883 -0.20032 0.7506 -0.18155 0.25341 0.38261 0.44998 0.2305 -0.096464 -1.2954 -0.76027 -0.05296 0.63654 -0.50007 1.0808 0.10734 -0.24172 -1.2246 -1.0954 0.81428 -0.54855 -0.48903 -0.083209 -0.81538 0.22023 -0.34204 0.634 0.55724 0.66863 -0.35791 -0.013407 0.2303 0.31827 -0.40225
prospective 0.80691 0.44138 0.91773 -0.17942 0.84469 0.43883 -0.81385 0.90067 -0.070026 -0.28399 -0.19213 -0.13558 1.0474 0.68876 0.46981 0.13551 0.076521 -0.25945 0.54947 -1.2336 0.74647 -0.17884 -0.38 0.6826 -0.31198 -0.73962 0.19363 -1.0606 -0.49098 0.019101 1.0914 0.6519 -0.39793 -0.99013 1.1963 -0.09309 -0.17066 -0.10173 -0.4131 -1.0248 -0.16599 -0.3336 0.29704 1.0993 0.39002 -0.95587 -0.0041332 1.1304 0.027514 0.39918
business 0.023693 0.13316 0.023131 0.49833 0.026874 -0.43252 -1.1364 -0.82001 0.22388 -0.032119 -0.069651 0.39857 -0.58275 0.095008 -0.023643 0.23237 -0.42441 0.65709 0.57802 -0.51602 1.8253 0.12951 -0.61773 0.39281 -0.35754 -1.6778 -0.45201 -0.47075 0.19487 0.35828 3.6034 0.32865 0.47288 -0.33787 -0.46234 -0.51628 -1.3755 0.70789 0.4648 -0.16186 -0.0961 -0.28523 0.30047 0.50902 0.081356 -0.015639 -0.51021 0.34585 0.24201 0.82237
partner 0.16379 0.41112 -0.13158 0.94895 0.70715 1.0944 -0.68831 0.17241 -0.095856 -0.067607 0.41669 0.63432 -1.3402 0.42068 -0.12637 -0.057558 0.76176 0.31818 0.46097 -0.11251 0.37254 0.83932 -0.40458 0.36498 -0.30611 -1.2432 0.57756 -0.96071 -0.57665 0.14119 2.4005 0.14858 0.065053 0.20795 -0.079198 -0.50273 -0.82832 0.64008 0.1735 -0.65171 0.33241 0.0098905 0.058787 -0.279 0.21618 -0.35415 -0.76466 -0.28958 -0.38235 0.82379
or 0.26358 0.18747 0.044394 -0.19119 0.45455 0.66445 0.25855 -0.64886 -0.67653 0.045254 0.071081 0.3645 0.74863 -0.17489 0.28723 0.43277 -0.39184 -0.048568 -0.21373 -0.72992 0.13902 -0.23308 0.70256 0.2176 -0.20647 -1.415 -0.32587 -0.075019 0.88536 -0.56679 4.0296 0.019803 -0.57259 -0.060878 0.14667 0.16532 0.21188 -0.38358 0.42748 -0.096921 0.19285 0.021779 0.58562 0.97633 0.20384 -0.2162 -0.021486 -0.42936 0.52879 -0.12598
employee 0.23666 0.18914 0.4051 0.084121 0.79485 0.24362 -0.75882 0.39081 0.67731 -0.60095 0.36774 0.030937 -0.25487 -0.37063 0.57514 -0.39748 -0.92277 0.77213 0.69639 -0.44781 0.51802 0.50076 -0.95403 0.18261 -0.91081 -1.5448 0.059238 -0.25646 0.091397 0.13902 2.0347 -0.0022858 0.13005 -0.21161 0.19615 -0.0024776 0.077975 -0.40218 1.0372 -0.15382 0.17604 -0.23392 -0.021668 0.79639 -0.11123 -1.4084 -0.68147 0.84508 0.22588 1.1423
association -1.4406 0.58249 -1.2903 0.64414 -0.38313 -0.4135 -1.2314 -0.34478 0.76907 -0.92177 1.0592 0.35802 0.3303 0.11928 0.075642 -0.26642 0.026377 0.64826 -0.19121 -0.48528 0.18678 -0.15363 -0.41788 0.33233 -0.87561 -1.4564 -0.43698 -1.0328 -1.728 0.06726 2.888 0.21731 -0.36207 -0.52641 -0.45183 -0.30496 0.034511 -0.49968 0.66999 0.18588 -0.45591 -0.30164 0.16987 0.6089 0.55034 0.046437 -0.99937 0.61423 -0.18125 0.11436
organization 0.0045919 0.044048 -0.45486 0.085465 0.82071 -0.29642 -0.74135 -0.73182 1.1468 -0.30318 0.82331 -0.038242 -0.61542 0.88862 -0.26852 -0.81056 0.42294 0.27055 0.39423 0.50166 -0.3875 -0.1128 0.035386 0.070233 -1.0952 -1.4779 -0.077482 -0.76481 -0.80932 0.075326 3.187 0.24256 -0.94285 -1.0391 -1.4213 -0.36973 -0.23704 -0.22633 0.12324 0.37992 -0.53272 -1.0171 -0.12099 0.063301 0.14735 0.10486 -1.3653 0.78741 -0.4363 0.43508
16 -0.29986 0.53456 0.8523 0.12296 0.3663 0.54502 -0.70305 -0.20362 -0.64124 -0.58095 -0.080826 -0.83022 -0.46308 -0.17078 0.866 -0.72334 -0.808 -0.34384 -1.5958 0.4596 0.34886 0.041155 1.0988 -0.04916 -0.65662 -0.58062 0.82432 -0.91699 0.013978 -0.1328 3.1416 0.16769 -0.35166 0.10287 1.0063 -0.14273 0.70697 0.37914 0.35809 0.040143 -0.34197 -0.32143 0.8541 -0.66701 -0.54636 0.5222 -0.17506 -0.64365 0.23905 0.090579
2008 -0.50418 0.45448 0.22939 0.4734 -0.57821 0.23665 -1.0699 -0.40462 0.11613 -0.11666 0.42058 -0.48213 -0.65609 -0.29999 1.3544 -0.16838 -0.29876 0.13823 -1.173 0.4313 0.63133 -0.47646 0.42857 -0.019692 -0.51861 -0.80787 -0.046115 -0.3715 -0.97103 0.29844 2.8816 0.26376 -0.28809 -0.5366 -0.028455 -0.29233 0.75185 0.11399 -0.41045 -1.0701 -0.55548 -0.55349 -0.45074 -1.2425 -0.77232 0.082042 -0.20132 -0.14724 0.23778 0.14667
drivers -0.57178 -0.14815 1.3032 -0.1386 -0.64706 0.26746 -1.1973 0.57921 0.17534 -0.51048 0.50268 -0.32857 -0.85011 -0.13188 0.78007 -0.66547 -0.12458 0.41686 -0.030309 -2.575 -0.35289 0.12604 -0.53574 1.4662 0.67294 -0.90831 0.19872 -0.77637 0.64814 0.10835 2.1671 1.0235 -0.42508 -0.026603 1.2759 -0.081058 0.43155 -0.32052 -0.50017 0.6938 -0.22609 0.036735 0.56486 0.51206 0.54253 -0.72431 -0.13002 0.0077397 0.98959 -0.23174
change 0.042454 0.12552 -0.066073 -0.21142 0.044724 0.17982 -0.05304 -0.5183 -0.24175 0.030587 0.1394 0.3424 -0.43617 0.13271 0.44411 0.93805 0.31023 -0.66623 0.30407 -1.0227 -0.17443 -0.3182 0.006472 -0.203 0.6764 -1.4509 -0.64092 -0.036865 0.52866 0.53492 3.6185 0.43604 -0.85961 -1.0646 -0.37223 -0.67512 0.046302 -0.048859 -0.25654 -0.20556 -0.77933 0.015518 -0.29186 0.12353 -0.17685 0.30804 0.31609 0.5478 0.32895 0.65252
open -0.062761 0.81904 -0.067769 1.0728 -0.48884 -0.53659 -0.39512 0.29684 -0.24994 -0.64616 -0.38994 -1.0181 -0.74659 0.5638 0.62756 0.84303 0.1374 -0.54534 -0.16795 -0.43048 0.18814 0.16537 -0.1674 0.59948 -0.16904 -1.1376 0.36256 0.19763 0.010075 -0.3838 3.5756 0.045535 -0.52057 0.32947 -0.36942 -0.37348 0.31756 0.81132 -0.044679 -0.79792 0.22949 -0.73993 0.90041 0.46883 0.4512 0.6644 0.24931 -0.88062 -0.042584 -0.21827
wheel -0.096431 0.33246 0.8273 -0.22238 -0.36477 1.0267 0.027535 -0.75243 0.41674 -0.85088 0.32921 0.29503 -1.4781 0.93187 -0.4263 0.68609 -0.38269 1.2805 -0.19902 -2.1501 0.081088 -0.1337 -0.68121 0.73649 0.75513 -0.88687 -0.56006 0.71562 0.58291 0.15116 2.1771 0.23935 -0.27441 1.1731 0.60639 0.27858 0.62137 0.065271 -0.059935 0.19949 0.32832 0.096803 -0.62466 0.38014 -0.43297 0.031017 0.98628 -0.92416 0.34418 -0.71711
racing -0.1976 0.47952 -0.061333 1.13 -1.0781 -0.016465 -1.5107 0.025042 0.010109 -0.35605 0.55575 0.38494 -1.6356 -0.31965 0.4694 -0.81445 0.28273 1.4359 -1.5791 -1.6074 -0.49124 -0.30851 -0.48792 1.0501 0.16779 -0.70227 -0.14165 -0.27467 0.40245 0.48239 1.837 0.82912 -0.69325 0.17429 0.36165 -0.081363 -0.16986 0.65794 -0.51237 -0.53573 0.51296 -0.74631 -0.49253 0.34149 0.20064 -0.14836 0.026493 -0.70602 0.89482 -0.1818
stock -0.0743 -0.77841 0.49341 0.73968 0.7554 -0.78968 -0.63113 -0.54916 -0.43567 0.68255 0.074013 0.36359 -0.60005 -0.34957 0.42048 0.73399 -1.111 -0.39159 -0.97131 -0.85833 2.0588 -0.39448 0.11897 -0.23794 -0.97022 -1.0812 -0.16123 0.18695 0.36667 0.30179 3.2035 0.037224 1.132 0.67364 0.45764 -1.6357 -1.2271 -0.29407 0.6426 -0.74074 -0.43575 -0.3363 0.45234 0.57153 0.0029191 0.10863 0.31306 0.49593 0.82498 -0.16104
cars 0.51724 -0.26031 1.7203 -0.47484 -0.57787 0.16375 -1.4448 -0.85441 -0.28838 -0.2202 0.2977 -0.62934 -0.97335 -0.28439 0.93359 0.016909 -0.41153 1.6066 -0.3413 -2.7262 0.75217 -0.33267 -0.84953 0.67237 0.0052213 -0.68454 -0.50516 0.64063 1.2926 -0.074289 2.5438 0.72682 0.022884 0.1408 1.1335 0.42737 0.56392 0.025196 -0.81137 0.69468 -0.2126 -0.3785 0.83051 -0.52962 0.27608 -0.10377 -0.62393 -0.59529 0.476 -0.86396
full 0.16809 0.61767 -0.41634 -0.60138 0.4687 -0.036198 -0.21118 -0.16867 0.45501 -0.16094 -0.008203 0.0066006 -0.3118 0.10166 0.47197 -0.035625 -0.15962 -0.036652 -0.022693 -0.94248 0.32916 0.37139 -0.10399 -0.46078 -0.17817 -1.1402 -0.32809 0.26368 0.10645 0.11089 3.7261 0.50193 -0.89473 0.090049 0.19136 0.29865 0.55301 0.033112 -0.16181 -0.67191 0.11974 -0.21346 -0.25396 -0.095459 -0.74858 -0.01529 0.25935 0.28064 -0.47626 -0.081396
which 0.90558 0.054033 -0.024091 0.08111 0.08645 0.65504 -0.34224 -0.76129 0.10258 0.059494 0.30353 -0.10311 -0.28574 -0.35059 0.23319 0.27913 -0.0021905 0.16015 -0.65622 -0.13339 0.38494 -0.20867 0.26137 -0.090254 -0.34935 -1.5398 -0.46352 0.16734 -0.19253 -0.1979 4.008 -0.24514 -0.15461 -0.2889 -0.049511 -0.29696 0.2161 -0.15298 -0.12235 0.071447 -0.11104 -0.15518 -0.026936 -0.067826 -0.56607 0.20991 -0.40505 -0.12906 -0.18325 -0.58796
has 0.54822 0.038847 0.10127 0.31319 0.095487 0.41814 -0.79493 -0.58296 0.026643 0.12392 0.35194 -0.02163 -0.87018 -0.27178 0.65449 0.42934 0.097544 0.31779 -0.11921 -0.097106 -0.47585 0.24907 0.1223 -0.29079 -0.16866 -2.1072 0.022174 0.45277 -0.64485 0.13181 3.6594 -0.1714 0.23919 -0.42249 -0.088331 -0.32925 -0.12847 0.47055 -0.075953 -0.27747 -0.41905 0.60803 -0.24261 0.014885 -0.23204 0.020879 -0.82175 0.26588 -0.40267 -0.17111
since 0.15423 -0.12552 0.022279 -0.067561 -0.35975 0.14409 -1.0902 -0.028693 -0.43147 -0.13781 0.37841 -0.63031 -0.9552 -0.20059 1.2613 0.35506 -0.48844 -0.1105 -0.99467 0.56709 0.014872 -0.10873 0.41999 -0.25197 -0.42385 -1.6795 0.021355 -0.11534 0.010638 0.91305 3.6854 -0.11751 -0.093662 -0.43435 0.013842 -0.18345 0.040666 0.39788 -0.33622 -0.20412 -1.1319 -0.12322 -0.24299 -0.11286 -0.55786 0.11893 -0.43917 -0.28507 -0.6303 -0.58676
become 0.25628 -0.080969 -0.22797 -0.20333 0.34036 0.099251 -0.61572 0.1808 -0.14969 0.13429 0.46767 0.33 -0.10931 0.57143 0.22907 0.57336 0.25958 0.5906 0.18307 0.041417 -0.53393 -0.35953 -0.10964 0.80199 0.041424 -1.8999 -0.5605 -0.10516 0.34805 0.65011 3.2213 -0.065601 0.35345 -0.93902 -0.13548 0.045436 -0.45061 0.53959 -0.5322 -0.89699 -0.7165 -0.11548 -0.095226 0.55254 0.036713 0.29047 -0.75333 -0.63826 -0.071853 0.30162
trend -0.49249 -0.25452 -0.044507 -0.42517 -0.065176 -0.23941 -0.61627 -1.051 0.13569 0.73005 0.31527 -0.60822 -0.49099 0.075801 0.22446 0.65207 -0.24169 -0.78128 -0.040562 -0.63688 0.22953 -0.47211 -0.55109 0.098287 0.284 -0.8594 -1.0235 0.30407 0.51638 0.90955 2.6534 0.51566 0.86148 -0.65843 -0.34959 -1.2163 -0.89912 -0.0078405 -0.45244 -0.17209 -1.271 -0.17803 -0.033604 0.21684 0.50369 -0.34575 0.73461 0.29465 0.35359 0.45601
author -0.50246 1.2178 -0.80065 -0.45854 0.65779 0.88534 -1.1829 -0.98874 0.17164 0.19184 -0.56623 0.89706 -0.12256 0.043018 1.25 -1.1094 0.26487 -0.14265 -0.064217 0.87101 0.24902 0.82074 0.077488 0.39431 1.1855 -1.6904 -1.0961 -0.97453 -0.60977 0.43168 1.6423 -1.6823 -0.011841 -0.56784 -0.42163 0.0045148 -0.65921 0.39646 0.40318 -0.073082 0.8942 0.90822 0.13035 -0.19791 0.21884 0.32797 0.063392 -0.034283 -0.16375 0.68641
high -0.65758 1.2502 0.19082 -0.6742 -0.10125 -0.046932 -0.27648 -0.48253 0.39254 0.3704 -0.24111 -0.6429 0.27676 -0.62422 -0.52203 0.29799 -0.1996 0.36884 -0.81686 -0.48865 0.11511 0.066147 -0.38797 -0.18239 -0.5759 -1.8776 0.61045 0.43434 -0.090497 0.17718 3.4808 0.026707 0.60486 -0.7885 1.248 -0.32864 -0.15526 0.12868 0.65885 -0.27297 -0.69856 0.46953 0.19621 0.40444 0.061996 0.046055 0.72038 -0.45636 -0.19089 0.099351
energy 0.068807 0.36938 1.0194 0.72622 0.33166 -0.11674 0.0519 -0.6263 0.69984 1.1034 0.88412 0.61662 0.06318 0.52554 -0.60775 0.58884 0.86194 0.73354 -0.27098 -1.1423 1.231 -0.38583 0.16454 -1.2052 0.081969 -1.1499 0.34174 0.16186 0.46667 1.2949 3.2169 0.25992 -0.19911 -0.86953 -0.43616 -0.7124 -1.0666 0.37666 1.222 0.49324 -0.11295 0.31521 -0.073187 -0.56738 -0.21031 0.75698 -0.53484 0.86998 0.023162 0.49219
your -0.029163 0.81769 0.3847 -0.77857 1.1049 -0.13655 -0.024691 -0.051103 0.7795 0.051357 -0.35748 1.1748 -0.098244 0.33111 0.40426 0.58685 -0.62536 0.094833 0.97024 -1.1437 0.13826 0.28136 0.46693 0.35226 0.68916 -1.9819 -1.4 0.17001 1.5929 -1.0086 3.6499 1.3949 -0.78823 0.40404 -0.36925 0.73075 0.027513 -0.11993 0.73716 -1.0365 0.68659 -0.30294 -0.55175 0.96466 0.053103 -0.084807 0.8512 -0.54186 0.32453 0.58425
face -0.051524 0.25137 -0.14722 -0.061506 0.32593 0.38156 0.55556 0.62217 -0.16847 -0.21296 -0.28909 -0.15927 -0.65887 0.083074 0.58494 0.0089347 0.11029 -0.81686 -0.15163 -0.78485 -0.78144 0.21021 -0.034455 -0.2988 -0.46719 -2.1546 0.15288 0.50366 0.3593 -0.12171 2.9504 0.76009 0.025124 -0.36938 -0.40831 0.40751 -0.16736 -0.15224 -0.09004 -1.3537 -0.24557 0.53153 0.56965 0.18923 0.61818 0.066045 -0.029378 -0.40707 0.0065966 -0.61169
rocker -1.0945 0.29681 -0.27036 -0.21186 -0.42579 0.97918 -1.0252 0.56422 -1.0687 0.8457 0.41974 0.24625 -0.46161 1.3143 0.84479 -0.17133 0.2405 -0.21459 0.20967 -0.6185 -0.87625 0.42519 -0.82675 0.45403 -0.29842 -0.45723 0.23143 0.4072 0.27797 -0.059548 0.87067 -0.59197 0.24588 0.98939 -0.42667 -0.020485 0.738 -1.1209 0.69305 -0.26407 0.39623 0.53043 -0.78232 0.30089 0.81881 -0.42699 -0.22816 -0.19383 -1.1585 0.33129
features 0.18415 1.2837 -0.13315 0.85202 -0.16616 0.50358 -0.76834 -1.4138 0.0034434 0.19684 -0.36421 0.20718 0.19544 0.64845 -0.11465 -0.12289 -0.089998 0.094185 -0.074735 -0.93085 -0.0123 -0.011746 -0.31494 0.5646 0.16602 0.1905 -1.077 0.16713 -0.21005 -0.5191 3.3654 -0.8286 0.60243 -0.66795 0.44968 1.0555 0.71098 -0.16741 -1.0291 -0.48822 0.62478 0.30575 -0.3318 -0.34307 0.19037 0.26546 0.60082 -0.65474 -0.25577 0.32353
prominent -0.28621 0.84594 -0.19601 -0.17128 0.58491 0.50594 -0.9724 -0.015061 -0.79113 -0.016189 -0.27263 -0.49637 0.45874 0.80702 -0.54 -0.6553 0.39814 -0.10305 -0.063881 0.057222 -0.084228 0.13389 -0.26724 0.54171 -0.5294 -1.5835 -0.6219 -0.75802 -1.3286 0.83608 2.2263 -0.99104 0.34042 -0.99148 0.082437 -0.061223 -0.68121 0.045026 -0.43239 0.34631 -0.072477 0.88061 -0.18629 0.4597 0.80327 -0.15478 -1.3035 -0.31755 -0.2877 -0.60177
slide -0.40681 -0.30433 0.64715 -0.25923 -0.63286 -0.21697 -0.29102 -0.26618 -0.095571 0.5427 -0.17507 -0.082458 -0.59069 0.67882 0.26682 0.49418 -0.51104 -1.0586 -0.65809 -0.90493 0.82212 -0.40261 -0.26974 -0.55888 0.45926 -0.34274 -0.12236 0.6493 0.72245 0.4224 2.3779 -0.024027 0.66817 0.49879 -0.38284 -0.17889 -0.18042 -0.46508 0.24966 -0.63558 -0.57937 0.21224 -0.25607 -0.058462 0.32083 -0.20343 1.4738 -0.29068 0.1844 -0.67373
guitar -1.334 0.18695 -0.62053 -0.27708 -0.80285 0.92864 -0.86185 0.046385 -0.95344 1.195 0.7443 0.94846 -0.64543 0.65876 -0.46235 -0.6636 -0.2403 0.29563 0.033245 -1.6128 -0.20055 0.71034 -0.23715 0.071529 0.71242 0.1387 -0.52929 0.020511 -0.064183 -0.7199 2.8574 -0.95029 0.84956 0.54921 0.52704 0.85997 0.79074 -0.33533 0.10987 0.25541 0.74448 0.76111 -1.2817 -0.56026 0.48403 0.21116 0.8305 -0.87011 -1.6753 0.34516
contributions -0.11961 0.85124 -0.12588 -0.30419 0.25585 0.74525 -0.30086 -0.47797 0.46518 0.56551 -0.22242 0.43016 0.52785 -0.49961 0.30048 -1.037 0.76519 -0.21151 0.54509 -0.34223 0.76778 -0.52784 0.12595 -1.0091 -0.14108 -0.93476 -0.58449 -1.0983 -0.6743 0.052206 2.5148 0.49189 -0.056383 -0.71409 -0.64109 0.10883 -0.68036 0.58382 -0.065131 -0.064127 -0.13282 -0.023869 -0.12454 0.58551 -0.79495 -1.0551 -0.70585 1.0317 -0.90167 -0.0025567
musicians -0.59718 0.61053 -0.52348 -0.75207 -0.20649 0.019425 -1.4 0.50461 -0.98962 1.203 0.58577 0.26746 0.45138 0.86413 0.0022735 -0.71855 0.96006 0.19632 0.14864 -1.2075 0.28499 0.83889 0.023437 0.90629 0.11823 0.32549 -1.0929 -1.3608 -0.87197 -0.61572 2.5404 0.15127 0.62763 -0.72275 0.47083 0.41676 0.12145 -0.23152 -0.34271 0.38933 -0.18477 0.45403 -0.24842 -0.2567 0.51383 -0.17389 -0.57097 -0.77938 -1.8444 0.13715
though 0.3903 -0.17259 -0.075305 -0.39021 0.31059 0.38853 -0.7663 0.11533 -0.47753 0.21311 0.20345 0.14469 -0.24917 -0.35336 0.71317 0.38793 0.016483 -0.26871 -0.30272 -0.58739 -0.38843 0.067819 0.30334 0.045109 0.37306 -1.7007 -0.46486 0.2912 0.2858 -0.022228 3.2505 -0.092747 0.28382 -0.64361 0.22927 -0.3339 0.008062 0.40452 -0.45019 -0.40314 -0.38381 0.16924 -0.076574 0.31471 -0.19571 0.0093488 -0.42037 -0.022852 -0.29299 0.15449
war 0.36544 -0.15746 -0.23966 -1.0307 -0.070691 0.21397 -0.041914 0.28451 -0.60803 -1.1451 -0.32878 -0.20474 -0.81884 -0.50994 0.64189 -0.54164 0.019143 0.18778 -0.66691 0.93691 0.03469 -0.04457 -0.014529 -0.76871 -0.20773 -2.551 -0.96284 -0.61126 1.2183 1.1249 3.0499 -0.38817 -1.0091 -0.47156 -0.56735 0.53067 -0.61745 -0.61581 -1.1875 -0.21176 -0.50487 -0.24842 0.53851 -0.98083 0.089771 0.24673 -0.33966 0.011441 -1.4997 -0.39907
came 0.03413 -0.1529 -0.087984 -0.21692 0.29229 -0.072007 -1.0252 0.50136 -0.57328 -0.10813 -0.18637 -0.27509 -0.80462 -0.15915 0.56122 -0.18315 -0.24854 -0.60133 -0.98713 -0.08832 0.033427 0.29101 0.071743 -0.43179 0.2404 -1.9052 -0.1955 0.068605 0.019887 -0.10984 3.0229 0.24949 -0.28191 -0.0098004 0.1651 -0.15466 0.11498 0.25807 -0.029927 -0.21309 -0.35143 0.32539 -0.37124 -0.43276 0.034539 0.14591 -0.15846 -0.13913 -0.071206 -0.46056
end -0.04116 0.22243 -0.11458 -0.33628 0.038872 -0.066803 -0.58309 -0.19971 -0.51087 -0.29037 -0.49177 -0.13533 -1.0737 -0.4156 0.81837 0.47902 0.078869 -0.60318 -0.5732 0.065613 0.21122 -0.20912 -0.27305 -0.21332 -0.077237 -1.4695 0.46413 0.1222 0.80235 0.25796 3.7452 0.14293 -0.51556 0.34662 0.12782 -0.21896 0.15115 -0.2969 -0.37945 -0.41931 -0.74006 -0.10499 -0.31756 -0.23893 -0.40606 0.24247 0.55832 -0.1801 -0.37332 -0.18039
before 0.30806 -0.29665 -0.25706 -0.5871 0.095135 -0.15211 -0.91478 0.75727 -0.30423 -0.29058 -0.13034 -0.10095 -0.89755 -0.0047833 0.8006 0.16963 -0.50634 -0.65842 -1.1339 -0.11095 0.65418 0.35378 0.6365 -0.30083 0.026192 -1.9383 0.69073 0.17019 0.19922 -0.39307 3.4795 0.32546 -0.76314 -0.15125 0.18169 -0.0076951 0.55525 0.56142 0.2797 -0.12891 -0.39037 0.0044389 -0.32367 0.0098883 -0.37866 0.30018 0.20875 -0.53844 -0.11058 -0.54785
final -0.41236 0.6493 -0.55848 0.86319 -0.00088457 0.072533 -0.077646 1.155 -0.28082 -0.3359 -0.41617 -0.61781 -1.4866 0.098734 1.1298 -0.41111 0.11282 -1.1371 -1.5276 -0.34007 0.0083625 -0.25204 0.30779 -0.16048 0.23843 -1.1412 -0.012929 -0.20523 -0.3834 -0.49864 3.361 0.43769 -0.74055 0.24088 0.35205 -0.023431 1.2037 0.76088 -0.55215 -1.2606 0.11169 -0.81801 -0.25767 -0.37945 -0.63069 0.68894 0.81307 0.26206 0.10448 -0.44302
advance -0.0048975 -0.0023489 0.56149 0.48523 -0.17525 -0.74413 -0.41993 0.61819 0.068955 -0.35436 -0.11798 -0.78113 -0.39373 -0.38272 0.17277 -0.021763 -0.38526 -1.2156 -0.3201 -0.26927 0.4085 -0.54548 0.00765 0.0018442 -0.14325 -0.9564 -0.15075 -0.77029 0.5009 -0.17855 2.8339 0.60294 -0.7113 -0.25332 -0.13535 -0.33507 -0.34801 0.53216 -0.66414 -0.72107 0.50048 -0.65733 0.56568 -0.50016 0.10437 0.134 0.76152 0.59822 -0.31529 0.082068
began 0.1729 -0.37408 -0.39495 -0.62085 -0.87303 -0.080944 -1.4575 0.24005 -0.32788 -0.26953 0.069151 -0.213 -0.75173 -0.022368 0.39601 -0.24098 -0.65245 -0.054433 -0.76027 -0.065573 1.2223 0.33252 0.35307 -0.060526 -0.039374 -1.3007 0.069543 -0.38317 0.17746 -0.007259 3.0561 -0.0069116 -0.43363 -0.74156 -0.23148 0.17969 -0.26445 0.087256 -0.039536 0.38403 -0.59392 -0.21908 -0.40372 -0.34873 0.19765 -0.24811 0.17103 -0.62494 -0.75671 -0.45053
bringing 0.40698 -0.013631 0.085935 -0.37944 0.32153 0.020739 -0.27763 0.038616 0.45818 0.3568 -0.083113 -0.30673 -0.26056 -0.1562 0.38966 -0.27921 0.33705 0.060463 -0.15775 -0.30463 0.36876 0.40488 -0.10641 -0.37789 0.17861 -1.0517 0.059702 -0.34551 0.52667 0.25069 2.8246 0.79713 -0.14529 -0.25491 -0.053891 0.21962 -0.39505 0.027292 -0.29479 -0.006711 -0.62664 0.026405 0.33369 -0.31391 -0.047115 0.26008 -0.36284 0.16831 -0.27413 -0.33637
played -1.0723 0.53651 -1.0989 0.099792 -0.30336 0.35248 -0.9089 0.60279 -1.2807 0.10903 0.30724 0.48479 -1.3016 0.050411 0.57312 -0.39032 0.48515 0.38117 -1.4408 0.25317 -0.64775 0.69734 0.74485 0.72023 -0.10168 -1.0451 0.1497 -0.085311 -0.32822 -0.81971 2.7359 0.57394 0.65671 -0.37771 0.80289 0.59998 0.51306 0.5735 -0.29338 -0.67547 -0.33916 0.2325 -0.42794 -0.5166 -0.22695 0.58054 -0.15595 -0.65123 -0.4665 0.37444
tailback -1.8707 0.36697 0.73067 0.21545 -0.080695 -0.64847 -0.22154 0.13307 0.18451 -0.3964 -0.60665 0.86079 -1.3144 -0.78621 -0.33848 -0.034132 0.15376 -0.058335 0.35661 0.23031 -1.8996 0.31434 0.41392 -0.39896 0.35269 -0.34418 1.5237 -0.26602 0.0097313 -0.88551 0.47671 0.45521 0.091281 0.142 1.8857 1.2986 -0.089067 0.63408 -0.11806 -0.25344 -0.69805 1.1094 -0.72259 -0.40997 -0.31467 0.42845 1.1876 0.11992 -0.51501 0.44077
until 0.20025 -0.32821 -0.40859 -0.79438 -0.016211 -0.15642 -0.87742 0.79077 -0.72598 -0.84135 0.32721 0.16083 -0.39978 -0.16564 0.97777 0.75359 -0.58771 -0.18122 -0.86418 0.21439 0.93586 -0.27561 1.1309 0.13037 -0.26363 -1.5425 0.44697 0.11369 0.81079 0.50902 3.5276 -0.40359 -1.1329 -0.31116 0.10513 -0.11283 0.36168 0.73762 0.38905 -0.45252 -0.28996 -0.6103 -0.41276 -0.20891 -0.92793 0.52376 0.075897 -0.81873 -0.46464 -0.09077
